-0.001274 -0.006627 0.009442 0.017007 -0.018613 0.029878 0.009462 -0.004818 -0.011264 0.009838 -0.012742 -0.010021 0.021217 -0.021082 -0.021551 0.022435 0.007964 -0.025804 0.002294 0.022287 0.006409 -0.015890 -0.020031 -0.026648 -0.002584 -0.003430 0.039858
0.024752 -0.022766 -0.024998 0.024739 -0.032136 0.002429 0.021704 -0.047482 0.012575 0.037280 0.008710 -0.004590 0.064494 -0.036042 -0.018315 0.013024 0.014246 -0.066859 -0.003007 0.028222 0.026062 -0.021498 0.002383 -0.028752 0.005407 0.016306 0.001741
0.010418 -0.012747 0.016504 0.025555 -0.026960 0.051115 0.016976 -0.010590 -0.019007 0.012163 -0.016263 -0.009428 0.028660 -0.033713 -0.038324 0.029247 0.015098 -0.032757 -0.011269 0.026678 0.018458 -0.026787 -0.032708 -0.040000 -0.000963 -0.003256 0.069742
0.052157 -0.037919 -0.059427 0.047246 -0.065224 0.014432 0.051151 -0.104563 0.024921 0.079157 0.022293 -0.020759 0.142091 -0.060662 -0.031034 0.033138 0.035232 -0.128708 -0.004209 0.049280 0.036956 -0.042626 0.011540 -0.065771 0.000336 0.031516 -0.009748
0.032190 -0.029415 -0.047277 0.036113 -0.042580 0.021308 0.044347 -0.072989 -0.000714 0.058665 0.018332 -0.040324 0.111063 -0.038183 0.002008 0.038624 0.027000 -0.080505 0.018817 0.053842 -0.015958 -0.025222 0.016387 -0.065486 -0.003321 0.022194 -0.039410
0.046778 -0.032995 -0.062111 0.047574 -0.063720 0.023334 0.051233 -0.107468 0.010670 0.076597 0.019676 -0.032141 0.148111 -0.062721 -0.027861 0.039872 0.030865 -0.120101 0.009045 0.057609 0.024649 -0.035360 0.013903 -0.073034 -0.003221 0.030891 -0.011558
0.023391 -0.023322 -0.008538 0.020312 -0.039040 0.032169 0.020085 -0.054050 0.012083 0.027700 -0.008290 -0.028999 0.093327 -0.027046 0.004298 0.046272 0.053730 -0.037151 0.009343 0.043611 -0.057821 -0.014427 0.007074 -0.057837 -0.022124 0.029583 -0.049164
-0.003515 -0.008122 0.000802 0.014822 -0.008321 0.031102 0.011232 -0.015521 -0.014717 0.016257 -0.004166 -0.022329 0.024508 -0.018123 -0.006499 0.021536 0.005918 -0.022084 0.009397 0.029158 -0.008823 -0.016764 -0.010230 -0.026874 0.003416 0.002384 0.011548
-0.001869 -0.012233 0.018099 0.013773 -0.025191 0.027394 0.009966 -0.000871 -0.011216 0.003201 -0.009193 -0.006309 0.015233 -0.019997 -0.023008 0.019031 0.010395 -0.016645 0.003137 0.009068 0.010142 -0.016572 -0.017123 -0.009634 0.001054 -0.008086 0.035658
0.022773 -0.032032 -0.012374 0.011078 -0.024267 -0.008091 0.013724 -0.040606 0.005986 0.023053 0.018815 0.018056 0.043435 -0.035277 -0.019850 0.000303 0.017767 -0.065600 0.000213 0.006724 0.046430 -0.017583 0.011897 0.000543 0.012411 0.006532 0.001443
0.010744 -0.019932 0.024133 0.015391 -0.024311 0.044003 0.018881 0.000289 -0.028591 -0.006832 -0.013997 0.004177 0.014772 -0.031669 -0.043308 0.021319 0.021882 -0.024912 -0.003306 0.006371 0.023256 -0.025302 -0.023695 -0.012969 0.000573 -0.012864 0.064218
0.050330 -0.053861 -0.017809 0.007530 -0.024984 -0.017259 0.022161 -0.101971 0.034901 0.040013 0.028418 0.060256 0.078023 -0.052442 -0.039720 -0.002974 0.042401 -0.125374 -0.010801 -0.004421 0.091514 -0.036185 0.007638 0.001266 0.008051 0.020449 -0.006360
0.031971 -0.032485 -0.038454 0.029005 -0.025850 0.017205 0.030238 -0.078279 -0.003275 0.049102 0.016072 -0.017473 0.093187 -0.040528 -0.005741 0.032692 0.023176 -0.084950 0.013831 0.046394 0.000017 -0.031966 0.012351 -0.047917 0.003354 0.019805 -0.011145
0.045207 -0.045680 -0.026282 0.018379 -0.024197 -0.000072 0.031167 -0.100672 0.015996 0.040393 0.016903 0.042744 0.093489 -0.057079 -0.040130 0.011672 0.039989 -0.114095 0.003908 0.011138 0.068415 -0.031728 0.008668 -0.017176 0.002933 0.022296 -0.017656
0.024336 -0.020866 0.001185 0.010407 -0.008756 0.026082 -0.001737 -0.068407 0.020844 0.018215 -0.010388 0.001181 0.068358 -0.025918 -0.007187 0.036697 0.037459 -0.049051 -0.005674 0.035784 -0.036506 -0.025594 -0.002332 -0.023613 -0.016279 0.027480 -0.000700
-0.002592 -0.008696 0.003521 0.011491 0.000339 0.030044 0.010418 -0.018769 -0.016495 0.011528 -0.006482 -0.019027 0.017228 -0.019902 -0.007189 0.018035 0.002981 -0.024472 0.009733 0.022239 -0.006853 -0.018618 -0.010901 -0.019458 0.008152 0.002509 0.026402
-0.002490 -0.014213 0.022304 0.014270 -0.022384 0.026961 0.006178 0.001130 -0.018977 0.003552 -0.000196 -0.023738 0.010030 -0.011097 -0.032459 0.021139 0.013585 -0.019928 0.002445 0.013824 0.007319 -0.017942 -0.017732 0.012842 -0.001428 -0.012461 0.042590
0.023296 -0.053752 -0.015615 0.000158 -0.027871 -0.017194 0.008553 -0.043935 -0.008438 0.020840 0.044080 -0.005938 0.032227 -0.021795 -0.023008 -0.005331 0.026676 -0.067397 0.018975 0.011045 0.045950 -0.017328 0.006567 0.042565 0.012667 -0.009605 0.024723
0.010010 -0.033537 0.020384 0.012175 -0.028651 0.038251 0.013394 -0.001676 -0.035156 0.002661 0.005595 -0.016421 0.009150 -0.019426 -0.051971 0.022679 0.032144 -0.025878 0.009229 0.016212 0.012323 -0.030261 -0.027555 0.024214 0.001731 -0.015375 0.057844
0.050018 -0.108450 -0.005907 -0.030531 -0.026293 -0.035420 0.018143 -0.101635 0.014528 0.018758 0.104885 0.025898 0.047167 -0.031903 -0.041962 -0.020859 0.063627 -0.126749 0.036220 -0.018682 0.087955 -0.029834 -0.001649 0.096631 0.028624 -0.021887 0.009929
0.030495 -0.041834 -0.016078 0.020789 -0.033865 0.008007 0.014379 -0.071990 -0.005263 0.022721 0.020365 -0.014189 0.061066 -0.041343 -0.012312 0.021242 0.032744 -0.073972 0.016983 0.015598 0.025679 -0.033822 0.016651 0.001178 0.017273 0.002493 0.014962
0.045537 -0.086439 -0.012848 -0.005627 -0.028273 -0.014898 0.026393 -0.100737 0.004323 0.021169 0.086294 0.012648 0.064444 -0.039247 -0.047031 -0.000569 0.062793 -0.116612 0.037759 -0.004731 0.056295 -0.030285 -0.001383 0.072954 0.020366 -0.015314 -0.008504
0.022016 -0.025001 0.032637 -0.008187 0.002197 0.002820 -0.029898 -0.063225 0.026980 -0.021391 -0.014128 0.014181 0.020274 -0.022810 -0.015070 0.009207 0.046568 -0.028183 -0.004161 -0.019740 0.035995 -0.029789 0.002382 0.021969 0.006407 -0.001088 0.048212
-0.004589 -0.016847 0.012019 0.007999 -0.002273 0.028746 0.004409 -0.011922 -0.021220 -0.001772 -0.005112 -0.020196 0.005509 -0.018747 -0.010460 0.013829 0.008674 -0.008800 0.007889 0.009775 0.003520 -0.018869 -0.004267 0.001544 0.011809 -0.004882 0.031546
-0.000959 -0.017827 0.009736 0.020026 -0.030558 0.032902 0.006377 -0.006307 -0.032063 0.017363 -0.004032 -0.032688 0.013635 0.012182 -0.038114 0.022881 0.010890 -0.017811 -0.009851 0.020657 0.013371 -0.017682 -0.019847 -0.000912 -0.010845 -0.017404 0.082425
0.023171 -0.067777 -0.019483 0.006832 -0.048247 -0.003110 0.008693 -0.038390 -0.037381 0.034658 0.029485 -0.037033 0.024688 0.020577 -0.024774 -0.005755 0.020899 -0.046176 -0.001729 0.019299 0.043257 -0.000683 0.020490 0.052941 -0.005703 -0.035079 0.073806
0.009850 -0.041165 0.015895 0.022888 -0.044008 0.055888 0.010876 -0.006412 -0.056885 0.021209 -0.005917 -0.041949 0.006609 0.021000 -0.060501 0.024791 0.020666 -0.022457 -0.017970 0.018482 0.024976 -0.030245 -0.017128 0.026878 -0.011669 -0.046245 0.118451
0.050122 -0.153520 -0.025550 -0.033305 -0.052971 -0.029339 0.016667 -0.087748 -0.053989 0.053369 0.094239 -0.040309 0.025628 0.054775 -0.047396 -0.032237 0.046118 -0.104847 0.013335 0.012416 0.103306 0.029963 0.020260 0.108819 -0.004470 -0.068058 0.105734
0.029632 -0.061749 -0.000578 -0.000484 -0.015872 -0.004347 0.016250 -0.070387 -0.017916 0.023919 0.069649 -0.032693 0.047074 -0.023317 -0.027916 0.011463 0.038793 -0.080938 0.004665 0.004244 0.043152 -0.023531 -0.000597 0.039931 0.006876 -0.024959 0.041749
0.045110 -0.119400 -0.022598 -0.005943 -0.045329 -0.011581 0.023372 -0.100170 -0.057876 0.052277 0.085287 -0.049024 0.048272 0.043864 -0.064095 -0.007813 0.047495 -0.108498 0.009291 0.017277 0.084230 0.011138 0.008716 0.093511 -0.008016 -0.060669 0.091352
0.020703 -0.063128 0.045086 -0.056451 0.029270 -0.021156 -0.023848 -0.053453 0.018544 -0.023658 0.080123 -0.006236 0.002315 -0.023307 -0.015181 -0.008455 0.071114 -0.045405 0.007898 -0.043388 0.054793 -0.029437 -0.015194 0.088968 -0.003638 -0.035245 0.045229
-0.003230 -0.020434 0.015201 0.003954 0.005237 0.023475 0.001965 -0.007362 -0.027745 0.002456 0.013865 -0.026586 0.000985 -0.010083 -0.022960 0.012921 0.013117 -0.014265 -0.000392 0.009428 0.013783 -0.018252 -0.011880 0.010918 -0.000038 -0.017744 0.052637
-0.002933 -0.004592 0.009731 0.024038 -0.026344 0.040748 0.010108 -0.002354 -0.020558 0.005683 -0.012072 -0.028479 0.018690 -0.000826 -0.036188 0.025808 0.010301 -0.008744 -0.006196 0.018094 0.006071 -0.026499 -0.020084 -0.010689 -0.006375 -0.011730 0.052919
0.023279 -0.041495 -0.029323 0.042493 -0.073235 0.038394 0.009444 -0.024686 -0.030727 0.019655 -0.005740 -0.048952 0.030270 0.035074 -0.042890 0.013873 0.013559 -0.009821 -0.017728 0.018062 0.037062 -0.013627 0.012995 0.037532 -0.008253 -0.021943 0.035422
0.010544 -0.016973 0.009470 0.040800 -0.055179 0.078977 0.017657 -0.001031 -0.043651 -0.000377 -0.014180 -0.047315 0.016325 0.022717 -0.065916 0.038162 0.018582 0.001144 -0.028252 0.017970 0.010745 -0.044607 -0.029286 0.001657 -0.010261 -0.024839 0.097584
0.048199 -0.135930 -0.047702 0.035293 -0.138812 0.055441 0.017454 -0.048925 -0.056546 0.047777 -0.004088 -0.070506 0.029207 0.117479 -0.047102 0.002658 0.028391 -0.004258 -0.017664 0.024406 0.039443 0.014615 0.041992 0.078083 -0.034831 -0.055455 0.080781
0.029598 -0.068853 -0.017615 0.003574 -0.027926 0.001411 0.033137 -0.087035 -0.051529 0.050169 0.061434 -0.054183 0.047821 0.043622 -0.047718 0.011537 0.027836 -0.075794 -0.022558 0.024750 0.046135 -0.022549 0.002111 0.041196 -0.016176 -0.043458 0.110232
0.044885 -0.111849 -0.040543 0.041606 -0.118284 0.047952 0.028528 -0.076761 -0.062410 0.051947 0.021082 -0.082460 0.056548 0.108047 -0.063080 0.019906 0.037750 -0.032964 -0.020582 0.026828 0.022472 -0.006062 0.024496 0.061359 -0.034617 -0.053425 0.111180
0.021085 -0.087481 0.016614 -0.065860 0.020183 -0.007984 0.011226 -0.091564 -0.052291 0.024863 0.081907 -0.037609 -0.001643 0.070571 -0.025614 -0.017320 0.052409 -0.054265 -0.027800 -0.009698 0.076014 -0.001404 0.002613 0.067471 -0.037247 -0.073390 0.143856
-0.002243 -0.011741 0.008689 0.007983 -0.001961 0.029771 0.011093 -0.020488 -0.039069 0.015680 0.008331 -0.032172 0.005267 0.013357 -0.029922 0.015836 0.008723 -0.015224 -0.015475 0.017388 0.020488 -0.025921 -0.013796 0.006363 -0.004547 -0.022210 0.072489
-0.002222 0.013244 0.010029 0.025413 -0.027866 0.038962 0.017519 0.004397 -0.017727 0.008948 -0.007403 -0.022490 0.018634 -0.020225 -0.029579 0.025285 0.006561 -0.009427 -0.005245 0.017285 0.007253 -0.028992 -0.022885 -0.014561 -0.006653 -0.010810 0.034601
0.023454 0.034568 -0.048542 0.072923 -0.074328 0.040308 0.023715 -0.016989 -0.026802 0.015108 -0.020821 -0.040557 0.029613 0.007717 -0.054979 0.034268 0.004223 0.019146 -0.020565 -0.007010 0.032655 -0.011176 -0.005153 0.024093 -0.010276 -0.008818 -0.016707
0.009735 0.024080 0.005458 0.056156 -0.055483 0.056942 0.030273 0.015343 -0.038672 0.001973 -0.015824 -0.038484 0.020249 -0.002286 -0.072034 0.041332 0.015156 0.007742 -0.029247 0.004335 0.005024 -0.044013 -0.040478 0.001107 -0.003022 -0.023087 0.059754
0.048308 0.038970 -0.085447 0.136961 -0.178173 0.098194 0.028771 0.001393 -0.042448 0.018507 -0.081712 -0.057947 0.028515 0.028974 -0.077739 0.046516 0.011575 0.101434 -0.023548 -0.028346 0.052136 0.034104 0.014066 0.070050 -0.032936 -0.019192 -0.126705
0.030079 -0.065374 -0.033394 0.024958 -0.063355 0.047528 0.029871 -0.059947 -0.040553 0.033903 0.001446 -0.061147 0.054317 0.034181 -0.041871 0.019693 0.021475 -0.002665 -0.005286 0.042632 0.004511 -0.027759 0.007991 0.022381 -0.004966 -0.014276 0.045188
0.044992 0.017601 -0.077394 0.118236 -0.147022 0.066865 0.043811 -0.028418 -0.041900 0.029243 -0.047102 -0.067807 0.060596 0.030072 -0.084866 0.043170 0.019165 0.052704 -0.017730 -0.005796 0.039209 0.000506 0.004351 0.052579 -0.009602 -0.017523 -0.078569
0.019721 -0.105190 0.004375 -0.036404 -0.064633 0.076014 0.006126 -0.048400 -0.030963 -0.008375 -0.011676 -0.056333 0.008326 0.066537 -0.025520 0.001213 0.040184 0.045521 -0.015528 0.033736 -0.005944 -0.020655 0.028184 0.029287 -0.026313 -0.019203 0.118133
-0.002571 -0.008356 0.003826 0.015105 -0.012760 0.039342 0.014984 -0.012706 -0.026154 0.008150 -0.004006 -0.030179 0.006285 -0.000099 -0.022749 0.020671 0.007704 0.001609 -0.005274 0.020126 -0.002358 -0.025731 -0.014135 -0.001114 0.002953 -0.009523 0.035971
-0.000920 0.002060 0.008248 0.016166 -0.019654 0.037588 0.014392 0.003819 -0.018797 0.010283 -0.007093 -0.023391 0.016720 -0.016797 -0.024935 0.021031 0.006385 -0.016229 0.002115 0.029353 -0.001829 -0.034116 -0.022946 -0.008310 -0.004407 -0.005183 0.035521
0.023897 0.046797 -0.044127 0.075352 -0.054699 0.046605 0.031270 -0.001668 -0.033083 0.017609 -0.030384 -0.046873 0.031594 0.007897 -0.037625 0.022414 -0.001300 0.009735 -0.012566 0.003504 -0.005247 -0.009694 -0.013639 0.038974 -0.017961 -0.011718 -0.035785
0.010547 -0.001947 0.011704 0.041858 -0.030742 0.060941 0.029028 0.011217 -0.044299 0.007981 -0.022822 -0.040457 0.015119 -0.000347 -0.051048 0.021279 0.008363 0.005792 -0.019359 0.038638 -0.014382 -0.050127 -0.035582 0.014329 -0.006151 -0.017031 0.057269
0.047309 0.143162 -0.102785 0.194883 -0.142693 0.116350 0.046465 0.026113 -0.055085 0.011055 -0.122294 -0.056901 0.023208 0.025272 -0.059100 0.059485 -0.001942 0.087685 -0.026628 -0.062117 -0.018030 0.047238 -0.010903 0.065291 -0.059452 -0.027836 -0.144681
0.030127 -0.003768 -0.048881 0.058948 -0.079628 0.063740 0.045088 -0.015618 -0.036042 0.029082 -0.022049 -0.056405 0.047416 0.000731 -0.039669 0.030539 0.009268 0.015984 -0.009772 0.028698 -0.003505 -0.018995 -0.007162 0.033732 0.000690 -0.001404 -0.059628
0.044327 0.081113 -0.089039 0.160050 -0.118748 0.090381 0.056209 -0.007370 -0.052738 0.025917 -0.082687 -0.061190 0.050982 0.012312 -0.067404 0.044653 0.005733 0.049386 -0.020654 -0.020694 -0.016544 0.004557 -0.008927 0.053213 -0.028023 -0.013285 -0.089476
0.019330 0.012045 -0.015606 0.030146 -0.107138 0.108829 0.029375 0.037151 -0.019024 -0.023315 -0.055039 -0.053398 0.001573 0.007126 -0.045121 0.023589 0.026091 0.089505 -0.022812 0.010431 -0.014559 0.017254 -0.011554 0.049557 -0.018804 0.006178 -0.082297
-0.001746 0.011063 0.000373 0.020736 -0.018397 0.039792 0.023736 0.009698 -0.027168 0.004406 -0.009547 -0.030816 0.004732 -0.010756 -0.019415 0.019340 0.000562 0.001554 -0.003128 0.020936 -0.006760 -0.023306 -0.018375 0.004316 0.009071 -0.003648 0.009297
-0.003706 -0.025369 0.012096 0.009172 -0.019034 0.029519 0.008332 0.009361 -0.022186 0.005639 0.036599 -0.021743 0.006333 -0.014081 -0.029195 0.014035 0.002963 -0.016209 -0.006761 0.044397 -0.006869 -0.028680 -0.023901 0.002387 -0.002846 -0.008659 0.044802
0.022303 0.000644 -0.046449 0.067436 -0.030331 0.003957 0.027308 -0.000248 -0.048762 0.002314 0.063472 -0.039619 0.015784 0.023217 -0.041497 0.004503 -0.011460 0.016033 -0.024195 0.049250 -0.034216 -0.016315 -0.018785 0.051888 -0.008738 -0.023886 -0.012566
0.010486 -0.052969 0.006821 0.031494 -0.021588 0.014954 0.019340 0.014993 -0.053893 -0.007762 0.072500 -0.027258 0.000158 0.000721 -0.057834 0.010621 0.001573 0.016087 -0.027023 0.079751 -0.017621 -0.053772 -0.036349 0.031888 -0.001896 -0.021508 0.072156
0.045281 0.091609 -0.091311 0.196787 -0.088091 0.051448 0.040151 0.008325 -0.086283 -0.013562 0.063606 -0.054963 0.008266 0.067100 -0.027905 0.038269 -0.025906 0.072584 -0.023785 -0.014157 -0.092131 0.048006 -0.042080 0.099547 -0.072762 -0.058667 -0.133770
0.028172 0.025432 -0.043348 0.086361 -0.071226 0.092265 0.050366 -0.016106 -0.043113 0.029040 -0.039562 -0.056630 0.035205 0.012778 -0.043729 0.038567 0.004516 0.035204 -0.008144 0.015092 -0.049292 -0.018294 -0.019603 0.029280 -0.008641 -0.004945 -0.058017
0.045380 0.030314 -0.085314 0.159810 -0.081760 0.026904 0.045998 -0.020253 -0.074806 0.006915 0.068535 -0.058425 0.031691 0.038213 -0.046926 0.027708 -0.014378 0.070588 -0.016910 0.029496 -0.073046 0.006382 -0.026979 0.089797 -0.043122 -0.034268 -0.100084
0.019935 0.084155 -0.011229 0.097620 -0.080689 0.129077 0.023838 0.031855 -0.032175 -0.025954 -0.125926 -0.048703 -0.012962 0.021974 -0.042331 0.047456 0.017893 0.116821 -0.014994 -0.008418 -0.080826 0.016954 -0.037303 0.036372 -0.042398 0.000223 -0.074815
-0.002811 -0.000123 0.005183 0.015348 -0.009247 0.054722 0.014215 0.005230 -0.032331 0.004309 -0.001264 -0.023817 -0.006066 -0.004099 -0.021163 0.018813 -0.001482 0.009638 -0.003378 0.023206 -0.027171 -0.025339 -0.024033 0.010694 0.009292 -0.004139 0.017244
-0.002570 -0.034015 0.016650 0.000326 -0.015823 0.038103 0.011939 0.015840 -0.021491 0.001898 0.048559 -0.015353 0.002280 -0.010358 -0.038771 0.017327 0.001522 -0.024170 -0.008692 0.038920 -0.007555 -0.020437 -0.029353 -0.021204 -0.000461 -0.010997 0.067217
0.021220 -0.030993 -0.017008 0.029119 -0.012029 0.000354 0.028494 0.003789 -0.036237 0.003037 0.124025 -0.044064 0.005962 0.021361 -0.040617 -0.010580 -0.024549 -0.002041 -0.018473 0.047743 -0.038612 -0.025227 -0.019524 0.024718 -0.001827 -0.036785 0.050443
0.009141 -0.070772 0.012337 0.011934 -0.024503 0.046015 0.030759 0.029142 -0.041327 -0.010186 0.096949 -0.037067 -0.009362 -0.009078 -0.069258 0.007768 -0.008023 0.008690 -0.027598 0.062910 -0.013215 -0.033925 -0.044856 0.000609 0.002078 -0.024654 0.100903
0.045080 -0.018755 -0.046748 0.088908 -0.002826 -0.016312 0.041002 0.009239 -0.085240 -0.028504 0.274772 -0.062103 0.007276 0.081677 -0.026167 -0.026097 -0.054879 0.000413 -0.022673 0.023229 -0.129715 0.006616 -0.036041 0.082348 -0.047182 -0.101104 0.041590
0.027751 0.029691 -0.040645 0.072851 -0.061811 0.044751 0.014206 -0.011700 -0.058949 0.021638 0.079253 -0.044714 0.014508 0.058667 -0.041145 0.031775 -0.000856 0.014081 -0.012657 0.042660 -0.083091 -0.017715 -0.030839 0.049082 -0.019267 -0.023341 -0.055070
0.042875 -0.058060 -0.056313 0.089121 -0.029610 -0.013563 0.047440 0.004486 -0.072627 -0.013082 0.244292 -0.071131 0.024454 0.057266 -0.063006 -0.025675 -0.033813 0.010833 -0.018042 0.054464 -0.099595 -0.013498 -0.031697 0.078788 -0.023589 -0.067155 0.030690
0.018382 0.107642 -0.014331 0.112820 -0.062138 0.047080 -0.022152 0.012728 -0.063875 -0.027777 0.043681 -0.034987 -0.029608 0.080718 0.002307 0.032194 -0.000736 0.096135 -0.026202 0.035122 -0.152093 0.040200 -0.060216 0.083568 -0.058156 -0.033558 -0.125796
-0.003960 -0.004662 0.004349 0.012024 -0.009593 0.027748 -0.002398 0.015125 -0.040646 0.004663 0.045924 -0.021364 -0.015217 0.017663 -0.017226 0.018384 -0.006020 0.005527 -0.007183 0.034538 -0.036585 -0.026255 -0.022925 0.012378 0.002116 -0.015087 0.023744
-0.002123 -0.003567 0.016432 0.016109 -0.020820 0.029916 0.010328 0.009715 -0.015068 0.023273 -0.006967 -0.006656 0.011966 -0.017626 -0.028069 0.017859 0.008689 -0.027757 -0.008439 0.032412 -0.004603 -0.016024 -0.033685 -0.024362 0.005308 -0.007443 0.038322
0.022328 -0.025655 -0.003289 0.002496 -0.022627 -0.011114 0.014338 0.018441 0.007427 0.045401 0.059130 -0.003137 0.021706 0.004603 -0.014656 -0.014427 -0.009867 -0.058029 -0.030308 0.029057 -0.020629 -0.004555 -0.041287 0.023528 0.006513 -0.026295 0.030812
0.010767 -0.001646 0.009491 0.025587 -0.031487 0.047437 0.015780 0.039772 -0.026555 0.029724 0.007258 -0.024179 0.004170 -0.008020 -0.057313 0.020889 0.007365 -0.032836 -0.038396 0.037290 -0.006267 -0.009852 -0.063317 -0.000196 0.007326 -0.014172 0.052329
0.046232 -0.039972 0.015646 -0.013059 0.017472 -0.043865 0.044181 -0.011343 0.014504 0.055715 0.172104 0.011354 0.038596 0.047858 -0.013789 -0.044878 -0.052770 -0.103681 -0.038168 0.011194 -0.079530 -0.007487 -0.069253 0.065387 -0.023050 -0.091219 0.092291
0.027923 -0.048315 -0.014130 0.023218 -0.018140 -0.003648 0.014112 0.007342 -0.052717 0.017811 0.143875 -0.023958 0.008454 0.064925 -0.024053 0.005533 -0.015910 -0.030175 -0.005637 0.041316 -0.088490 -0.020977 -0.055555 0.037984 -0.002081 -0.038302 0.050119
0.041924 -0.045975 -0.008380 0.005924 -0.006104 -0.017326 0.045697 -0.008895 -0.001172 0.059701 0.171170 -0.018500 0.042618 0.038438 -0.049925 -0.032668 -0.036984 -0.087565 -0.040588 0.025717 -0.066257 -0.014123 -0.077091 0.088418 -0.012167 -0.057935 0.062022
0.017637 0.021176 0.016696 0.013936 0.014872 -0.019361 -0.012672 0.046975 -0.075205 -0.041568 0.179398 -0.028192 -0.035735 0.082988 0.013666 -0.005068 -0.034398 0.037262 0.003006 0.027087 -0.161994 0.025341 -0.075647 0.020317 -0.027516 -0.056341 0.050401
-0.004695 -0.031761 0.010611 -0.000379 0.002663 0.019889 0.007091 0.025436 -0.031969 0.009132 0.040440 -0.010365 -0.014777 0.024247 -0.017052 0.003564 -0.004024 -0.014176 -0.003773 0.032579 -0.031297 -0.020590 -0.037604 -0.002120 0.009998 -0.015561 0.055818
-0.002508 -0.000480 0.012469 0.020713 -0.022751 0.033454 0.001836 0.000691 -0.015728 0.025528 -0.022109 -0.010638 0.013903 -0.012935 -0.034216 0.018668 0.017355 -0.024090 -0.003409 0.023373 -0.004069 -0.016267 -0.029083 -0.023104 0.009450 -0.004771 0.039144
0.023840 -0.003165 -0.019767 0.017689 -0.018033 -0.014595 -0.014218 -0.003649 0.007334 0.061766 0.008317 0.004437 0.034936 0.009186 -0.024980 -0.017685 0.007559 -0.070145 -0.029438 0.011330 -0.018380 -0.009954 -0.036225 0.027599 0.037678 0.010961 0.017847
0.009403 0.006272 -0.004009 0.042278 -0.012145 0.045390 -0.005192 0.015211 -0.050953 0.037333 -0.024680 -0.022977 0.014343 -0.003631 -0.049945 0.016909 0.012710 -0.026861 -0.031771 0.025674 -0.016095 -0.014854 -0.048334 0.001981 0.021014 0.003275 0.056957
0.045722 -0.019485 -0.025439 -0.020418 -0.015118 -0.056236 -0.019478 -0.026599 0.077800 0.130111 0.022582 0.071092 0.078041 0.029884 0.015075 -0.055703 0.003106 -0.151885 -0.070505 -0.002866 -0.052884 -0.019384 -0.064791 0.070437 0.033431 -0.007286 0.028953
0.026267 -0.028327 0.004883 -0.008616 0.020404 -0.005097 0.044262 -0.023944 -0.014997 0.056482 0.063093 -0.001333 0.035712 0.050140 -0.005967 -0.010505 -0.012652 -0.092876 -0.022888 0.032005 -0.066080 -0.043978 -0.063686 0.045782 0.031256 -0.033940 0.028529
0.044521 -0.012333 -0.046269 0.008266 -0.017648 -0.026949 -0.007483 -0.028709 0.034963 0.125602 0.037815 0.041852 0.070154 0.031106 -0.003346 -0.031849 0.001171 -0.128403 -0.078052 0.010989 -0.054442 -0.026576 -0.065272 0.079984 0.026221 -0.002461 0.014063
0.017746 0.013256 0.054278 -0.038384 0.070159 -0.025543 0.060708 0.008068 0.010333 0.026414 0.073787 0.008082 -0.001257 0.059413 0.027806 -0.031285 -0.049706 -0.043647 -0.026603 0.005787 -0.116827 -0.022378 -0.091006 0.036291 0.003530 -0.070136 0.037239
-0.005209 -0.004845 0.017796 -0.000675 0.018338 0.020365 0.017180 0.002835 -0.019901 0.019545 -0.003764 -0.004700 -0.002001 0.020517 -0.015377 0.000041 -0.001618 -0.033420 -0.009649 0.022736 -0.027149 -0.036912 -0.044206 0.010794 0.029300 -0.014307 0.033886
-0.001542 -0.004351 0.008522 0.021914 -0.024668 0.035709 0.009372 -0.001972 -0.016345 0.012265 -0.010112 -0.022722 0.027736 -0.024583 -0.027553 0.026133 0.012142 -0.024813 0.007375 0.027220 0.005222 -0.017088 -0.020258 -0.033524 -0.001957 -0.006018 0.039011
0.025723 0.004162 -0.025575 0.023694 -0.028492 0.001552 0.007334 -0.029710 0.005080 0.052599 0.001348 -0.014633 0.057360 -0.019041 -0.025892 0.008280 0.026324 -0.074518 -0.006494 0.021842 -0.003602 -0.015876 -0.015718 -0.021865 0.018669 0.028971 -0.001883
0.009460 -0.007176 0.007979 0.035264 -0.027151 0.056394 0.014750 -0.001015 -0.045120 0.021267 -0.016179 -0.044638 0.034104 -0.028686 -0.045751 0.036471 0.021206 -0.033095 -0.000541 0.038347 -0.004425 -0.026743 -0.027868 -0.046432 0.006379 0.000005 0.066948
0.051022 0.016727 -0.036083 0.002748 -0.058127 -0.030278 -0.018376 -0.054118 0.067872 0.114489 -0.016837 0.028919 0.104296 -0.020550 -0.002996 -0.016125 0.059741 -0.152950 -0.023913 -0.010293 -0.024853 -0.006457 -0.020654 -0.021000 0.015433 0.067080 -0.016895
0.028992 -0.025090 -0.005267 -0.012216 -0.017600 -0.019146 0.017911 -0.059021 0.041950 0.062656 -0.014203 0.037879 0.063974 0.020219 0.016317 -0.006214 0.040646 -0.096508 -0.045934 0.018007 -0.059199 -0.019340 -0.026289 0.022570 0.033111 0.017621 -0.010379
0.044552 0.004460 -0.044399 0.016326 -0.059589 -0.010359 -0.000181 -0.064515 0.044984 0.105678 -0.013640 0.012663 0.106223 -0.016714 -0.008514 0.007574 0.055483 -0.134470 -0.028092 0.015160 -0.037234 -0.014096 -0.013682 -0.024593 0.015835 0.056226 -0.010830
0.017981 -0.020388 0.019160 -0.046230 0.014848 -0.045260 -0.007860 -0.025911 0.094697 0.038883 -0.045888 0.075059 0.048176 0.045242 0.061970 -0.033441 0.035185 -0.054724 -0.079360 -0.026685 -0.108512 0.007507 -0.035852 0.070397 0.006847 0.011585 -0.018365
-0.002740 -0.004881 0.013636 0.005180 -0.006375 0.015073 0.004058 -0.006014 0.003136 0.015649 -0.021890 0.005613 0.009493 0.008102 -0.002672 0.009206 0.021393 -0.027049 -0.027616 0.014827 -0.029151 -0.019512 -0.025140 0.009473 0.011370 0.004021 0.024906
-0.001531 -0.009082 0.007426 0.022135 -0.026649 0.033557 0.018271 -0.004517 -0.013432 0.011748 -0.008882 -0.019424 0.031780 -0.020394 -0.019227 0.024033 0.005103 -0.020983 0.006054 0.025710 0.006089 -0.015145 -0.015030 -0.035853 -0.004292 -0.008563 0.034097
0.024785 -0.021598 -0.033768 0.035161 -0.048581 0.009820 0.032841 -0.040783 -0.000431 0.040842 0.012711 -0.026495 0.077126 -0.031952 -0.014395 0.022345 0.023379 -0.062760 0.001976 0.038473 0.009504 -0.016714 0.010347 -0.046890 0.005628 0.014743 -0.006335
0.010190 -0.020157 0.010478 0.035426 -0.046808 0.058368 0.030666 -0.008478 -0.028583 0.012902 -0.009582 -0.031726 0.043699 -0.030459 -0.039460 0.037261 0.020632 -0.025887 -0.006140 0.037173 0.007509 -0.026306 -0.021714 -0.061741 -0.001316 -0.010662 0.062865
0.051288 -0.013208 -0.078980 0.047681 -0.091903 0.017641 0.055688 -0.075228 0.004256 0.098364 0.021503 -0.039722 0.149414 -0.058097 -0.017162 0.040248 0.057283 -0.133728 0.008040 0.055863 0.005303 -0.032411 0.022214 -0.088643 -0.006635 0.038905 -0.037916
0.030051 -0.005035 -0.035207 0.014946 -0.036285 0.004098 0.002049 -0.058295 0.027049 0.064268 -0.008194 -0.006131 0.078092 -0.025500 0.005821 0.020307 0.057016 -0.095750 0.004159 0.031357 -0.036815 -0.019656 0.000755 -0.033263 0.003797 0.045353 -0.026757
0.047164 -0.019630 -0.074908 0.045960 -0.087484 0.026744 0.053217 -0.078191 0.002181 0.087975 0.017247 -0.044888 0.147455 -0.054061 -0.013774 0.045106 0.053626 -0.123516 0.013741 0.058755 -0.005422 -0.029205 0.024930 -0.094241 -0.000278 0.036749 -0.029436
0.021146 0.038963 -0.001860 -0.024202 -0.010586 -0.010049 -0.066276 -0.016857 0.076381 0.041913 -0.053940 0.037142 0.053959 -0.022502 0.019105 -0.007633 0.075495 -0.068892 -0.007630 -0.020285 -0.089084 0.015729 -0.007033 0.001003 -0.031803 0.082579 -0.026361
-0.002441 0.000634 -0.001546 0.009804 -0.007258 0.026028 -0.001755 -0.006346 -0.009713 0.014113 -0.010530 -0.015676 0.018060 -0.013381 -0.002003 0.018751 0.015753 -0.025728 0.004695 0.025121 -0.020140 -0.016775 -0.008601 -0.017554 0.001052 0.012726 0.014425
-0.001564 -0.006959 0.028638 0.002819 -0.018859 0.021433 0.000175 -0.010776 0.013750 0.001067 -0.010404 0.013686 0.002952 -0.014934 -0.028473 0.011834 0.000649 -0.027655 -0.011562 0.007836 0.011690 -0.011767 -0.022076 -0.007924 0.008173 -0.003401 0.050499
0.024607 -0.032251 -0.004912 -0.000759 -0.016707 -0.007120 0.002669 -0.055605 0.043390 0.022694 0.019761 0.031089 0.034500 -0.029818 -0.032464 -0.006243 -0.005870 -0.074918 -0.008016 0.005010 0.041846 -0.017161 0.013694 -0.007174 0.020538 0.017806 0.020913
0.009649 -0.015173 0.041412 -0.001199 -0.019388 0.041926 -0.001332 -0.020036 0.014679 -0.000153 -0.012242 0.019161 0.002365 -0.022708 -0.054133 0.007483 -0.007865 -0.039307 -0.019491 0.005107 0.034209 -0.024292 -0.020182 -0.006892 0.012562 -0.005638 0.084768
0.048905 -0.055303 -0.020827 0.008348 -0.050348 0.000531 0.020819 -0.119385 0.066663 0.055490 0.032894 0.050978 0.103160 -0.048617 -0.049680 0.002785 0.007616 -0.136366 -0.022013 0.013976 0.060421 -0.039116 0.033359 -0.030342 0.013903 0.026974 0.021252
0.032974 -0.032145 -0.047684 0.036232 -0.042805 0.022677 0.042311 -0.074363 -0.000726 0.056391 0.019418 -0.035746 0.108504 -0.037929 0.000594 0.037051 0.030789 -0.075478 0.018003 0.053444 -0.014161 -0.023021 0.011007 -0.062149 -0.004289 0.021494 -0.033866
0.047518 -0.045847 -0.023299 0.013576 -0.049185 0.008583 0.020701 -0.119054 0.050890 0.052993 0.023381 0.042331 0.107039 -0.048053 -0.047884 0.013074 0.002240 -0.124633 -0.013341 0.022987 0.053539 -0.035518 0.027637 -0.031711 0.016417 0.019790 0.012530
0.024349 -0.026676 -0.019483 0.024584 -0.038572 0.035772 0.026409 -0.050145 -0.001128 0.031780 -0.001225 -0.041657 0.101523 -0.035789 0.010710 0.049851 0.059753 -0.035311 0.021562 0.047565 -0.057922 -0.012718 0.012088 -0.065408 -0.023947 0.032094 -0.064417
-0.002304 -0.009656 0.002523 0.013375 -0.007797 0.030619 0.013266 -0.016976 -0.011814 0.010981 -0.003921 -0.013819 0.020795 -0.020822 -0.006151 0.020365 0.006098 -0.021098 0.005171 0.027810 -0.009612 -0.019649 -0.011547 -0.023263 0.006023 0.002435 0.016338
-0.003093 -0.014143 0.047530 -0.025089 -0.000049 0.002426 -0.010204 -0.015283 0.022432 -0.019838 -0.007876 0.044828 -0.035973 -0.006962 -0.029522 -0.012673 -0.000335 -0.029902 -0.018067 -0.015080 0.032413 -0.010022 -0.021876 0.033823 0.020778 0.005379 0.060955
0.022150 -0.062098 0.014210 -0.053824 -0.000605 -0.042450 -0.022175 -0.057274 0.041802 -0.001798 0.033931 0.076040 -0.012692 -0.020493 -0.015404 -0.054268 -0.002615 -0.092946 0.020033 -0.017659 0.066924 -0.010320 0.021972 0.050967 0.051565 0.035445 0.042300
0.007206 -0.035918 0.056728 -0.044947 0.009615 0.004256 -0.019003 -0.018179 0.029556 -0.027939 -0.005380 0.069183 -0.046881 -0.006476 -0.034011 -0.036803 -0.002887 -0.044992 -0.004942 -0.016621 0.048184 -0.014287 -0.020369 0.049760 0.025586 0.013060 0.072670
0.046056 -0.119398 0.038862 -0.130899 0.021812 -0.075377 -0.055243 -0.142840 0.116125 -0.003904 0.063563 0.163132 -0.015047 -0.018244 -0.024570 -0.123124 -0.025531 -0.174918 0.027892 -0.076207 0.122196 -0.006167 0.030841 0.089631 0.066121 0.092910 0.112401
0.030703 -0.033049 0.020862 -0.009397 0.012400 -0.007240 -0.015052 -0.094689 0.031006 0.006371 0.015164 0.058236 0.013990 -0.038204 -0.046060 0.003408 0.009367 -0.088305 -0.018346 -0.003447 0.057638 -0.020851 -0.005411 0.011220 0.038538 0.009866 0.055717
0.042422 -0.105645 0.039122 -0.110911 0.028622 -0.058675 -0.052797 -0.137188 0.099328 -0.007148 0.055282 0.152880 -0.014849 -0.018166 -0.026540 -0.101496 -0.021960 -0.157707 0.023020 -0.068381 0.114246 -0.004678 0.024109 0.084161 0.062764 0.067103 0.099118
0.021543 -0.009221 0.010886 -0.007847 0.028748 0.021977 -0.033506 -0.078264 0.028561 -0.010255 0.011595 0.028320 0.020587 -0.033090 -0.048756 0.024862 0.009781 -0.037035 -0.027838 -0.001688 0.005294 -0.027211 0.015429 0.016902 0.016614 -0.009626 0.056518
-0.002800 -0.002158 0.025955 -0.007203 0.017467 0.015964 -0.005416 -0.024940 -0.000867 -0.007430 -0.005533 0.023128 -0.020721 -0.022439 -0.026570 0.002724 -0.000548 -0.020765 -0.012695 0.001399 0.012289 -0.009138 -0.018112 0.017243 0.021673 -0.000042 0.048138
-0.004407 -0.054148 0.045526 -0.045677 0.008487 -0.010659 -0.011556 -0.007921 0.003459 -0.031480 0.012452 0.040115 -0.050195 0.005584 -0.020136 -0.019196 0.011601 -0.007664 0.007194 -0.015946 0.042397 0.001256 -0.023999 0.067315 0.031359 -0.010702 0.040948
0.019497 -0.121081 0.026961 -0.079371 -0.003467 -0.067750 -0.036117 -0.052184 0.006803 -0.013005 0.042395 0.055338 -0.047956 -0.002436 0.010534 -0.064911 0.016320 -0.049530 0.039115 -0.014197 0.057632 0.007518 0.022844 0.098487 0.061870 0.028819 0.059331
0.006568 -0.099359 0.059033 -0.074522 0.005973 -0.004655 -0.013582 -0.020948 -0.002474 -0.027287 0.018054 0.063927 -0.069005 0.010585 -0.015394 -0.037918 0.023391 -0.030963 0.024162 -0.016424 0.015972 0.010528 -0.008368 0.080175 0.044239 0.004876 0.055569
0.040183 -0.237461 0.038800 -0.212502 0.019350 -0.137083 -0.090732 -0.098963 0.065221 -0.042537 0.091100 0.111683 -0.072209 -0.002083 0.027368 -0.168789 0.007634 -0.090786 0.140065 -0.057853 0.088948 0.015698 0.056027 0.177050 0.142467 0.094772 0.093325
0.026583 -0.073414 0.070953 -0.082485 0.026945 -0.049525 -0.071453 -0.080555 0.031435 -0.038334 0.067898 0.056169 -0.068877 -0.015573 -0.029445 -0.061746 -0.000236 -0.089297 -0.008980 -0.085636 0.156126 -0.015899 0.005887 0.114720 0.074424 -0.010636 0.148148
0.037474 -0.215392 0.047106 -0.198052 0.033931 -0.116640 -0.084875 -0.105572 0.041231 -0.036806 0.104023 0.123870 -0.061670 -0.001586 0.026487 -0.149319 0.010782 -0.102377 0.129898 -0.057891 0.098397 0.022499 0.036640 0.160518 0.114555 0.062535 0.081677
0.019184 -0.011703 0.076859 -0.073507 0.046659 -0.020496 -0.109291 -0.091226 0.049315 -0.053588 0.058749 0.000381 -0.083347 0.006404 -0.047591 -0.065190 -0.011988 -0.070754 -0.064631 -0.117414 0.194066 -0.028756 0.037644 0.100881 0.080623 -0.032362 0.210858
-0.003994 -0.016607 0.039631 -0.022901 0.028346 -0.004350 -0.025200 -0.006695 -0.003896 -0.026367 0.019878 0.015439 -0.051361 -0.006312 -0.033033 -0.016692 -0.001258 -0.009834 -0.028396 -0.022920 0.062817 0.002503 -0.015298 0.059413 0.029838 -0.016973 0.055267
-0.003548 -0.072976 0.026010 -0.046897 -0.007239 0.008046 -0.004294 0.021614 -0.037010 -0.024865 0.016255 0.014013 -0.063935 0.035503 -0.022948 -0.024462 0.008862 -0.005121 0.011851 -0.007055 0.042410 0.037187 -0.021151 0.088954 0.012584 -0.043140 0.063148
0.017468 -0.134549 0.010608 -0.069911 -0.038206 -0.041001 -0.035902 -0.027990 -0.043618 -0.006251 0.034799 0.013820 -0.069415 0.038142 0.022885 -0.041435 -0.002916 -0.017948 0.046002 -0.005234 0.074371 0.021194 0.043090 0.112368 0.033374 -0.037927 0.102351
0.008282 -0.120991 0.032334 -0.079950 -0.019682 0.019485 -0.009862 0.029646 -0.070394 -0.024268 0.018903 0.026244 -0.091109 0.031666 0.017827 -0.037564 -0.002993 -0.036353 0.052028 -0.016921 0.045542 0.056551 0.006861 0.102425 0.017930 -0.048272 0.092898
0.036846 -0.304468 -0.005150 -0.157720 -0.064973 -0.115675 -0.074708 -0.027156 -0.062258 -0.000895 0.079671 0.015059 -0.131164 0.061890 0.103720 -0.094475 0.004018 -0.005928 0.137586 -0.023927 0.090341 0.047745 0.096967 0.197725 0.067632 -0.033593 0.161180
0.022927 -0.146967 0.054575 -0.138692 0.037851 -0.109980 -0.060984 -0.050072 -0.025414 -0.013159 0.128579 0.022204 -0.087172 0.049997 -0.017303 -0.096300 0.018612 -0.031547 0.004931 -0.059141 0.203257 0.050852 -0.011863 0.158613 0.032299 -0.061098 0.124026
0.035241 -0.297953 0.008154 -0.173851 -0.049092 -0.106593 -0.075611 -0.023844 -0.090326 0.010114 0.097641 0.018002 -0.120720 0.071939 0.102418 -0.104823 0.005003 -0.025178 0.132106 -0.037381 0.131501 0.081427 0.075601 0.174527 0.042401 -0.065523 0.189138
0.015366 -0.090597 0.065586 -0.160926 0.078493 -0.101419 -0.100542 -0.090184 0.024460 -0.015454 0.136958 -0.020129 -0.071113 0.024392 -0.015529 -0.106162 0.048052 -0.048339 -0.043806 -0.095244 0.226707 0.001959 0.016922 0.146189 0.068528 -0.036883 0.142088
-0.003961 -0.038745 0.019261 -0.036732 0.023089 -0.022693 -0.023811 0.013162 -0.035003 -0.014823 0.027405 0.002463 -0.058395 0.022583 -0.028475 -0.023072 0.013430 -0.001256 -0.023364 -0.009309 0.084473 0.034587 -0.013429 0.073159 -0.001624 -0.042377 0.059857
-0.002978 -0.058178 0.010046 -0.020462 -0.048890 0.070469 -0.006742 0.061297 -0.045165 -0.019415 -0.049023 -0.018172 -0.062125 0.062179 -0.041202 -0.012918 -0.001601 0.044387 -0.000051 0.002670 0.011252 0.027863 0.018584 0.081644 -0.001133 -0.028225 0.032452
0.015926 -0.081818 -0.032754 -0.000601 -0.101110 0.076020 -0.029877 0.027495 -0.070351 -0.034566 -0.047516 -0.039888 -0.081126 0.072267 -0.031202 -0.014659 -0.019908 0.057282 0.030635 -0.002230 0.081893 0.036465 0.067614 0.109886 0.019973 -0.036543 0.031151
0.007151 -0.101457 0.003932 -0.032482 -0.099834 0.109016 -0.008289 0.077037 -0.078963 -0.056108 -0.061250 -0.027457 -0.099519 0.090212 -0.044113 -0.025834 -0.018082 0.057325 0.025960 0.000610 0.020728 0.040337 0.052212 0.104275 0.006278 -0.017935 0.077523
0.034959 -0.169031 -0.082584 0.018326 -0.201299 0.144959 -0.064228 0.051229 -0.124840 -0.045248 -0.129773 -0.056667 -0.154435 0.159116 -0.040160 0.003933 -0.039653 0.099020 0.054638 0.020972 0.093400 0.013741 0.198015 0.174439 0.002887 -0.069743 0.101849
0.021165 -0.163359 -0.011661 -0.082380 -0.029241 -0.052570 -0.031892 0.042818 -0.110709 0.019860 0.056921 -0.038717 -0.106393 0.107415 -0.006964 -0.075876 -0.013623 0.077162 -0.007853 -0.046607 0.154473 0.063115 0.035363 0.143441 -0.032738 -0.121711 0.209625
0.034220 -0.195371 -0.068245 -0.006386 -0.197729 0.118838 -0.048833 0.060832 -0.145061 -0.045860 -0.100251 -0.058503 -0.145387 0.160994 -0.035113 -0.016551 -0.035557 0.108107 0.055691 -0.003423 0.109159 0.033339 0.182722 0.155531 -0.009328 -0.082035 0.174097
0.012562 -0.135338 -0.011193 -0.148007 0.062155 -0.108044 -0.018672 -0.009109 -0.085678 0.056126 0.152196 -0.037614 -0.070761 0.053659 0.057112 -0.090564 0.016300 -0.013869 -0.047703 -0.073012 0.217002 -0.015464 0.033774 0.100792 -0.012753 -0.104447 0.218642
-0.003288 -0.045741 0.001670 -0.024294 -0.007749 -0.003222 -0.009181 0.068886 -0.059089 0.005122 -0.013315 -0.013244 -0.063925 0.039359 -0.005023 -0.021030 0.000506 0.048124 -0.029579 -0.014562 0.068863 0.032135 0.005886 0.089862 -0.025871 -0.062905 0.045892
-0.002639 0.006721 0.005376 0.032775 -0.077172 0.074621 0.000931 0.100763 -0.032723 -0.030162 -0.085612 -0.019683 -0.066893 0.027072 -0.041585 0.018526 -0.004115 0.116087 -0.020798 -0.035494 0.007060 0.051651 -0.012838 0.087665 -0.029545 -0.019236 -0.055782
0.015093 0.037296 -0.051414 0.092196 -0.116651 0.120698 0.005657 0.080718 -0.064577 -0.046618 -0.124925 -0.046180 -0.077140 0.053511 -0.032870 0.033187 -0.030024 0.129748 0.013111 -0.080537 0.060864 0.051993 0.052217 0.122743 -0.071124 -0.033717 -0.099109
0.007763 0.002340 -0.011140 0.057051 -0.120487 0.090712 0.028030 0.140264 -0.062567 -0.062200 -0.134424 -0.037244 -0.102990 0.052668 -0.063845 0.030203 -0.016344 0.152917 0.004226 -0.081721 0.036443 0.081516 0.019255 0.145139 -0.064801 -0.022168 -0.072393
0.033022 0.110464 -0.113204 0.217462 -0.261412 0.283814 -0.020932 0.119530 -0.097351 -0.099227 -0.304215 -0.075147 -0.146876 0.089138 -0.064005 0.110791 -0.062330 0.254220 0.052364 -0.136979 0.142311 0.092894 0.163334 0.148646 -0.148539 -0.027152 -0.262031
0.023304 -0.031577 -0.066347 0.037884 -0.150063 0.130828 -0.020098 0.105044 -0.107175 -0.052589 -0.136253 -0.068911 -0.113039 0.089166 -0.062152 -0.003126 -0.027939 0.211904 -0.051661 0.018787 0.124309 0.042530 0.063963 0.089353 -0.003912 -0.057928 0.022212
0.032117 0.117612 -0.119217 0.187761 -0.258084 0.236171 -0.006451 0.138323 -0.112760 -0.089050 -0.277631 -0.080805 -0.145710 0.099424 -0.089053 0.098811 -0.058330 0.257082 0.026885 -0.129416 0.173586 0.090142 0.153599 0.127990 -0.122624 -0.031882 -0.219350
0.013193 -0.092293 -0.073255 -0.037873 -0.091655 0.100339 0.015727 0.028061 -0.071088 -0.058544 -0.048944 -0.056097 -0.079633 0.041668 -0.052705 -0.051645 -0.007911 0.085304 -0.051424 0.114326 0.125540 -0.058407 0.068364 0.001995 0.080879 -0.022355 0.176151
-0.003873 0.002441 -0.020676 0.033285 -0.053601 0.034428 0.006406 0.094963 -0.046555 -0.026571 -0.069064 -0.022771 -0.067922 0.031981 -0.033116 -0.003502 -0.013479 0.118711 -0.038300 -0.005111 0.047490 0.044837 -0.018033 0.071771 -0.004909 -0.026170 -0.030694
-0.002180 0.076081 -0.010477 0.059242 -0.058153 0.066509 0.001171 0.116626 -0.030456 -0.036852 -0.098449 -0.001853 -0.066678 0.036203 -0.048935 0.045901 -0.020778 0.107198 -0.052730 -0.045958 -0.015268 0.069971 -0.051994 0.079407 -0.041002 -0.031380 -0.045451
0.013782 0.109586 -0.049853 0.134632 -0.079748 0.144876 0.015219 0.120412 -0.062489 -0.054035 -0.137841 -0.021196 -0.073856 0.053268 -0.030951 0.073117 -0.068986 0.146913 -0.016650 -0.121199 -0.002461 0.089039 0.001683 0.119468 -0.110182 -0.054301 -0.139386
0.007046 0.106181 -0.025942 0.074254 -0.094616 0.106662 0.008338 0.178193 -0.061119 -0.067512 -0.142973 -0.015073 -0.105009 0.072557 -0.055664 0.068625 -0.041100 0.148658 -0.035870 -0.090741 -0.020301 0.100331 -0.015924 0.112342 -0.091035 -0.055639 -0.064523
0.030178 0.220076 -0.101963 0.324984 -0.177418 0.308982 0.054866 0.192805 -0.066987 -0.114210 -0.305962 -0.008911 -0.121180 0.090599 -0.045261 0.200265 -0.125256 0.224208 0.020568 -0.350417 0.012551 0.178875 0.061774 0.215296 -0.297056 -0.085775 -0.334598
0.019900 0.147723 -0.081428 0.149166 -0.176893 0.158781 0.032956 0.152440 -0.092174 -0.065952 -0.200595 -0.049015 -0.121204 0.033129 -0.088954 0.084795 -0.050059 0.269296 -0.064003 -0.095524 0.100905 0.092343 -0.001626 0.141630 -0.068290 -0.030239 -0.190741
0.028849 0.257666 -0.117508 0.280861 -0.195997 0.285479 0.045879 0.208695 -0.092535 -0.103055 -0.280523 -0.035868 -0.132747 0.096206 -0.071530 0.180675 -0.118672 0.227009 -0.003137 -0.298815 0.034654 0.173581 0.047690 0.199415 -0.242409 -0.081428 -0.291459
0.013387 0.027247 -0.071138 0.079480 -0.157658 0.069599 0.095159 0.077973 -0.046864 -0.075932 -0.119651 -0.048313 -0.101428 -0.042744 -0.088474 0.033432 -0.027117 0.195898 -0.032243 0.052505 0.120916 0.013697 0.013359 0.078889 -0.010743 0.041261 -0.096511
-0.003820 0.062782 -0.029786 0.058316 -0.051564 0.009805 0.021429 0.104622 -0.043160 -0.031888 -0.082405 -0.015820 -0.068358 0.026880 -0.058929 0.044688 -0.014943 0.129290 -0.055230 -0.042028 0.023414 0.055252 -0.041256 0.093380 -0.023813 -0.020556 -0.046069
-0.002243 0.106557 -0.009521 0.046745 -0.021135 0.040748 0.004890 0.071567 -0.056494 -0.053565 -0.017697 0.012649 -0.074137 0.046341 -0.039347 0.028329 -0.027994 0.087771 -0.039010 0.017740 -0.059534 0.074379 -0.069597 0.057970 -0.037887 -0.044294 -0.042691
0.012698 0.142392 -0.041408 0.123011 -0.050226 0.132671 0.015838 0.086970 -0.092687 -0.074563 -0.026010 -0.027101 -0.075612 0.054344 -0.032660 0.055763 -0.087406 0.126492 -0.032675 -0.027263 -0.079105 0.100448 -0.031946 0.087073 -0.068128 -0.110118 -0.076347
0.005163 0.142604 -0.025497 0.062514 -0.064316 0.089878 0.021219 0.116379 -0.100538 -0.086517 -0.031638 -0.008461 -0.098259 0.052540 -0.061129 0.046687 -0.058189 0.128133 -0.042366 0.034936 -0.065313 0.111933 -0.053419 0.112119 -0.063689 -0.098318 -0.066857
0.024922 0.260910 -0.044755 0.297943 -0.048284 0.289856 0.041856 0.115397 -0.120416 -0.159049 -0.093493 -0.015139 -0.102716 0.139655 -0.021034 0.169760 -0.173795 0.163885 0.045545 -0.200710 -0.190218 0.177396 -0.024985 0.141780 -0.253522 -0.228060 -0.190463
0.017656 0.195448 -0.070179 0.193168 -0.098024 0.204259 0.030207 0.161791 -0.114226 -0.084511 -0.176767 -0.038988 -0.119178 0.124316 -0.037813 0.109943 -0.089561 0.170460 -0.035428 -0.156821 -0.040938 0.163981 -0.068416 0.143925 -0.140252 -0.059107 -0.188777
0.025227 0.253132 -0.072438 0.263747 -0.072742 0.265984 0.045403 0.144323 -0.153592 -0.143166 -0.064019 -0.047570 -0.104668 0.132116 -0.046429 0.142652 -0.170809 0.174328 0.001153 -0.142471 -0.149498 0.177391 -0.037107 0.169171 -0.200289 -0.207248 -0.185659
0.011516 0.078419 -0.064881 0.184008 -0.112218 0.168004 0.079295 0.153195 -0.023483 -0.086491 -0.190782 -0.036014 -0.097673 0.051892 -0.072770 0.095058 -0.074243 0.127759 -0.001939 -0.095341 0.005523 0.106626 -0.049621 0.088049 -0.161216 0.031062 -0.112557
-0.006049 0.084780 -0.025231 0.062159 -0.026318 0.027160 0.007164 0.088763 -0.055356 -0.041540 -0.061434 -0.013621 -0.070234 0.096033 -0.043626 0.048933 -0.036183 0.068299 -0.049310 -0.039531 -0.017458 0.080388 -0.055857 0.072383 -0.039850 -0.034161 -0.018840
-0.003893 0.083404 0.001334 -0.006528 0.036779 0.004906 -0.003444 0.053227 -0.068593 -0.068220 0.086523 -0.002008 -0.077272 0.025834 0.005166 -0.002623 -0.031677 0.061068 -0.043942 0.034051 -0.055941 0.041579 -0.048768 0.046587 -0.025499 -0.059639 0.015704
0.010117 0.135732 -0.009368 0.054872 0.017555 0.049759 -0.012614 0.050747 -0.087184 -0.082086 0.077477 -0.028628 -0.070263 0.036824 0.001095 0.014698 -0.074601 0.060007 -0.044886 0.031293 -0.112937 0.093717 -0.055941 0.049404 -0.028021 -0.116013 0.041573
0.004196 0.129037 -0.020419 0.009566 0.009184 0.032374 0.013603 0.091485 -0.118595 -0.104240 0.084205 -0.037305 -0.092038 0.064044 -0.027340 0.015228 -0.062503 0.071879 -0.066611 0.064419 -0.075749 0.075790 -0.043304 0.091457 -0.037651 -0.094815 0.025055
0.022327 0.251290 0.012656 0.139568 0.063036 0.092600 -0.012106 -0.027930 -0.127358 -0.171396 0.146040 -0.057855 -0.100652 0.096647 0.053861 0.059253 -0.129915 0.062394 0.040130 0.043247 -0.291068 0.182273 -0.063745 0.053463 -0.085267 -0.316311 0.070015
0.016489 0.182907 -0.039202 0.135541 0.095605 0.106161 0.007625 0.077293 -0.190207 -0.110634 0.075224 0.010443 -0.102575 0.129150 0.062047 0.032875 -0.107193 0.118438 -0.055155 -0.065709 -0.200330 0.136797 -0.120530 0.127943 -0.083089 -0.150068 -0.087438
0.022815 0.227250 -0.021214 0.105601 0.065414 0.080567 0.015647 0.034664 -0.149724 -0.156312 0.158919 -0.075391 -0.106462 0.114355 0.008373 0.047350 -0.153160 0.064112 -0.003550 0.072328 -0.265003 0.166761 -0.066602 0.082728 -0.059577 -0.278939 0.066512
0.009356 0.162668 -0.069176 0.193814 0.039955 0.137846 0.013607 0.097847 -0.153810 -0.108431 0.027018 0.019515 -0.084363 0.100677 0.037828 0.049324 -0.112326 0.098081 -0.040076 0.001893 -0.189802 0.140440 -0.140418 0.105143 -0.089049 -0.091264 -0.158384
-0.005118 0.060002 -0.019450 0.032326 0.064968 -0.012490 -0.001311 0.054112 -0.095977 -0.054071 0.037873 0.009717 -0.065520 0.102729 0.022249 -0.000496 -0.042547 0.044133 -0.045029 -0.001752 -0.062176 0.064077 -0.065723 0.052899 -0.009513 -0.060882 0.001116
-0.002902 -0.003235 0.029314 0.000676 0.078890 -0.028075 0.020140 0.072215 -0.013874 -0.028828 0.070667 0.010595 -0.066283 0.016752 -0.001520 -0.031390 -0.046343 0.045194 -0.033494 -0.013154 -0.030162 0.010807 -0.045399 0.034178 -0.014382 -0.066622 0.037194
0.011127 0.033138 0.017005 -0.027428 0.098835 -0.025882 -0.047201 0.081388 -0.022654 -0.012802 0.091283 -0.013003 -0.036099 0.046282 0.018180 -0.059322 -0.080159 0.020411 -0.029752 -0.005869 -0.083010 0.042916 -0.068127 0.071858 0.015681 -0.088890 0.056497
0.005039 0.041795 0.007292 0.002594 0.117041 -0.002532 -0.003495 0.118169 -0.050055 -0.022519 0.081075 -0.019941 -0.074220 0.058721 -0.059607 -0.034342 -0.074436 0.068035 -0.046231 -0.026408 -0.040952 0.040996 -0.045343 0.065883 -0.051147 -0.082926 0.028847
0.020851 0.091151 0.097631 -0.067637 0.131491 -0.085160 -0.100160 0.043151 0.027626 -0.049433 0.232918 -0.015672 -0.038240 0.067679 0.046817 -0.107966 -0.154610 -0.031756 0.056572 -0.004180 -0.209770 0.075420 -0.093994 0.045564 0.023943 -0.219228 0.214923
0.013620 0.108576 0.047996 -0.010178 0.123545 -0.060201 0.010362 0.019316 -0.085460 -0.089745 0.177872 -0.027642 -0.101952 0.098030 0.129641 -0.040171 -0.122428 -0.014191 0.007974 0.059714 -0.231884 0.079888 -0.129082 0.050762 0.016533 -0.206809 0.177074
0.021592 0.108846 0.069197 -0.072709 0.132621 -0.085052 -0.060317 0.080298 0.023358 -0.028282 0.218908 -0.001910 -0.049113 0.088936 0.008224 -0.104624 -0.154421 -0.015756 0.005890 -0.001117 -0.175807 0.057340 -0.096200 0.058850 0.002280 -0.204025 0.175122
0.004815 0.146926 0.005007 0.050881 0.059550 -0.026075 0.026188 0.002054 -0.118357 -0.097747 0.164718 -0.101800 -0.090500 0.077332 0.118124 0.028208 -0.142204 -0.001825 0.055751 0.143223 -0.284180 0.141504 -0.126297 0.001998 0.022918 -0.199299 0.140231
-0.005323 0.037975 0.028892 -0.017780 0.066133 -0.062231 0.005985 0.011632 -0.024306 -0.027243 0.046469 -0.000950 -0.048473 0.062554 0.062943 -0.024261 -0.059776 -0.008293 -0.020078 0.037150 -0.067631 0.034522 -0.063161 0.013632 0.036371 -0.083899 0.068465
-0.001709 -0.008893 0.014183 -0.002817 0.076301 -0.011301 -0.009850 0.048305 0.033549 0.012899 0.002561 0.046026 -0.033601 0.011409 -0.002203 -0.039579 -0.022547 -0.018350 -0.059720 -0.002798 -0.009674 0.020458 -0.059581 0.027156 0.006977 -0.040528 0.024697
0.014080 -0.004537 0.015656 -0.054621 0.104919 -0.069739 -0.051752 0.037933 0.052728 0.050484 0.019628 0.046642 -0.027048 0.036024 -0.000638 -0.092393 -0.041879 -0.050601 -0.028680 0.008127 -0.042942 0.015341 -0.059730 0.057220 0.058779 -0.039800 0.051741
0.005330 -0.017542 -0.010289 0.016174 0.129544 -0.022465 -0.026827 0.055629 0.028014 0.020651 0.006757 0.058359 -0.050834 0.033197 -0.007823 -0.059581 -0.034349 -0.009215 -0.082160 0.039833 -0.033389 0.035529 -0.075020 0.043461 -0.007729 -0.066404 0.039823
0.028058 -0.045369 0.073779 -0.181941 0.171803 -0.113566 -0.126472 0.009354 0.153033 0.095692 0.038902 0.073493 0.027331 0.065170 0.027687 -0.206221 -0.072485 -0.143950 0.016959 0.010870 -0.089811 -0.002933 -0.073873 0.064965 0.143944 -0.090991 0.150018
0.013808 -0.005418 0.100126 -0.112340 0.134071 -0.103917 -0.040064 0.045498 0.099622 0.052087 0.024940 0.078997 -0.010728 0.059970 0.074621 -0.126548 -0.075977 -0.093766 0.009634 -0.019885 -0.120636 -0.012367 -0.083966 0.041732 0.086333 -0.110911 0.097663
0.026583 -0.026014 0.047009 -0.159710 0.171753 -0.112574 -0.086599 0.033150 0.161746 0.097231 0.029582 0.085690 -0.000779 0.065702 0.025371 -0.206783 -0.066079 -0.110190 -0.028360 0.019170 -0.095277 -0.035713 -0.083305 0.073722 0.132055 -0.077416 0.122416
0.003727 0.004082 0.059571 -0.049477 0.108399 -0.081514 -0.029238 0.025431 0.049755 0.069848 0.070379 0.025742 0.030498 0.039139 0.053487 -0.089955 -0.128324 -0.077734 0.058367 -0.010391 -0.142590 0.050349 -0.053019 -0.038535 0.048392 -0.111095 0.111078
-0.005081 0.020895 0.053638 -0.045789 0.050144 -0.050052 -0.006731 0.019982 0.052801 0.030356 -0.036876 0.058382 -0.009527 0.026955 0.048096 -0.055101 -0.033938 -0.047947 -0.028743 -0.007426 -0.026254 -0.014286 -0.047868 0.006363 0.053031 -0.038083 0.036879
-0.002772 0.041204 0.017717 0.001064 0.034632 -0.008017 -0.017238 0.038083 0.023931 0.003141 -0.032051 0.046947 -0.013472 0.000136 -0.016470 -0.012392 0.001691 -0.031418 -0.035362 -0.015761 -0.023514 0.010296 -0.055708 0.020408 -0.008558 0.005395 0.032575
0.020195 0.022495 0.004442 -0.045868 0.025221 -0.043989 -0.023016 0.025215 0.073800 0.031521 -0.039834 0.068814 -0.003995 0.013515 -0.009896 -0.056409 0.005225 -0.086350 -0.025443 -0.034535 -0.038172 0.011164 -0.071801 0.033369 0.080372 0.027162 0.036071
0.008863 0.049810 0.029191 -0.012471 0.051732 -0.007720 -0.016090 0.066428 0.030748 0.009310 -0.060742 0.074620 -0.029864 -0.003343 -0.010944 -0.024454 -0.001269 -0.046818 -0.038337 -0.024726 -0.057668 0.023159 -0.093456 0.009914 0.026707 -0.007475 0.057505
0.040015 0.014474 0.046864 -0.162164 0.058626 -0.077923 -0.090487 -0.041232 0.186662 0.077191 -0.066275 0.120984 0.055196 0.027758 -0.005268 -0.146356 0.032876 -0.186569 -0.023720 -0.080251 -0.069224 -0.009140 -0.083229 0.061678 0.154423 0.076204 0.088006
0.018421 -0.003275 0.054677 -0.141529 0.042795 -0.106858 -0.070779 -0.068076 0.161808 0.070835 -0.069602 0.096440 0.052634 0.034897 0.058238 -0.139958 0.003316 -0.124990 0.016999 -0.029905 -0.060026 -0.019492 -0.019262 0.037326 0.111352 0.044625 0.046863
0.034355 0.034831 0.039770 -0.148755 0.042445 -0.073280 -0.081854 -0.031932 0.185327 0.078249 -0.067196 0.117668 0.031160 0.021539 -0.012810 -0.133718 0.041408 -0.171349 -0.010985 -0.062921 -0.092410 -0.019624 -0.088302 0.048137 0.145627 0.086793 0.083316
0.004086 -0.035834 0.014759 -0.118961 0.054092 -0.105309 -0.076475 -0.085069 0.128436 0.065211 -0.049120 0.046285 0.102481 0.046746 0.091939 -0.150643 -0.056591 -0.102975 0.050546 -0.031839 -0.048532 0.039230 0.082983 0.025605 0.071698 0.003025 0.035698
-0.006320 0.034204 0.045182 -0.037205 0.021772 -0.034850 -0.021536 -0.016108 0.059617 0.014629 -0.042417 0.051841 0.005490 0.007078 0.017425 -0.057593 -0.003966 -0.044194 -0.015386 -0.013222 -0.018832 -0.018871 -0.017572 0.018226 0.024282 0.027603 0.019740
-0.001991 0.019304 0.010730 0.011937 -0.029982 0.020445 0.003433 0.014381 -0.005352 0.009585 -0.011125 0.001336 0.014747 -0.021866 -0.010235 0.023917 0.005779 -0.034647 -0.000138 0.019932 -0.002731 -0.011120 -0.027253 -0.022240 -0.018580 0.006906 0.025229
0.023197 0.015465 -0.009724 0.006759 -0.049594 -0.012801 0.003418 -0.027643 0.036372 0.031179 -0.008810 0.027350 0.043994 -0.026430 -0.018378 -0.001690 0.053785 -0.076976 -0.014743 0.013362 -0.000930 -0.022671 -0.009778 -0.022530 0.005847 0.038060 -0.001496
0.009927 0.017745 0.026376 0.016620 -0.063540 0.041501 0.015217 0.011778 -0.011117 -0.001695 -0.018680 0.015770 0.019033 -0.028888 -0.029015 0.033618 0.051392 -0.040380 -0.021690 0.032706 -0.006386 -0.033307 -0.032363 -0.048947 -0.012733 0.008285 0.057310
0.050077 0.030871 -0.051453 0.001920 -0.045256 0.005787 0.005360 -0.047599 0.076040 0.094335 -0.038387 0.039492 0.083395 -0.051810 -0.045147 -0.000829 0.119156 -0.141926 -0.034471 0.002611 -0.037015 -0.044486 -0.021217 -0.031366 0.020711 0.065158 -0.004390
0.027358 0.053925 -0.010492 -0.057211 0.037481 -0.025455 -0.065170 -0.043388 0.098869 0.073535 -0.063618 0.047836 0.038678 -0.016144 -0.007738 -0.058228 0.075156 -0.117794 0.023378 -0.048680 -0.064458 -0.008999 -0.040298 0.027065 0.009732 0.105515 0.013740
0.044482 0.024214 -0.038778 -0.000611 -0.044377 0.012069 0.008667 -0.049991 0.061546 0.079566 -0.037681 0.037356 0.086845 -0.052338 -0.043003 0.005774 0.120014 -0.138857 -0.019638 0.013689 -0.045387 -0.046528 -0.016696 -0.042059 0.009261 0.064972 0.001077
0.014161 0.067314 0.012962 -0.118811 0.072280 -0.032327 -0.117029 -0.043036 0.134253 0.044949 -0.078631 0.034901 0.060069 -0.001223 0.012069 -0.096506 0.047167 -0.093878 0.068075 -0.121895 -0.100489 0.043881 -0.017278 0.061786 -0.001270 0.107754 0.034800
-0.005014 0.037382 0.009646 -0.008616 0.022583 0.006522 -0.027418 -0.001371 0.011647 0.023065 -0.030996 0.008082 0.007873 -0.018342 -0.004156 -0.009569 0.008780 -0.036789 0.033526 -0.004491 -0.032198 -0.005880 -0.024606 0.006606 -0.017762 0.030281 0.019274
-0.003969 -0.016623 0.031712 -0.014602 -0.008013 0.025760 -0.000897 -0.015960 0.023662 0.000962 -0.007142 0.048215 0.002060 -0.014107 -0.033800 -0.000808 -0.000678 -0.029544 -0.012331 0.000207 0.003927 -0.017930 -0.006939 -0.011952 0.008334 0.001287 0.050712
0.022128 -0.042981 0.006930 -0.026922 0.032554 -0.009325 0.012115 -0.064017 0.043688 0.026445 0.035641 0.053451 0.029843 -0.021769 -0.038346 -0.042143 -0.007114 -0.086298 0.002788 -0.013394 0.031187 -0.025043 0.017294 -0.015868 0.022403 0.027538 0.033645
0.008315 -0.033266 0.034805 -0.027627 0.015632 0.044657 0.010056 -0.023785 0.028959 0.003542 0.009855 0.043387 0.001783 -0.018865 -0.048584 -0.020044 -0.019606 -0.045198 -0.006818 -0.012745 0.027475 -0.036477 -0.004987 -0.013478 0.010811 -0.005669 0.072259
0.050057 -0.079148 -0.001930 -0.034594 0.028011 -0.007446 0.072036 -0.122639 0.064765 0.060201 0.054476 0.122451 0.099929 -0.037477 -0.056379 -0.044781 -0.005416 -0.147454 -0.022917 -0.017255 0.018839 -0.053730 0.037240 -0.056269 0.010614 0.055401 0.012830
0.031120 -0.033459 -0.025506 0.032510 -0.048208 0.019961 0.038176 -0.077885 -0.009801 0.052062 0.010068 -0.020436 0.097784 -0.034439 -0.008402 0.038611 0.036726 -0.073592 0.011320 0.052612 -0.019818 -0.018018 0.017581 -0.064439 0.002195 0.020722 -0.026457
0.044575 -0.072735 -0.002987 -0.031678 0.015282 0.006463 0.060854 -0.117793 0.062533 0.053113 0.051802 0.100470 0.099807 -0.039859 -0.047968 -0.032495 -0.021569 -0.137502 -0.007162 -0.011506 0.015892 -0.052841 0.040197 -0.051484 0.017985 0.050764 0.009203
0.023031 -0.019444 -0.002548 0.029939 -0.053645 0.034600 0.016124 -0.051744 -0.012826 0.029354 -0.014980 -0.043348 0.097457 -0.030008 0.000906 0.052153 0.076538 -0.032550 0.018581 0.055016 -0.060437 -0.008408 0.006003 -0.063130 -0.024927 0.027761 -0.047126
-0.004008 -0.008132 0.017644 0.008409 -0.009578 0.028332 0.009769 -0.018120 -0.011958 0.007934 -0.004836 0.009082 0.015483 -0.017752 -0.013106 0.018139 0.013311 -0.020495 -0.002503 0.026289 -0.017588 -0.018123 -0.002347 -0.021119 -0.001749 -0.000542 0.017248
-0.005564 -0.038297 0.043745 -0.071374 -0.011392 0.002629 -0.024812 -0.034821 0.054469 -0.024891 0.005882 0.062874 -0.037964 0.001270 -0.022137 -0.041524 -0.018091 -0.041334 0.017151 -0.014215 -0.003315 0.012197 0.016226 0.021651 0.037601 0.046972 0.062395
0.016937 -0.067342 0.009608 -0.093445 0.016688 -0.042878 -0.019723 -0.084595 0.052067 -0.003235 0.046800 0.094526 -0.008765 -0.017595 -0.013268 -0.078069 -0.007871 -0.108829 0.048867 -0.019707 0.016642 0.009162 0.045193 0.012915 0.091985 0.077606 0.022619
0.005903 -0.055555 0.028765 -0.095161 -0.000487 0.018453 -0.011859 -0.048663 0.057292 -0.024677 0.018586 0.073270 -0.034507 -0.013878 -0.014846 -0.062586 -0.026290 -0.093659 0.058270 -0.011547 -0.016015 0.010012 0.032097 0.020458 0.071554 0.068858 0.043822
0.039341 -0.120770 0.031799 -0.199713 0.088776 -0.056890 -0.032603 -0.167734 0.134713 0.005870 0.074045 0.200055 -0.009283 -0.022223 -0.032633 -0.191077 -0.039941 -0.213677 0.091979 -0.096520 0.065837 0.028980 0.075392 -0.006804 0.103440 0.163058 0.089529
0.027825 -0.060118 0.073986 -0.087815 0.030476 -0.025766 -0.021925 -0.092790 0.072745 -0.017462 0.059208 0.099579 -0.017644 -0.022718 -0.051643 -0.053499 -0.003730 -0.097038 -0.032597 -0.053757 0.035901 -0.010204 0.030926 0.001388 0.051845 0.046018 0.118619
0.036282 -0.120195 0.023099 -0.200170 0.085089 -0.039148 -0.044854 -0.148597 0.126468 -0.000476 0.072554 0.184996 -0.005594 -0.022000 -0.009220 -0.189094 -0.054915 -0.212538 0.099906 -0.085848 0.059023 0.028699 0.074914 -0.004714 0.096999 0.165591 0.080591
0.021755 -0.009765 0.040937 -0.044994 0.077645 0.013408 -0.038682 -0.080918 0.050143 -0.015678 0.061150 0.052367 -0.018997 -0.015062 -0.052733 0.000213 0.015616 -0.034312 -0.111421 -0.038795 0.023224 -0.041248 0.058659 -0.016911 0.034442 -0.036664 0.110710
-0.002886 -0.015234 0.037845 -0.037735 0.012637 0.006532 -0.018814 -0.016676 0.030820 -0.009487 0.012315 0.040976 -0.037765 -0.011828 -0.027585 -0.014714 -0.005933 -0.015364 -0.018681 -0.008136 -0.013385 0.001828 0.021808 0.008360 0.003949 0.017208 0.066545
-0.005711 -0.065351 0.019498 -0.078255 -0.006660 -0.023022 -0.035425 -0.004397 0.033726 -0.032693 -0.012592 0.044892 -0.038943 0.003980 -0.003647 -0.055138 0.002965 -0.013192 0.052281 0.016010 -0.039608 0.023989 0.035122 0.028682 0.066083 0.083595 0.006910
0.012997 -0.118167 0.011090 -0.085406 -0.016287 -0.075350 -0.034935 -0.066957 0.019854 -0.013924 0.025727 0.042855 -0.047670 0.003126 0.007306 -0.083808 -0.008303 -0.035506 0.063830 -0.017802 -0.000459 0.033542 0.066311 0.040273 0.110711 0.121126 0.050257
0.005148 -0.112115 0.031935 -0.091022 -0.013777 -0.022889 -0.024266 -0.030748 0.028186 -0.029835 -0.021851 0.052662 -0.047417 -0.000049 -0.001462 -0.081964 0.011067 -0.038659 0.085156 -0.003422 -0.091475 0.039589 0.059947 0.031752 0.108270 0.135483 0.020600
0.030026 -0.206410 0.005455 -0.163684 0.005503 -0.144929 -0.059026 -0.116069 0.059685 -0.048851 0.055108 0.073986 -0.091994 -0.011545 0.028516 -0.141331 -0.034064 -0.105893 0.156283 -0.033071 0.046888 0.048119 0.122556 0.039313 0.231367 0.217452 0.041163
0.021705 -0.077860 0.065450 -0.174712 0.043884 -0.084723 -0.118296 -0.032758 0.037476 -0.016590 0.086182 0.056283 -0.075481 0.000112 -0.008178 -0.160498 -0.017348 -0.068259 0.045211 -0.072955 0.126830 0.030976 0.068743 0.033279 0.096488 0.087327 0.111628
0.027552 -0.213407 0.005071 -0.167110 0.017224 -0.140855 -0.065862 -0.086882 0.048248 -0.035647 0.043534 0.079089 -0.070461 -0.010248 0.040769 -0.152308 -0.015566 -0.100885 0.159707 -0.028021 0.026215 0.061864 0.114717 0.028634 0.221328 0.202552 0.014413
0.015896 0.007683 0.035891 -0.130900 0.094668 0.010684 -0.181702 -0.043960 0.023700 -0.000539 0.131456 -0.046322 -0.095717 0.018082 -0.028031 -0.152610 0.006057 -0.118380 -0.022432 -0.123178 0.233900 0.006720 0.095009 0.009971 0.112438 -0.016341 0.157079
-0.004124 -0.025874 0.017683 -0.057060 0.014115 -0.009003 -0.064767 0.039783 0.011756 -0.014005 0.015985 0.010782 -0.049864 0.003486 -0.015342 -0.053451 -0.003738 0.005317 0.020781 0.002947 0.020034 0.031592 0.030897 0.017688 0.009167 0.039122 0.008913
-0.005150 -0.087235 0.005078 -0.057097 -0.028287 0.010743 -0.022125 0.034876 0.001719 -0.013948 -0.043709 0.027602 -0.056616 -0.010839 0.019953 -0.031105 0.012178 0.010699 0.055420 0.020514 -0.084316 0.033972 0.054191 0.024800 0.072979 0.069664 -0.017099
0.010763 -0.112328 0.000199 -0.056085 -0.058053 -0.028583 -0.049588 0.007281 -0.032807 -0.006389 -0.010730 -0.009501 -0.067474 0.019250 -0.003296 -0.060989 -0.012908 -0.010528 0.056804 0.029047 0.008920 0.026832 0.068345 0.043494 0.107574 0.110586 0.029201
0.002950 -0.142158 0.035746 -0.074606 -0.038157 0.009126 -0.017437 0.011569 -0.021819 -0.008597 -0.048373 0.033600 -0.078504 -0.021150 0.030366 -0.045902 0.019419 -0.017331 0.091629 0.010942 -0.109293 0.053865 0.083192 0.029356 0.116129 0.108506 -0.011930
0.022797 -0.210382 -0.025138 -0.097980 -0.098321 -0.078763 -0.079576 0.005475 -0.068658 -0.003443 0.013271 -0.032031 -0.138566 0.011256 0.057068 -0.074413 -0.037106 -0.011783 0.128345 0.024431 0.068667 0.020776 0.101948 0.038797 0.174679 0.207020 0.081452
0.016700 -0.131944 -0.013181 -0.086910 -0.022062 -0.119973 -0.075469 0.062804 -0.011034 0.010941 0.039332 -0.006170 -0.105015 0.001343 0.015045 -0.107310 0.007959 0.082393 0.021302 -0.027446 0.128074 0.072178 0.068511 0.026858 0.063065 0.082511 0.005178
0.021652 -0.214109 -0.019980 -0.092021 -0.078855 -0.095102 -0.086004 0.003717 -0.074901 0.011018 0.010507 -0.020818 -0.130389 -0.004382 0.068552 -0.060518 -0.020072 -0.037861 0.121782 0.006257 0.096886 0.041702 0.099129 0.023482 0.167507 0.182304 0.078966
0.011524 -0.041527 -0.055682 -0.072841 0.051080 -0.068089 -0.089614 0.032270 -0.012580 0.018286 0.093404 -0.118626 -0.095303 0.004687 -0.042054 -0.128466 0.023586 0.035360 -0.057091 -0.067306 0.285084 0.001725 0.107404 0.024099 0.100932 0.017654 0.043159
-0.005111 -0.032993 -0.013747 -0.023171 -0.019832 -0.020738 -0.046314 0.096320 -0.009718 -0.003117 -0.028438 0.008592 -0.063447 -0.007269 -0.002001 -0.022100 0.018496 0.053242 0.014637 0.023063 0.011138 0.053704 0.038882 0.013379 -0.022430 0.028110 -0.037214
-0.004311 -0.060007 -0.013330 -0.017847 -0.063617 0.072971 -0.005345 0.045136 0.001659 -0.028248 -0.113653 0.037385 -0.062843 0.004494 0.002670 0.018280 0.003856 0.027916 0.046242 0.042721 -0.098762 0.007419 0.100566 0.052383 0.053251 0.032256 -0.076898
0.007856 -0.055464 -0.050747 0.004680 -0.096246 0.071511 -0.034994 0.051644 -0.033410 -0.054385 -0.130632 -0.004359 -0.086829 0.026225 0.016661 0.008374 -0.034669 0.036512 0.046036 0.070332 -0.002830 0.016815 0.103579 0.065601 0.087634 0.049977 -0.083087
0.002191 -0.094981 -0.011743 -0.010858 -0.096085 0.094684 -0.000231 0.037430 -0.013970 -0.064902 -0.154669 0.035391 -0.098998 0.000324 -0.000226 0.010255 -0.009803 -0.005505 0.074310 0.072196 -0.105082 0.011231 0.155763 0.067350 0.107864 0.060924 -0.064035
0.017660 -0.109804 -0.089299 0.027732 -0.183033 0.158204 -0.080003 0.103240 -0.087365 -0.076615 -0.218251 -0.053783 -0.151076 0.086323 0.057576 -0.001394 -0.092181 0.031279 0.065629 0.147484 0.026306 -0.023350 0.150707 0.116321 0.129152 0.070984 -0.025022
0.011615 -0.032947 -0.088847 -0.029712 -0.081900 -0.036681 -0.013671 0.096584 -0.074821 0.002512 -0.024759 -0.035326 -0.121919 0.008372 -0.026785 0.027784 -0.037917 0.146978 0.015339 -0.014247 0.093771 0.033986 0.085554 0.007360 -0.017949 0.019285 0.093087
0.018950 -0.071810 -0.090681 0.037285 -0.189782 0.133888 -0.061504 0.093522 -0.102946 -0.074538 -0.188782 -0.051835 -0.149875 0.055680 0.020890 0.021864 -0.076373 -0.028091 0.070722 0.127774 0.060583 -0.029590 0.164346 0.081435 0.127394 0.065526 0.035502
0.005439 0.038667 -0.111955 -0.053723 0.003959 -0.140908 0.046888 0.037066 -0.076926 0.057627 0.132140 -0.122091 -0.101761 -0.012664 -0.052802 -0.006391 -0.042853 0.087913 -0.035126 -0.072144 0.319149 -0.053349 0.022698 -0.047233 0.006482 -0.037866 0.207345
-0.005978 0.000057 -0.035487 0.009741 -0.038807 -0.002321 -0.012331 0.070563 -0.013374 0.000425 -0.069113 0.027993 -0.064195 -0.008097 -0.014764 0.038234 -0.009799 0.099120 0.012068 -0.014034 0.016221 0.040250 0.052305 0.015488 -0.063702 0.001347 -0.028648
-0.003224 0.012529 -0.003381 0.032067 -0.076952 0.076694 0.017464 0.029102 -0.006018 -0.043941 -0.120355 0.031496 -0.059063 0.007841 -0.021684 0.057690 -0.005243 0.064705 0.053326 -0.037750 -0.056007 0.022953 0.077566 0.073739 -0.034246 0.032384 -0.122175
0.006906 0.008955 -0.062665 0.065442 -0.081068 0.119062 0.060204 0.054777 -0.019391 -0.084250 -0.188798 0.033018 -0.074799 0.022666 0.024709 0.062551 -0.041708 0.054776 0.052731 -0.035041 0.009494 0.023126 0.109400 0.089158 -0.054599 0.011378 -0.166728
0.002293 0.007363 -0.015547 0.038626 -0.104591 0.092580 0.062437 0.050692 -0.039663 -0.075765 -0.178715 0.019036 -0.093359 0.012416 -0.016703 0.057246 0.002092 0.045129 0.092683 -0.061952 -0.023780 0.036776 0.121887 0.108764 -0.053997 0.055125 -0.139003
0.014116 -0.004985 -0.080367 0.158681 -0.177946 0.206082 0.053366 0.088976 -0.012669 -0.167440 -0.390690 0.037005 -0.098714 0.057333 0.092689 0.108770 -0.079357 0.099877 0.046110 -0.006339 0.080072 0.021925 0.198356 0.220285 -0.061202 -0.030585 -0.370001
0.010500 0.106542 -0.116736 0.090553 -0.173072 0.147929 -0.024568 0.121667 -0.068110 -0.090460 -0.240388 -0.029984 -0.120880 0.036077 -0.073146 0.114488 -0.073636 0.107614 -0.000764 0.066450 0.129902 0.028378 0.095028 0.049009 0.023685 0.007382 -0.126625
0.015872 0.059504 -0.085192 0.161824 -0.165174 0.172843 0.062905 0.100122 -0.056274 -0.144362 -0.357107 0.004079 -0.108007 0.023694 0.051335 0.118505 -0.070430 0.051584 0.031661 -0.036186 0.145669 0.017197 0.179725 0.231538 -0.079590 -0.000981 -0.325806
0.006975 0.132364 -0.182434 0.015183 -0.098702 0.093718 -0.001196 0.080220 -0.044768 -0.071465 -0.105632 -0.101511 -0.100766 0.010807 -0.098797 0.049450 -0.114904 0.046019 -0.045426 0.191830 0.243304 -0.096907 0.004256 -0.080557 0.170609 -0.002114 0.099755
-0.005345 0.082527 -0.037882 0.044085 -0.072523 0.003559 -0.012594 0.037708 -0.003344 -0.032115 -0.104932 0.026453 -0.057605 0.005242 -0.053309 0.084039 -0.033502 0.094480 0.009613 -0.025629 0.035620 0.058693 0.038789 0.037167 -0.031219 -0.002555 -0.090207
-0.003307 0.024239 0.011165 0.058727 -0.028600 0.037340 0.031429 0.041862 0.025692 -0.039792 -0.077927 0.044319 -0.040821 0.031115 -0.046411 0.077780 -0.018590 0.026004 0.041678 -0.129013 -0.045262 0.046289 0.057606 0.078135 -0.126718 -0.001029 -0.075629
0.004968 0.047307 -0.021759 0.116176 -0.028147 0.104586 0.077519 0.027951 -0.001203 -0.081691 -0.130965 0.044983 -0.050385 0.035943 0.005654 0.086103 -0.067980 0.048541 0.092332 -0.175869 -0.019850 0.050467 0.060285 0.088657 -0.148156 -0.033774 -0.130717
-0.000702 0.013070 0.010912 0.088634 -0.072237 0.044570 0.044160 0.056390 -0.007912 -0.065889 -0.092916 0.027742 -0.066525 0.046180 -0.058618 0.099996 -0.012507 0.040607 0.097298 -0.188607 -0.031865 0.052842 0.097005 0.138695 -0.178176 -0.010018 -0.077221
0.012101 0.017181 -0.036834 0.273431 -0.047564 0.167133 0.154952 0.007302 0.055158 -0.165517 -0.308465 0.111462 -0.045077 0.099512 0.058259 0.177964 -0.085185 0.065169 0.210852 -0.423953 0.030516 0.082339 0.122006 0.182834 -0.377065 -0.097078 -0.237794
0.009196 0.127470 -0.059468 0.152432 -0.073795 0.140563 0.091736 0.040031 -0.066226 -0.120902 -0.286238 0.042587 -0.090808 0.044221 0.030586 0.137355 -0.074297 0.086703 0.021565 -0.143291 0.124946 0.125199 0.023611 0.159628 -0.149862 -0.014934 -0.280386
0.011643 0.064245 -0.074235 0.256762 -0.036747 0.142318 0.152854 0.026492 0.018227 -0.145210 -0.272719 0.078576 -0.047545 0.088104 -0.010035 0.190566 -0.085455 0.050149 0.157477 -0.409884 0.056497 0.088058 0.107036 0.216204 -0.356323 -0.062553 -0.208398
0.004781 0.123851 -0.111813 0.036080 -0.063070 0.074225 0.153824 0.011700 -0.070143 -0.123580 -0.195876 -0.068488 -0.093981 -0.033912 0.033662 0.070704 -0.102340 0.027464 -0.048536 0.147068 0.234347 0.039778 -0.051678 0.066357 0.078567 0.010575 -0.146041
-0.004570 0.076356 -0.003808 0.042061 -0.018943 -0.006765 0.012666 0.000447 -0.021456 -0.040182 -0.103780 0.029515 -0.039759 0.042299 -0.013198 0.091314 -0.033514 0.040726 0.012113 -0.108801 0.039341 0.085451 -0.009635 0.092499 -0.071304 -0.024222 -0.064212
-0.005147 0.029337 0.012424 0.034235 0.016006 0.065902 0.015524 0.033634 -0.002279 -0.048603 -0.040657 0.033623 -0.018159 0.031341 -0.018483 0.061814 -0.030052 0.005831 0.037008 -0.054367 -0.069796 0.037970 0.020306 0.064031 -0.105896 -0.064133 -0.041174
0.002764 0.080487 -0.026360 0.105503 0.015639 0.096934 0.060066 -0.007698 -0.028647 -0.082476 -0.036186 0.031680 -0.022725 0.004474 0.013895 0.070627 -0.081274 0.011865 0.050265 -0.123651 -0.047056 0.077368 0.017867 0.088487 -0.124124 -0.114931 -0.032347
0.000257 0.045351 -0.007849 0.058440 -0.034373 0.104510 0.016497 0.024405 -0.056089 -0.069242 -0.046062 0.020179 -0.037658 0.050554 -0.043966 0.103966 -0.045627 0.030667 0.071420 -0.058632 -0.042290 0.039888 0.052513 0.118526 -0.130045 -0.105668 -0.063607
0.005708 0.087413 -0.009869 0.250998 0.030329 0.183610 0.128897 -0.046512 0.024073 -0.169325 -0.089481 0.057428 -0.012511 0.061334 0.112481 0.142436 -0.145404 -0.013034 0.167282 -0.362063 -0.068114 0.144405 0.052515 0.077356 -0.315752 -0.258614 -0.035396
0.006725 0.056337 -0.028677 0.177649 0.138873 0.147220 0.121315 0.030546 0.005240 -0.135617 -0.180133 0.118183 -0.034166 0.076390 0.033464 0.141490 -0.099947 -0.012074 0.042581 -0.332692 -0.061240 0.101569 -0.008919 0.113600 -0.288256 -0.061626 -0.059218
0.007178 0.109131 -0.026721 0.234449 0.021578 0.170804 0.106550 -0.024278 -0.008959 -0.151838 -0.079331 0.038769 -0.013771 0.086256 0.021259 0.162956 -0.150765 0.014028 0.104415 -0.295303 -0.033366 0.125534 0.046747 0.070097 -0.270894 -0.242385 -0.022736
0.001642 -0.057634 -0.054755 0.120012 0.147317 0.066766 0.165727 0.083139 0.006831 -0.131315 -0.138158 0.028783 -0.055517 0.001876 0.015557 0.066476 -0.083422 -0.006635 -0.029746 -0.157717 0.041301 0.011612 -0.048757 0.079444 -0.226092 0.089643 0.063737
-0.005161 -0.001620 0.005840 0.019613 0.090626 0.004027 0.027426 0.003941 0.005215 -0.047211 -0.049097 0.056652 -0.015096 0.058341 0.020701 0.049635 -0.037279 -0.017460 -0.012834 -0.128089 -0.026431 0.061320 -0.017320 0.073467 -0.115078 -0.034706 0.032860
-0.006113 0.047801 0.019156 0.016123 -0.008019 0.074331 -0.018843 -0.025897 -0.013582 -0.056526 -0.007334 0.034109 -0.016941 0.026267 -0.012981 0.043545 -0.005429 0.015077 0.023840 0.033947 -0.075425 0.023448 0.015795 0.006089 -0.016602 -0.103926 -0.012519
0.000932 0.087355 -0.005723 0.051686 0.043122 0.104327 0.007163 -0.012311 -0.013530 -0.083635 0.022929 0.001117 0.018873 0.002563 -0.013935 0.042970 -0.041848 -0.031553 0.044140 0.004105 -0.123957 0.028446 -0.018122 0.020300 -0.056896 -0.145266 0.072732
-0.001764 0.089118 0.017173 0.031868 -0.015614 0.114985 -0.000351 -0.035640 -0.058254 -0.072565 -0.023805 0.041606 -0.008557 0.053846 -0.033620 0.068807 0.006414 0.019523 0.012775 0.069909 -0.116069 0.003252 0.037974 -0.008565 -0.055845 -0.144168 0.007294
0.000920 0.228602 0.001608 0.182508 0.038834 0.166975 0.073586 -0.157748 -0.019919 -0.151105 0.003131 -0.026114 0.041474 0.006641 0.088974 0.065790 -0.092245 -0.073760 0.112059 -0.006716 -0.224209 0.092465 -0.050146 0.017196 -0.086561 -0.351754 0.125280
0.002853 0.178338 0.010662 0.125323 0.108516 0.127991 0.043627 -0.084044 0.000446 -0.148398 -0.036193 0.066087 -0.028698 0.077832 0.076288 0.085606 -0.090616 -0.029606 0.078101 -0.175368 -0.155579 0.159229 -0.091840 -0.015153 -0.097260 -0.230114 0.036739
0.002547 0.235701 -0.019253 0.161966 0.035813 0.141197 0.066498 -0.155702 -0.018746 -0.135693 -0.014729 -0.034526 0.032439 0.048462 0.041208 0.070412 -0.081516 -0.038380 0.053514 0.045200 -0.192696 0.079867 -0.042270 -0.039681 -0.047906 -0.325300 0.128321
-0.000153 0.150361 -0.043703 0.121530 0.086555 0.101290 0.045056 0.017211 0.001871 -0.149052 0.054713 0.005541 -0.058923 0.023310 0.060158 0.040433 -0.128551 0.031146 0.025680 -0.092880 -0.078846 0.165085 -0.155581 -0.002144 -0.097817 -0.093180 -0.032159
-0.005735 0.074815 0.019541 -0.000578 0.054904 -0.012512 -0.022321 -0.028850 0.026307 -0.052786 -0.005563 0.060710 -0.018179 0.039461 0.050922 0.007847 -0.032715 -0.004590 -0.004117 -0.055552 -0.043349 0.072466 -0.049014 0.013835 0.003982 -0.098296 0.014178
-0.004077 -0.000730 0.020719 -0.023500 0.033932 0.028169 -0.068694 0.004598 -0.003531 -0.032658 0.064271 0.060207 -0.012046 0.027663 -0.011458 0.024793 -0.029218 0.025576 0.000946 -0.013684 -0.032393 0.033821 0.013603 -0.047970 0.004990 -0.039292 -0.013343
0.000568 0.029676 0.009164 -0.007949 0.069861 0.042613 -0.091939 -0.013740 0.025957 -0.020958 0.046327 -0.005961 0.040552 -0.008861 0.009872 0.011599 -0.066576 -0.017688 -0.019945 0.006509 -0.076456 0.051296 -0.028715 0.014519 0.021323 -0.078662 0.062329
-0.003578 0.010790 0.018818 -0.005835 0.049391 0.075035 -0.067277 -0.005981 -0.004471 -0.023273 0.054373 0.083349 -0.013682 0.047068 -0.007120 0.040877 -0.029698 0.031720 -0.046150 -0.038707 -0.047941 0.058216 -0.003095 -0.063312 -0.052635 -0.050730 -0.008535
0.001249 0.048207 0.032393 0.036725 0.022692 0.005897 -0.125102 -0.106722 0.073301 -0.069228 0.131726 -0.016528 0.083942 -0.020502 0.086002 -0.011160 -0.152288 -0.070245 0.048824 0.081805 -0.159573 0.030550 -0.056628 0.054511 0.059504 -0.206872 0.194899
0.000216 0.111634 0.058500 0.067999 0.059092 -0.032853 -0.078026 -0.149312 0.074588 -0.112316 0.047462 0.050298 -0.018615 0.022292 0.118894 -0.000757 -0.066179 -0.091482 0.088655 0.049138 -0.188680 0.079253 -0.081701 -0.050030 0.082481 -0.190396 0.158008
0.002553 0.064500 0.000841 0.024112 0.023469 0.001046 -0.105816 -0.075768 0.092108 -0.057686 0.117647 0.005780 0.073150 0.012317 0.053103 -0.019339 -0.143719 -0.042243 -0.002203 0.055285 -0.116363 0.034464 -0.073197 0.003786 0.071092 -0.170954 0.169588
-0.004765 0.126779 -0.001852 0.150428 0.084720 -0.017915 -0.044552 -0.076375 -0.016049 -0.087703 0.035015 0.001336 -0.070860 -0.011550 0.117332 -0.003667 -0.054364 -0.059712 0.064939 0.171072 -0.228317 0.101148 -0.142105 -0.036371 0.097354 -0.190571 0.094319
-0.008053 0.039842 0.039543 -0.012237 0.007456 -0.070988 -0.076726 -0.047444 0.067869 -0.031728 -0.013275 0.086208 -0.016195 0.019770 0.063257 -0.019762 -0.027097 -0.034547 0.005554 0.003535 -0.023980 0.024898 -0.045321 -0.008910 0.096734 -0.055223 0.029126
-0.004985 0.010252 0.005474 -0.018761 0.049490 -0.001246 -0.046330 0.004542 0.011501 -0.000616 -0.013650 0.076647 -0.001256 0.019921 -0.002673 -0.003224 -0.031545 -0.028303 0.013674 0.010453 -0.011523 0.022127 -0.007411 -0.019798 0.004568 -0.027136 -0.014643
0.004703 0.008045 0.006642 -0.036995 0.082400 -0.030679 -0.083452 -0.034816 0.041969 0.024212 0.024661 0.076753 0.023540 -0.007623 0.022094 -0.031090 -0.095178 -0.058825 -0.019889 0.023106 -0.038502 0.029870 -0.006495 0.016123 0.065129 -0.013167 0.010608
-0.001038 -0.006385 -0.018889 -0.000111 0.077755 0.027728 -0.058770 -0.017805 0.007142 0.009694 0.010227 0.117864 -0.033947 0.021630 0.009824 0.008208 -0.049866 -0.040015 -0.012757 0.041054 -0.024822 0.032782 -0.013391 -0.021547 -0.009582 -0.047984 -0.002806
0.006730 0.020071 0.010665 -0.097286 0.076265 -0.085333 -0.186953 -0.078568 0.073054 0.047820 0.077873 0.085727 0.147518 -0.031466 0.035849 -0.061812 -0.174385 -0.089715 -0.017509 0.069776 -0.076045 0.072781 -0.036030 0.037779 0.143123 -0.023460 0.048796
-0.001134 -0.034468 0.073473 -0.065019 0.057037 -0.086105 -0.136037 -0.054237 0.135529 0.028585 0.021870 0.070988 0.080839 -0.018528 0.075905 -0.089266 -0.109536 -0.093043 0.065853 -0.001937 -0.085316 0.029767 -0.038158 0.008180 0.169130 -0.046688 0.047790
0.007828 0.038884 -0.013875 -0.084923 0.076406 -0.072855 -0.153395 -0.074511 0.071032 0.062207 0.078920 0.090955 0.108584 -0.006090 0.021600 -0.076283 -0.184558 -0.073083 -0.057625 0.075207 -0.043163 0.047050 -0.047245 0.017872 0.130208 0.011418 0.053324
-0.008826 -0.076103 -0.009844 0.060051 0.076897 -0.037395 -0.097905 0.032494 0.036635 0.066855 0.060956 -0.004756 0.056809 -0.046230 0.039023 -0.044801 -0.128462 -0.058358 0.061086 0.021560 -0.116732 0.066989 -0.044860 0.017786 0.113663 -0.075677 0.030610
-0.006978 0.013886 0.044210 -0.039495 0.005405 -0.052891 -0.059402 -0.036126 0.061279 0.013202 -0.038923 0.084108 0.027463 0.018780 0.026487 -0.059787 -0.038744 -0.041821 0.018762 -0.035871 0.006095 0.017800 -0.030628 0.010992 0.088296 0.020225 -0.009431
-0.003340 -0.003981 0.043922 -0.040293 0.030228 -0.011704 -0.002482 -0.008887 0.046897 -0.013479 -0.014995 0.051758 -0.001083 0.010089 0.006764 -0.037966 -0.008779 -0.043192 0.008203 0.001844 -0.001654 -0.016329 -0.011532 0.017011 0.003259 -0.014246 0.017070
0.014084 0.003395 0.020423 -0.085169 0.064234 -0.044631 -0.030953 0.006703 0.067033 0.007244 -0.019370 0.079188 0.026276 -0.001060 -0.017092 -0.055562 -0.018171 -0.074598 -0.053395 -0.024211 -0.025146 0.008802 -0.002118 0.039821 0.051764 0.048142 0.007416
0.004410 0.003575 0.041720 -0.068263 0.049457 -0.007574 -0.002022 0.009888 0.050263 -0.020217 -0.001485 0.094906 -0.013934 0.002977 0.002157 -0.034900 -0.010920 -0.060154 -0.011360 -0.000395 -0.013773 -0.018381 -0.017570 0.014465 0.015248 -0.036172 0.031681
0.026913 0.013389 0.024671 -0.167259 0.077977 -0.086438 -0.056067 -0.028657 0.129358 0.025317 -0.032423 0.101766 0.122271 -0.000311 0.035798 -0.128447 -0.055660 -0.168424 -0.105126 -0.008509 -0.013261 0.003536 -0.011193 0.064884 0.132136 0.060672 0.048115
0.005912 0.006332 0.060260 -0.114598 0.019095 -0.106539 -0.107360 -0.149390 0.124992 0.065817 -0.059642 0.091254 0.199692 -0.014703 0.073340 -0.134248 -0.085974 -0.182429 0.079651 0.007419 -0.002775 0.000089 0.027828 0.014380 0.082667 0.083931 0.014680
0.022366 0.039567 0.006753 -0.167829 0.088922 -0.071593 -0.047268 -0.025543 0.118815 0.027146 -0.009939 0.092872 0.101164 -0.004956 0.022408 -0.126135 -0.068610 -0.168240 -0.086111 0.008547 -0.006643 -0.007828 -0.026827 0.053805 0.130148 0.062900 0.046442
-0.010163 -0.018004 0.018939 -0.021592 -0.073486 -0.089068 -0.118176 -0.196859 0.056666 0.073708 0.027739 0.034943 0.294492 -0.037981 0.099884 -0.083292 -0.128058 -0.158790 0.168302 0.028068 -0.037348 0.086653 0.074107 -0.025036 0.002284 0.038940 -0.012513
-0.008217 0.011401 0.055110 -0.027752 -0.015994 -0.036010 -0.016133 -0.073229 0.038666 0.003128 -0.043601 0.077505 0.067167 0.003164 0.028850 -0.060416 -0.041744 -0.057280 0.040550 -0.007459 0.022532 -0.013529 -0.005385 0.013671 0.001151 0.047221 0.003528
-0.002519 0.033123 0.021030 0.000026 -0.017729 0.014402 0.010480 -0.001339 0.014641 -0.001216 -0.027267 0.011317 0.011435 -0.008405 -0.010105 0.011557 0.016372 -0.029829 0.021433 0.006980 -0.016489 -0.018077 -0.035938 -0.007811 -0.003830 -0.005619 0.015721
0.022220 0.022432 0.010731 -0.027145 -0.046095 -0.015892 0.029945 -0.050577 0.059188 0.007753 -0.020833 0.040698 0.053334 -0.017038 -0.017187 -0.022066 0.028225 -0.061246 -0.002271 -0.008073 0.007862 -0.029126 -0.016866 -0.004174 0.029029 0.044315 -0.018481
0.008591 0.046619 0.046671 -0.008225 -0.056737 0.029459 0.034655 -0.012094 0.024149 -0.019955 -0.050175 0.038329 0.008831 -0.011299 -0.033030 0.013341 0.059984 -0.035451 0.001054 0.013389 -0.016971 -0.049427 -0.057139 -0.023176 0.020652 -0.002836 0.032528
0.047172 0.058188 -0.017275 -0.043277 -0.002322 0.010911 0.046978 -0.006583 0.063129 0.053595 -0.050302 0.083018 0.052095 -0.038440 -0.063442 -0.034552 0.073398 -0.126305 -0.087816 -0.038710 -0.021537 -0.046393 -0.042856 0.000686 0.031394 0.087661 0.010800
0.020929 0.070392 -0.016514 -0.095278 0.074858 -0.002796 -0.006389 -0.026410 0.019601 0.014377 -0.024474 0.074433 0.073215 -0.002574 0.009203 -0.070267 0.028633 -0.104497 -0.061318 -0.083996 -0.024297 -0.024839 -0.026539 0.049808 0.013800 0.102268 0.023305
0.041445 0.068439 -0.001678 -0.044639 -0.011648 0.023034 0.055657 -0.018756 0.047823 0.039605 -0.053069 0.086726 0.055701 -0.039783 -0.050922 -0.025701 0.075533 -0.123453 -0.077223 -0.023091 -0.032741 -0.051275 -0.047865 -0.013864 0.039091 0.072337 0.012673
0.005772 0.060391 -0.017545 -0.117029 0.087372 -0.010973 -0.048108 -0.057210 0.025696 -0.036608 0.010942 0.078910 0.123975 0.006755 0.069388 -0.078379 -0.031219 -0.092017 -0.037591 -0.138039 -0.020968 0.024091 -0.000412 0.072032 -0.020698 0.110833 0.030115
-0.005335 0.038431 0.003724 -0.025579 0.033525 0.011215 0.010398 -0.003195 -0.018439 -0.003199 -0.017288 0.011897 0.016757 -0.005578 0.015450 -0.013044 -0.018329 -0.041838 0.018581 -0.016622 -0.002521 -0.010351 -0.014618 0.013097 -0.000279 0.010879 0.012294
-0.004176 -0.015839 0.063410 -0.018399 0.010765 0.015310 0.014139 -0.014558 -0.001822 -0.006944 -0.000761 0.052227 0.008703 -0.000049 -0.024855 -0.015726 0.012709 -0.020620 -0.010484 0.002107 -0.017924 -0.020140 -0.021767 -0.024888 -0.003032 0.008899 0.041076
0.019732 -0.019608 0.030626 -0.036813 0.044036 -0.021295 0.019994 -0.057686 0.000546 0.007947 0.029248 0.062028 0.032607 -0.011149 -0.030013 -0.057655 0.033184 -0.079358 0.013495 -0.009812 0.019009 -0.019430 -0.011799 -0.043080 0.009343 0.046347 0.033015
0.006234 -0.021034 0.056393 -0.029098 0.047768 0.031115 0.036231 -0.031185 -0.009594 -0.004033 0.016110 0.041883 0.014243 0.005129 -0.032539 -0.038944 0.001219 -0.056927 0.017048 -0.004061 0.010983 -0.038409 -0.026775 -0.046757 -0.002698 0.002726 0.055321
0.046821 -0.021602 0.074747 -0.049290 0.022152 -0.026062 0.080035 -0.111578 0.002411 0.011537 0.050123 0.130962 0.080049 -0.013676 -0.054657 -0.078179 0.075315 -0.118691 -0.022899 -0.001033 -0.030731 -0.013279 -0.012312 -0.101005 -0.019742 0.083307 0.012669
0.031689 -0.042347 -0.004353 0.023390 -0.054911 0.015824 0.041058 -0.067914 -0.016938 0.056306 0.002191 -0.004540 0.094797 -0.033164 -0.006463 0.039204 0.035366 -0.076372 0.004045 0.053666 -0.030458 -0.025589 0.014974 -0.059425 0.000857 0.035731 -0.027241
0.042172 -0.028527 0.051511 -0.044873 0.036130 -0.006486 0.085070 -0.109518 0.016587 0.020728 0.056061 0.100165 0.089034 -0.014241 -0.038022 -0.073430 0.042339 -0.127279 -0.002966 0.002288 -0.023209 -0.028363 -0.000771 -0.089854 -0.015732 0.067801 -0.003386
0.024079 -0.022977 -0.001747 0.023654 -0.082092 0.036640 -0.003939 -0.048564 -0.006568 0.034507 -0.036706 -0.028210 0.093689 -0.040949 0.008393 0.069096 0.077126 -0.022452 0.011398 0.048562 -0.059537 -0.014764 0.004087 -0.060247 -0.008895 0.043649 -0.037938
-0.001671 -0.012275 0.041041 0.003357 -0.016952 0.028034 0.011189 -0.014476 -0.022880 0.006544 -0.013291 0.019587 0.014115 -0.014979 -0.007920 0.016336 0.017137 -0.015238 -0.004037 0.022301 -0.031041 -0.024445 -0.011199 -0.024406 -0.003058 0.019513 0.013748
-0.006530 -0.039141 0.021776 -0.058307 0.026400 0.025065 -0.002800 -0.037149 0.021084 -0.008711 -0.007313 0.058726 -0.014367 0.000054 -0.009607 -0.040122 -0.001275 -0.049413 0.033132 -0.007798 -0.027055 0.013018 0.027236 -0.012483 0.022734 0.038124 0.029080
0.013670 -0.063418 0.012614 -0.073291 0.041506 -0.045776 0.011576 -0.069498 0.018356 0.015303 0.039245 0.043648 -0.004490 -0.004460 0.015997 -0.051848 0.027602 -0.083591 0.045730 -0.014989 -0.015105 0.014358 0.048825 -0.041043 0.063017 0.054055 -0.001910
0.002464 -0.065821 0.028131 -0.073243 0.065315 0.030420 0.020310 -0.071575 0.007930 0.002283 0.012994 0.031969 0.003499 -0.002407 0.021199 -0.044931 -0.014013 -0.105002 0.071017 0.007843 -0.022933 0.016741 0.057607 -0.042491 0.043911 0.015642 -0.001617
0.033706 -0.055282 0.060311 -0.168496 0.099404 -0.096981 -0.001340 -0.137939 0.033414 0.015264 0.047962 0.157962 -0.027906 0.010903 -0.012213 -0.143108 0.088241 -0.141880 0.066049 -0.059585 -0.010590 0.027170 0.041102 -0.093668 0.071618 0.123174 0.064194
0.025640 -0.037365 0.075591 -0.099206 0.057904 -0.007166 0.007629 -0.017368 0.031689 -0.001451 0.055099 0.096340 -0.024719 -0.007103 -0.075814 -0.125950 0.063829 -0.038987 -0.011691 -0.070069 -0.015291 -0.000929 -0.030268 -0.045662 0.012778 0.079564 0.104005
0.029464 -0.052672 0.057489 -0.158014 0.109608 -0.074219 -0.003889 -0.125093 0.025471 0.026620 0.062599 0.132520 -0.007171 0.009048 0.002371 -0.150202 0.075535 -0.155059 0.095320 -0.041980 -0.003489 0.020537 0.044740 -0.099777 0.055969 0.092129 0.028214
0.019429 -0.010118 0.040021 -0.056712 0.080456 0.016978 -0.006983 0.018450 0.002447 -0.023359 0.072848 0.003538 -0.058825 0.000714 -0.064329 -0.090798 0.064820 0.023420 -0.040994 -0.062071 -0.032251 -0.035862 -0.038158 -0.039617 0.050508 0.042353 0.123123
-0.005632 -0.023430 0.040407 -0.035787 0.014987 0.022884 0.001301 0.009643 0.004321 0.001672 -0.003454 0.034050 -0.035001 0.000489 -0.032008 -0.039309 0.002979 0.019235 0.009977 -0.005663 -0.040767 0.004754 -0.024145 -0.005343 -0.015642 0.047290 0.051065
-0.005895 -0.052490 0.032480 -0.022873 -0.028178 0.035154 0.005834 -0.011276 0.013134 -0.030611 -0.028970 0.001815 -0.022747 -0.006033 0.004531 -0.025283 -0.005816 -0.008480 0.039684 0.000368 -0.075285 0.029413 0.038818 0.006765 0.075798 0.065918 -0.033851
0.006685 -0.072924 -0.006786 -0.018357 -0.025209 -0.017373 0.004063 -0.033355 -0.007125 0.000528 0.022019 -0.014568 -0.046615 0.010725 0.015469 -0.049654 0.013768 -0.036026 0.026184 -0.019703 -0.028467 0.014026 0.057758 -0.024436 0.097196 0.109231 0.019558
-0.000733 -0.095003 0.076641 -0.013523 -0.008299 0.041311 0.036350 -0.050038 0.003615 -0.017293 -0.049726 -0.016142 -0.018963 -0.006840 0.005792 -0.042142 0.025993 -0.037190 0.050822 -0.025495 -0.101065 0.024334 0.063877 0.001920 0.112428 0.079069 -0.038411
0.019726 -0.126356 -0.020531 -0.081523 -0.020354 -0.041745 -0.031280 -0.066588 -0.003950 -0.014718 0.030661 -0.021330 -0.109567 -0.002202 0.062489 -0.055706 0.024869 -0.062080 0.087911 -0.011918 0.010289 0.014090 0.113757 -0.057865 0.160553 0.177204 0.019144
0.016282 -0.015296 0.026539 -0.068787 0.002039 -0.037441 -0.026962 0.012420 -0.003012 0.012828 0.058062 0.007705 -0.091954 -0.037011 -0.004072 -0.092522 0.007418 0.013275 0.048442 -0.016085 0.053478 0.030698 0.024494 -0.063647 0.071974 0.016479 0.053690
0.017496 -0.132288 0.004544 -0.042092 -0.007922 -0.032039 -0.027992 -0.078584 -0.003786 0.008290 0.015377 -0.057701 -0.084330 -0.021177 0.055850 -0.046008 0.044167 -0.061363 0.086721 -0.007070 0.015262 -0.003012 0.101641 -0.042634 0.154900 0.145804 -0.006845
0.012950 0.097781 -0.006078 -0.054620 0.065872 -0.017801 -0.097440 0.032862 -0.059650 0.028395 0.098120 -0.127572 -0.146778 -0.007040 -0.023964 -0.091673 0.018072 0.001755 0.011424 -0.046497 0.152695 -0.000746 0.058442 -0.092845 0.131593 -0.060314 0.121202
-0.005853 0.004585 0.026327 -0.010994 -0.033032 0.025120 -0.005584 0.059433 0.004197 -0.004425 -0.008595 0.003689 -0.042028 -0.021126 -0.024206 -0.013011 -0.009976 0.041221 0.027856 0.027549 -0.043982 0.037441 -0.006192 0.001308 0.001009 0.006101 -0.036565
-0.006668 -0.057932 0.054073 -0.024342 -0.066421 0.056144 0.019525 0.017857 -0.020004 -0.024399 -0.042520 -0.018313 -0.030192 0.032468 -0.019223 -0.026981 -0.002056 0.021068 0.028457 -0.014126 -0.081274 0.011263 0.036789 0.011638 0.062430 0.101154 -0.012640
0.003295 -0.035399 0.011094 0.001205 -0.128576 0.035591 0.004988 0.006565 -0.045821 -0.033244 -0.003811 -0.052753 -0.058913 0.035120 0.001976 -0.023929 -0.002955 0.032316 0.028614 0.008208 -0.032300 -0.005003 0.071345 -0.041538 0.084563 0.126531 0.013620
-0.000196 -0.099236 0.077448 -0.012804 -0.087529 0.072395 0.045682 -0.064863 -0.033886 -0.024404 -0.045799 -0.055764 -0.026736 0.031401 -0.015878 -0.049532 0.022615 0.020165 0.070593 -0.036166 -0.071355 0.015266 0.048470 0.002713 0.110295 0.116419 -0.009925
0.010500 -0.068562 -0.018812 -0.025890 -0.214544 0.031649 -0.002872 0.027975 -0.110930 -0.040552 0.050404 -0.125332 -0.140379 0.069196 0.022914 -0.020924 0.003095 0.045191 0.055739 -0.002883 0.027964 -0.014500 0.098827 -0.084065 0.095155 0.245042 0.081493
0.008660 0.018804 -0.013153 0.004065 -0.054343 -0.013359 -0.027730 0.085541 -0.045799 0.025422 0.009095 -0.062501 -0.112549 -0.018289 0.002902 0.022948 0.013912 0.153533 -0.066859 -0.026545 0.098808 -0.048047 0.016867 -0.041759 0.007846 0.070942 -0.007706
0.008815 -0.066890 0.007973 -0.011221 -0.183624 0.025931 -0.022641 -0.021013 -0.120529 -0.008964 0.069103 -0.136361 -0.106891 0.039514 0.014882 -0.014677 0.008154 -0.007153 0.064256 0.003629 0.100550 -0.057748 0.055040 -0.048360 0.087939 0.211396 0.106166
0.006073 0.111127 -0.064597 0.010154 0.050454 -0.016839 -0.089023 0.062280 -0.064055 0.040539 0.004503 -0.192426 -0.142037 -0.000058 -0.001985 0.027080 0.044967 0.167154 -0.122916 -0.084847 0.266644 -0.078194 0.058961 -0.076530 0.110055 -0.047953 0.021569
-0.004416 0.016533 0.041075 0.015844 -0.049191 0.041217 -0.034211 0.067941 -0.004304 -0.005143 -0.044177 -0.004293 -0.052280 -0.006999 -0.033597 0.008702 0.005898 0.151706 -0.024557 0.003406 -0.030180 0.018477 -0.018815 0.023304 -0.050857 0.014739 -0.046247
-0.004005 -0.062022 0.053870 0.001694 -0.055146 0.081695 -0.005318 -0.016680 -0.004013 -0.035013 -0.101953 0.007575 -0.039025 0.035875 0.027782 -0.027726 -0.004653 0.031678 0.045146 0.058670 -0.117623 -0.011334 0.018432 0.051354 0.087384 0.072240 -0.090803
0.001407 -0.047842 -0.004476 0.001027 -0.113959 0.102014 -0.012115 0.028358 -0.022142 -0.091895 -0.117402 -0.006525 -0.046079 0.059118 0.049000 0.004443 -0.005343 0.044014 0.062897 0.068102 -0.022400 -0.009551 0.063894 -0.006550 0.064880 0.081119 -0.126570
-0.002428 -0.085654 0.054062 -0.006175 -0.084928 0.095915 0.015324 -0.058590 -0.009639 -0.071271 -0.116255 0.001869 -0.056333 0.055822 0.023808 -0.033361 0.024069 0.030269 0.071497 0.066522 -0.101832 -0.027547 0.035524 0.064119 0.114733 0.079369 -0.078184
0.003650 -0.108342 -0.049052 0.034627 -0.260034 0.162257 -0.034483 0.076319 -0.019955 -0.151252 -0.153000 -0.048583 -0.092982 0.128522 0.073064 -0.008685 -0.008208 0.123194 0.127890 0.092544 -0.038494 0.017776 0.099378 -0.049748 0.054889 0.103480 -0.077453
0.005496 0.055745 -0.017103 0.028162 -0.140735 0.076525 -0.029729 0.090211 -0.123917 -0.012427 0.009095 -0.070432 -0.106673 0.033656 -0.011360 0.014115 -0.011106 0.084242 -0.001436 0.047599 0.088426 -0.037884 -0.030828 -0.027392 -0.066167 0.042871 0.116317
0.004525 -0.065411 -0.038765 0.031562 -0.229521 0.148513 -0.048471 0.044163 -0.043393 -0.136885 -0.109639 -0.059183 -0.080140 0.083834 0.055650 -0.004895 -0.017308 0.085825 0.113252 0.101464 0.018405 -0.030441 0.062375 -0.003697 0.046510 0.063999 0.014181
0.001406 0.149817 -0.105321 0.002243 -0.038785 -0.038069 0.028947 0.071529 -0.192639 0.040217 0.176267 -0.184943 -0.143533 0.051691 -0.085854 0.005939 -0.029845 0.060144 -0.103488 -0.012358 0.351992 -0.101075 -0.076665 -0.119890 -0.038848 0.002749 0.323710
-0.006356 0.017262 0.054864 0.022907 -0.062290 0.033356 -0.041639 0.054073 -0.021139 0.004043 -0.039375 0.011969 -0.043923 0.028131 -0.010956 0.001279 -0.003289 0.083905 -0.004534 -0.002251 -0.012100 0.028775 -0.036683 0.053265 -0.080920 -0.016637 -0.013431
-0.004991 -0.034458 0.057134 0.028183 -0.057568 0.036895 0.012739 -0.018089 0.028091 -0.045018 -0.110877 0.021068 -0.033613 0.042361 0.030201 0.004976 0.005171 0.026894 0.014745 0.026380 -0.114159 -0.016698 0.075177 0.077160 0.044177 0.008252 -0.104767
-0.001182 -0.018615 0.001859 0.009764 -0.094589 0.131094 0.042425 -0.034469 0.032763 -0.114971 -0.204517 0.048540 -0.033486 0.059852 0.089984 0.004623 -0.004462 0.035605 0.098751 0.045351 -0.079952 -0.043977 0.054955 0.023677 0.004951 0.050328 -0.107935
-0.003572 -0.019719 0.048484 0.040012 -0.112052 0.080843 0.027499 -0.059367 0.027668 -0.083566 -0.181643 -0.011369 -0.042884 0.042641 0.064710 0.014776 0.020532 0.058744 0.062320 0.045334 -0.128777 -0.067330 0.090923 0.105289 0.036698 0.027668 -0.080089
0.000802 -0.068963 -0.011935 0.048132 -0.192120 0.176252 0.039749 -0.032024 0.052128 -0.245130 -0.439607 0.108115 -0.028351 0.133836 0.166146 0.050912 -0.013956 0.118445 0.227404 0.072717 0.028385 0.028073 0.100191 0.030364 -0.042708 -0.003246 -0.304662
0.001247 0.065655 0.011248 0.038236 -0.116853 0.119390 -0.033101 0.101763 -0.005754 -0.127573 -0.225758 0.043261 -0.086909 0.041747 0.045319 0.040278 -0.036617 0.127625 -0.000455 0.076623 0.073292 0.025882 0.012422 0.080933 -0.045211 -0.031786 -0.193002
0.002873 -0.027918 -0.036028 0.057075 -0.183833 0.137994 0.043532 -0.021281 0.043223 -0.217515 -0.391837 0.076084 -0.009246 0.088405 0.125064 0.058592 -0.030367 0.128764 0.181449 0.059552 0.068564 0.002458 0.082521 0.085480 -0.070335 -0.006392 -0.247146
-0.001009 0.195913 -0.125290 -0.058010 -0.015716 0.063568 -0.025012 0.152406 -0.046297 -0.117161 -0.067175 -0.108850 -0.132913 0.006206 -0.038085 0.038437 -0.097307 0.113213 -0.098676 0.123137 0.282232 -0.067908 -0.093348 -0.025313 0.121058 -0.022475 0.048819
-0.005415 0.046400 0.068728 0.012035 -0.040228 -0.008436 -0.039367 0.011978 0.026448 -0.036101 -0.086053 0.049128 -0.042938 0.040989 0.008282 0.027945 -0.013605 0.097917 -0.026980 -0.047230 0.005779 0.041549 0.003756 0.116223 -0.077414 -0.046760 -0.083644
-0.007098 -0.014284 0.064855 0.021571 -0.011541 0.005281 0.035693 -0.037249 0.002093 -0.036640 -0.048547 0.059377 -0.029093 0.039358 0.040231 0.011595 0.024539 0.007329 0.032528 -0.116399 -0.060778 -0.007508 0.072956 0.062670 -0.085166 -0.009550 -0.016266
-0.001118 -0.001662 0.019884 0.022224 -0.004232 0.105568 0.083131 -0.043628 0.004881 -0.106428 -0.114282 0.109649 -0.031127 0.002574 0.096229 0.015904 -0.007106 -0.029241 0.119616 -0.105449 -0.050667 -0.043457 0.068864 0.049012 -0.079113 -0.026238 -0.050148
-0.003851 -0.000503 0.053147 0.036674 -0.079725 0.087148 0.033528 -0.025627 -0.040377 -0.059168 -0.053375 0.065120 -0.050901 0.042868 0.074580 0.026194 0.028278 0.004185 0.085719 -0.124578 -0.068055 -0.035782 0.110870 0.063945 -0.122651 -0.018506 -0.031034
-0.001578 -0.056238 -0.000147 0.055845 -0.021340 0.213207 0.140201 -0.172874 0.003424 -0.225694 -0.325386 0.208302 -0.027256 0.073847 0.220028 0.070639 -0.038148 -0.061331 0.291101 -0.227420 0.093160 0.001218 0.077516 0.040717 -0.170362 -0.140145 -0.019792
-0.000008 0.056010 -0.014055 0.073040 0.036063 0.072496 0.089474 -0.073395 0.026501 -0.189501 -0.311481 0.164827 -0.009414 0.087918 0.070313 0.032786 -0.024885 0.059537 0.043784 -0.104004 0.090034 0.052457 0.054176 0.060802 -0.181523 -0.072202 -0.089548
-0.001230 -0.039694 -0.030979 0.088721 -0.060520 0.180382 0.121498 -0.140430 -0.002340 -0.205015 -0.271996 0.148942 -0.003145 0.088979 0.146781 0.086181 -0.063530 0.013301 0.254897 -0.232407 0.103881 0.003571 0.090725 0.037898 -0.196617 -0.140311 0.020934
-0.003389 0.135463 -0.152747 -0.023645 0.131840 0.049683 0.095239 0.018728 -0.074808 -0.205310 -0.271361 0.028159 -0.080591 0.011647 -0.037684 -0.004342 -0.033635 0.105178 -0.107451 0.142599 0.266685 0.005356 -0.070678 -0.033682 0.030813 0.015936 0.063741
-0.006201 0.046166 0.042027 0.025752 0.063142 -0.059916 -0.015238 -0.040750 0.008703 -0.050941 -0.107688 0.081433 -0.026237 0.056788 -0.006042 0.001989 0.016562 0.066140 -0.018454 -0.135621 0.032597 0.064340 0.024141 0.067648 -0.118535 -0.058916 0.043765
-0.007327 -0.034148 0.053546 0.011749 -0.038848 0.022357 0.009776 -0.033479 -0.005498 -0.026790 0.040606 0.051118 -0.018454 0.048507 0.033799 -0.001619 0.011445 0.016121 0.028092 -0.094623 -0.054090 0.017121 0.075672 0.037619 -0.096107 -0.055320 0.007991
-0.002377 -0.023556 0.024297 0.045923 0.016440 0.063715 0.069165 -0.066109 0.007208 -0.082083 -0.021614 0.116803 0.012192 -0.027446 0.027892 0.008778 -0.009920 -0.047298 0.088571 -0.184632 -0.031219 0.010080 0.073636 0.057632 -0.119047 -0.069071 0.062254
-0.005239 -0.049388 0.046043 0.020666 -0.077935 0.068593 0.012876 -0.046438 -0.006733 -0.045722 0.044967 0.116821 -0.009113 0.038203 0.054547 0.006801 -0.009585 0.009862 0.036374 -0.118313 -0.023161 0.026647 0.115884 0.044139 -0.183764 -0.076217 0.008505
-0.003253 -0.030819 0.044061 0.106323 0.069642 0.126107 0.132626 -0.135336 -0.006193 -0.179671 -0.053126 0.207646 0.011682 -0.043904 0.155329 0.072864 -0.025018 -0.172072 0.229285 -0.444122 0.037306 0.007920 0.077975 0.129523 -0.194454 -0.242864 0.120195
-0.002323 0.034263 0.055368 0.063515 0.109375 0.057039 0.088274 -0.164872 0.042725 -0.185520 -0.135545 0.167496 -0.028368 0.067626 0.129459 0.025093 -0.026893 -0.032935 0.113404 -0.334951 0.076405 0.039742 0.044929 -0.023162 -0.161686 -0.135948 0.117576
-0.003299 0.021991 -0.016993 0.124189 0.072813 0.120613 0.112947 -0.139130 -0.025313 -0.172416 -0.024437 0.153327 0.008390 -0.021887 0.123785 0.067777 -0.095139 -0.093233 0.157504 -0.386624 0.101734 0.039085 0.076004 0.094568 -0.210372 -0.229991 0.145539
-0.005182 0.057366 -0.054809 0.005379 0.159836 0.075592 0.119770 -0.007515 -0.009014 -0.208805 -0.128648 0.053334 -0.106308 -0.022515 0.037072 -0.021540 -0.074321 0.053970 -0.007733 -0.024696 0.148787 -0.029077 -0.088442 -0.136198 -0.022784 0.028517 0.206648
-0.006841 0.049051 0.073969 -0.013192 0.063893 -0.053491 -0.028549 -0.052880 -0.005682 -0.054886 -0.015982 0.050280 -0.029828 0.061139 0.063099 -0.024738 -0.000633 0.018411 -0.007285 -0.153434 0.010883 0.073741 0.016186 0.019500 -0.046353 -0.088365 0.085519
-0.006976 0.031620 0.043686 -0.013540 -0.033964 0.044613 0.015135 -0.039912 -0.006644 -0.021293 0.045387 0.060914 -0.005413 0.017207 0.038088 -0.023656 0.013123 -0.028067 0.007768 0.027785 -0.050769 0.012375 0.020913 0.008613 -0.042675 -0.104591 -0.009904
-0.003416 0.028018 0.014009 0.042802 0.034962 0.054501 0.031819 -0.037737 0.025376 -0.060188 0.073276 0.046155 0.025151 -0.075675 -0.033308 -0.010299 -0.012789 -0.096272 0.028005 -0.037147 -0.085717 0.030556 0.044966 0.067575 -0.064774 -0.126738 0.104082
-0.005963 0.026970 0.034670 -0.019632 0.007377 0.070816 0.043540 -0.038648 0.028169 -0.033208 0.049954 0.127362 -0.005750 0.018652 -0.006249 -0.012890 0.032150 -0.063823 0.005633 0.052107 -0.088804 0.004490 0.043711 0.024426 -0.125671 -0.161831 -0.000928
-0.004280 0.143294 -0.001125 0.097540 0.009334 0.113102 0.132162 -0.098122 -0.004369 -0.120195 0.093432 0.088566 0.069669 -0.181895 0.011562 -0.043128 -0.041329 -0.210868 0.119898 -0.125301 -0.129152 0.111474 0.032050 0.112332 -0.058580 -0.269154 0.156310
-0.004109 0.144719 0.030591 0.051328 0.099203 0.028929 0.086031 -0.178816 0.041785 -0.149052 0.028316 0.112852 -0.013178 -0.038678 0.150441 -0.029481 -0.041703 -0.123992 0.053626 -0.297963 0.019976 0.099596 -0.056143 0.055364 -0.027655 -0.141550 0.097670
-0.006058 0.137498 -0.026227 0.080126 0.041330 0.113692 0.139207 -0.086714 -0.032328 -0.116928 0.072722 0.078275 0.064955 -0.128348 -0.006768 -0.029891 -0.073353 -0.212710 0.072858 -0.077298 -0.074539 0.117714 0.006911 0.083449 -0.051626 -0.255588 0.159767
-0.006376 0.152989 -0.047688 0.037345 0.160644 0.109043 0.089631 -0.021805 -0.032624 -0.161520 0.107440 0.073783 -0.101474 -0.085141 0.072021 -0.007938 -0.113597 -0.013038 -0.087274 -0.249584 0.056676 0.053926 -0.146945 0.025759 0.076456 0.002238 0.061550
-0.008381 0.081280 0.038774 -0.040733 0.050294 -0.022202 -0.035905 -0.077955 0.031803 -0.056362 0.006915 0.059189 -0.021927 0.030694 0.076109 -0.048380 -0.021627 -0.012473 -0.028251 -0.103206 0.025628 0.048197 -0.042566 0.062816 0.042798 -0.066064 0.038288
-0.007588 -0.009254 0.035362 -0.029967 -0.012582 0.007254 -0.026891 0.025142 0.051779 -0.009184 0.046983 0.073889 -0.007145 0.019337 0.042195 0.018297 0.012086 -0.035312 0.033344 0.017271 -0.023738 -0.071724 -0.003597 0.011514 -0.034450 -0.081126 -0.032213
-0.004538 0.010374 0.034713 -0.012760 0.027107 0.057638 -0.062546 -0.002401 0.032302 -0.003738 0.099411 -0.038582 0.033332 -0.085204 -0.060794 0.017597 -0.026685 -0.053238 -0.016551 0.030900 -0.068671 0.051457 0.006070 0.078676 -0.020560 -0.091750 0.074347
-0.006686 0.017521 0.032949 -0.048012 0.008271 0.043764 -0.003094 0.033110 0.028590 -0.006478 0.059038 0.085027 -0.028546 0.023082 -0.012311 0.031311 0.026410 -0.049785 0.007600 -0.007033 -0.036857 -0.065249 0.006991 0.055964 -0.082413 -0.102851 -0.010758
-0.005730 0.118096 0.016944 0.044322 0.023757 0.089128 -0.135757 -0.032492 0.047533 -0.016136 0.193850 -0.045745 0.072958 -0.247817 -0.056131 -0.002191 -0.083849 -0.083292 -0.016480 0.099557 -0.136019 0.056379 -0.050525 0.193556 0.024585 -0.227161 0.159843
-0.006324 0.016737 0.066045 0.056266 -0.001913 0.025388 0.005018 -0.095440 0.070209 -0.116984 0.066297 -0.001489 0.035304 -0.150011 0.070810 -0.045392 -0.036077 -0.168145 0.087715 -0.009659 -0.104873 0.085711 -0.041277 0.102596 0.075859 -0.153857 0.163184
