-0.001498 0.021240 -0.024926 -0.036429 0.012520 -0.038684 0.009522 0.017472 0.005864 0.037941
0.002574 -0.002316 -0.002105 -0.006117 0.002113 -0.010935 0.005933 0.004456 0.000539 0.007337
-0.001629 0.030630 -0.032263 -0.040913 0.014735 -0.038977 0.004876 0.018785 0.002915 0.039571
-0.002865 0.023467 -0.027771 -0.035068 0.007730 -0.034360 0.004547 0.019481 0.003482 0.041820
-0.001684 -0.005589 0.001868 0.001486 0.002214 -0.007022 0.005960 0.002774 -0.002022 0.003572
0.000273 -0.030131 0.016884 0.016916 -0.008225 -0.001343 0.008780 -0.005184 0.004273 -0.001422
0.003474 -0.005638 0.000323 -0.002098 -0.001317 -0.004595 0.004326 0.001430 0.000324 0.001972
-0.001796 -0.007176 -0.002708 -0.008978 0.000907 -0.015377 0.006695 0.005979 0.004802 0.019207
-0.001935 0.020827 -0.025952 -0.036671 0.012190 -0.038336 0.008937 0.018675 0.004146 0.038634
0.000732 -0.002228 -0.002257 -0.005539 0.003813 -0.012626 0.005427 0.004314 0.000779 0.006942
-0.001425 0.030386 -0.031075 -0.039737 0.014124 -0.038155 0.004923 0.019280 0.002482 0.039810
-0.002207 0.022808 -0.027011 -0.034678 0.008079 -0.034374 0.005540 0.018491 0.002648 0.041364
0.000224 -0.003565 0.000880 0.001386 -0.000216 -0.008140 0.004790 0.002198 -0.000313 0.003424
-0.000470 -0.031065 0.018011 0.014616 -0.009336 -0.002138 0.009076 -0.003825 0.003811 -0.002615
0.002347 -0.005132 0.000161 -0.001711 0.001023 -0.005069 0.005116 0.002178 0.001047 0.002133
-0.002366 -0.006373 -0.003739 -0.007510 -0.000222 -0.016601 0.006917 0.006616 0.005483 0.018552
-0.002060 0.021342 -0.027729 -0.036092 0.011737 -0.038995 0.010211 0.017362 0.004415 0.039240
0.001811 -0.003535 -0.002068 -0.006408 0.003339 -0.012596 0.007204 0.003000 0.000869 0.007034
-0.001786 0.031358 -0.031201 -0.039417 0.012745 -0.037871 0.007273 0.018882 0.003224 0.039657
-0.003789 0.021428 -0.027947 -0.034419 0.007669 -0.033628 0.006334 0.018773 0.002594 0.041468
-0.001054 -0.005416 0.002512 0.000548 0.001175 -0.005928 0.002887 0.002497 -0.000820 0.002981
0.001207 -0.028053 0.016063 0.015822 -0.006209 -0.001701 0.007039 -0.005214 0.003753 -0.000497
0.004212 -0.005546 0.000289 -0.002152 0.000473 -0.005637 0.004198 0.000511 -0.000960 0.002192
-0.002597 -0.006712 -0.003614 -0.008004 -0.001598 -0.016664 0.007066 0.006399 0.004747 0.019311
0.000163 0.021068 -0.024075 -0.036888 0.010009 -0.039421 0.007087 0.017467 0.004356 0.038270
0.002408 -0.003133 -0.005802 -0.005737 0.003549 -0.011552 0.007598 0.004344 -0.000331 0.005784
-0.000917 0.030298 -0.025289 -0.040635 0.010550 -0.038864 0.003969 0.020635 0.002306 0.038785
-0.000179 0.020898 -0.021675 -0.034930 0.004758 -0.034044 0.004415 0.016924 0.003525 0.040297
-0.002584 -0.004139 0.001492 0.000788 -0.001064 -0.007711 0.008673 0.001896 -0.002191 0.001984
-0.002341 -0.032008 0.013435 0.020887 -0.007490 -0.003108 0.016932 -0.006550 0.004370 -0.000879
0.005749 -0.006011 0.000557 -0.002786 0.000881 -0.004623 0.002943 0.001275 -0.001332 0.001882
-0.000536 -0.007101 -0.003508 -0.008922 -0.001095 -0.016662 0.007781 0.004178 0.005430 0.019295
-0.000177 0.021231 -0.023414 -0.033804 0.015084 -0.040708 -0.002140 0.021463 0.005208 0.038588
0.000805 -0.003688 -0.001932 -0.007244 -0.000205 -0.013224 0.009210 0.003978 -0.000069 0.007260
-0.006331 0.028438 -0.020362 -0.036740 0.010310 -0.041601 0.006697 0.019614 0.005189 0.038959
-0.008489 0.020010 -0.019465 -0.030605 0.003603 -0.038911 0.010660 0.017675 0.005533 0.038430
-0.006312 -0.006077 -0.001124 0.001300 -0.004666 -0.008877 0.018855 0.002193 -0.000885 0.002253
-0.009299 -0.034613 0.022615 0.024062 -0.023109 -0.007436 0.032340 -0.007616 0.004154 -0.000845
0.000707 -0.004119 -0.002096 -0.002371 0.001787 -0.003153 0.008513 0.002226 -0.000948 0.001206
-0.005365 -0.007067 -0.007068 -0.006526 -0.001704 -0.017107 0.015624 0.005935 0.005212 0.017645
-0.011774 0.018282 -0.039524 -0.035218 -0.008650 -0.044026 0.059986 0.013635 0.005952 0.036141
0.000443 -0.000773 -0.000264 -0.007482 -0.000248 -0.010801 0.009365 0.004055 0.000942 0.006632
-0.019886 0.022948 -0.039169 -0.025660 -0.016373 -0.042363 0.069645 0.014789 0.001468 0.035429
-0.024869 0.012193 -0.032541 -0.020850 -0.026242 -0.040133 0.081100 0.011794 0.002778 0.037471
-0.007772 -0.004948 0.007225 0.007994 -0.006816 -0.007654 0.014147 0.001483 -0.004782 0.000755
-0.017375 -0.035140 0.021103 0.045182 -0.033181 -0.005987 0.040251 -0.007737 -0.003485 -0.001941
0.001644 -0.007419 0.000063 -0.003736 -0.003615 -0.004343 0.014662 0.000252 0.000302 0.002296
-0.008813 -0.010628 -0.005021 -0.008496 -0.020157 -0.019491 0.043439 0.002564 0.004173 0.016805
-0.011794 0.012911 -0.033780 -0.027546 -0.013790 -0.039580 0.063767 0.012867 0.001174 0.036353
0.002856 0.000792 -0.000444 -0.007916 -0.002792 -0.010658 0.011154 0.003866 0.000617 0.007433
-0.021054 0.017519 -0.029476 -0.027564 -0.016704 -0.042855 0.083532 0.013152 -0.004323 0.030332
-0.028226 0.007099 -0.018659 -0.015257 -0.028568 -0.039972 0.092330 0.009439 -0.005877 0.029744
-0.006120 -0.003031 0.007146 0.006024 -0.006634 -0.009443 0.017050 0.001900 -0.004019 0.001650
-0.018949 -0.020619 0.021270 0.057364 -0.041905 -0.004483 0.026456 -0.006304 -0.005437 -0.006050
0.002884 -0.004217 0.001919 -0.000741 -0.002806 -0.004466 0.005178 0.001242 -0.001732 0.001845
-0.014832 -0.012591 -0.000959 0.001697 -0.020726 -0.018808 0.045706 0.003276 0.002045 0.013847
0.003173 0.026542 -0.033023 -0.042738 -0.012831 -0.048930 0.067923 0.012928 -0.002770 0.031155
0.004522 0.000505 -0.003673 -0.006599 -0.002057 -0.011927 0.004245 0.004873 0.000448 0.006116
-0.005944 0.026367 -0.038744 -0.040775 -0.016098 -0.054619 0.108370 0.012144 -0.013734 0.023738
-0.010069 0.017262 -0.026005 -0.028723 -0.030132 -0.057124 0.114707 0.009566 -0.015917 0.022524
-0.004041 -0.005900 0.003446 0.005943 -0.003493 -0.012249 0.018419 0.001948 -0.002976 0.001762
-0.027773 -0.021727 0.021532 0.057393 -0.033091 -0.007805 0.016701 -0.006381 0.006939 -0.007265
0.004796 -0.000593 0.000495 -0.000289 -0.009439 -0.004961 0.006596 0.000960 -0.001525 0.001239
-0.005366 -0.005025 -0.003771 -0.002053 -0.023401 -0.025204 0.048068 0.002912 -0.001485 0.013150
0.005278 0.015594 -0.028855 -0.033669 0.000287 -0.057628 0.075606 0.011631 -0.014629 0.027681
0.004345 -0.004021 -0.002546 -0.006690 -0.001383 -0.012772 0.007526 0.004244 0.001755 0.006952
-0.007834 0.011848 -0.037706 -0.036109 -0.001248 -0.065044 0.121908 0.011353 -0.025173 0.024017
-0.012746 -0.000235 -0.030566 -0.021265 -0.009710 -0.068163 0.139568 0.009756 -0.027619 0.021513
-0.000910 -0.011478 0.000213 -0.001611 -0.002389 -0.013066 0.029144 0.002396 -0.001622 0.001907
-0.023862 -0.045061 0.021766 0.040633 -0.026569 -0.012075 0.033694 -0.004756 0.015608 -0.004391
0.003886 -0.002906 0.002565 -0.000656 -0.002263 -0.004747 -0.000055 0.001906 0.000079 0.001783
-0.004520 -0.011256 -0.006944 -0.001283 -0.009262 -0.028666 0.058120 0.001050 -0.007597 0.009589
-0.014971 -0.000127 -0.035170 -0.031984 -0.002069 -0.058893 0.109426 0.014979 -0.007281 0.030943
0.000827 -0.004249 -0.003141 -0.006518 0.001465 -0.013195 0.008176 0.004409 0.003045 0.008379
-0.025398 0.006002 -0.035353 -0.039608 -0.001704 -0.059884 0.125238 0.014656 -0.011855 0.029821
-0.033044 -0.011782 -0.030156 -0.030739 -0.010242 -0.063136 0.153729 0.011014 -0.014683 0.026685
-0.004864 -0.007710 0.000884 -0.001405 -0.000015 -0.008697 0.018519 0.003119 -0.002482 0.001932
-0.019265 -0.044082 0.017574 0.012805 -0.014223 -0.009411 0.051151 -0.004709 0.012943 -0.003306
0.001051 -0.007372 -0.001451 -0.000528 -0.001980 -0.005165 0.008347 0.001995 0.003652 0.003291
-0.014856 -0.023745 -0.015393 -0.003702 -0.009685 -0.030979 0.079860 0.001473 -0.000886 0.013513
-0.017274 0.011541 -0.022203 -0.039973 0.004154 -0.051792 0.066665 0.017960 -0.002213 0.034508
0.002830 -0.003046 -0.002326 -0.005549 0.002307 -0.011844 0.007349 0.003176 0.000025 0.006171
-0.017365 0.023498 -0.027577 -0.042240 0.006180 -0.050098 0.057173 0.018596 -0.003395 0.036524
-0.023060 0.011850 -0.018952 -0.036340 -0.001047 -0.049364 0.073707 0.017381 -0.005473 0.035156
-0.002504 -0.004567 0.002289 0.000332 -0.000029 -0.006649 0.007311 0.003281 -0.001800 0.003204
-0.009241 -0.037265 0.014874 0.010386 -0.008325 -0.003052 0.033387 -0.004938 0.005390 -0.001813
0.001396 -0.007244 -0.000363 -0.002844 -0.000384 -0.005951 0.013302 0.000123 -0.001769 0.001899
-0.015002 -0.015045 -0.000248 -0.008856 -0.005996 -0.027962 0.054574 0.005682 0.001766 0.015638
-0.002874 0.020009 -0.024957 -0.038657 0.009695 -0.039025 0.016599 0.017468 0.003036 0.038375
0.000458 -0.002080 -0.004086 -0.005667 0.002335 -0.012067 0.007578 0.003459 0.001442 0.007316
-0.003340 0.030818 -0.030200 -0.040403 0.011042 -0.038299 0.012701 0.019781 0.001050 0.038551
-0.004950 0.021037 -0.025432 -0.035659 0.006480 -0.033360 0.012912 0.019348 0.001237 0.040778
-0.000984 -0.003682 0.001352 0.000042 -0.000260 -0.005640 0.004410 0.002330 -0.000807 0.003368
-0.001244 -0.029497 0.015785 0.015287 -0.008852 -0.000698 0.013194 -0.004823 0.003509 -0.000234
0.001479 -0.006223 0.000297 -0.002927 0.001294 -0.004697 0.009061 0.002559 0.000895 0.003443
-0.004612 -0.009262 -0.001953 -0.008067 -0.002359 -0.016610 0.014503 0.005807 0.003282 0.018523
-0.001790 0.020743 -0.026372 -0.036601 0.011512 -0.037757 0.007093 0.018395 0.003939 0.038899
0.000986 -0.002527 -0.003296 -0.006816 0.002757 -0.010658 0.006530 0.002637 0.001838 0.007174
-0.003305 0.031564 -0.031750 -0.042139 0.013620 -0.037911 0.006426 0.020846 0.002569 0.038584
-0.002066 0.022895 -0.028235 -0.035546 0.008915 -0.032967 0.003723 0.018427 0.003694 0.041826
-0.001204 -0.003683 0.001808 0.001265 0.002132 -0.005973 0.004777 0.002586 -0.001857 0.003493
0.000028 -0.030830 0.017383 0.015894 -0.008517 -0.001190 0.008324 -0.003375 0.003457 -0.000804
0.003516 -0.005207 0.001226 -0.002112 0.001827 -0.003766 0.004401 0.001340 -0.000717 0.002437
-0.002375 -0.006802 -0.002708 -0.007840 -0.000102 -0.013364 0.006626 0.005818 0.005576 0.019584
-0.000914 0.021655 -0.025839 -0.036191 0.013041 -0.038331 0.008566 0.018278 0.003324 0.038460
0.001150 -0.001850 -0.002496 -0.006467 0.003073 -0.011774 0.005850 0.003113 -0.000236 0.006624
-0.002519 0.030747 -0.033679 -0.040805 0.014287 -0.038325 0.005578 0.019999 0.001969 0.039862
-0.003126 0.022111 -0.027342 -0.035433 0.008988 -0.036194 0.005079 0.018023 0.004363 0.041151
-0.000430 -0.003995 0.001732 -0.000193 0.000803 -0.007519 0.003691 0.002229 -0.002554 0.003150
-0.000817 -0.029096 0.016995 0.016454 -0.008587 -0.001761 0.009275 -0.006129 0.003815 -0.000295
0.003385 -0.004513 0.000578 -0.003879 0.001067 -0.004159 0.004982 0.001385 0.000654 0.002302
-0.001652 -0.007875 -0.004460 -0.007412 0.000824 -0.016314 0.007250 0.006912 0.005923 0.019077
-0.001727 0.021235 -0.027506 -0.037180 0.011239 -0.039044 0.010399 0.017715 0.005364 0.039656
0.003007 -0.002819 -0.004070 -0.005178 0.003178 -0.011155 0.007563 0.004487 -0.000872 0.007851
-0.003429 0.030760 -0.021220 -0.044658 0.013585 -0.036801 0.006917 0.017418 0.001179 0.038432
-0.003436 0.021890 -0.017471 -0.036544 0.008792 -0.034675 0.004928 0.016666 0.003277 0.040953
-0.002303 -0.004856 0.005564 -0.000448 0.002302 -0.008052 0.003848 0.001967 -0.002706 0.002154
-0.001790 -0.029767 0.022627 0.015106 -0.004218 -0.004345 0.011652 -0.007765 -0.000017 -0.002249
0.002580 -0.005538 -0.001160 -0.003411 0.000295 -0.005002 0.005306 0.002027 -0.001460 0.001812
-0.001587 -0.007367 -0.002476 -0.006514 0.000885 -0.015497 0.006003 0.005679 0.003590 0.019311
0.001366 0.019280 -0.009162 -0.036785 0.004671 -0.039333 0.010806 0.014650 -0.000092 0.037746
0.002916 -0.002622 -0.000987 -0.006027 0.003008 -0.012279 0.007047 0.002730 0.000891 0.006928
-0.002460 0.031571 -0.001638 -0.032659 0.002845 -0.040692 0.007602 0.005464 -0.007558 0.036236
-0.004228 0.021798 0.006009 -0.028153 -0.000511 -0.037056 0.005488 0.003173 -0.005941 0.036228
-0.002693 -0.001905 0.005247 0.008054 -0.000227 -0.008508 0.003298 -0.001459 -0.002299 0.001183
-0.007230 -0.026006 0.021752 0.025596 0.000908 -0.010541 0.009186 -0.015446 0.004914 -0.006079
0.003818 -0.005697 -0.000707 -0.000998 0.000581 -0.004468 0.003632 0.000889 -0.000957 0.002741
-0.002873 -0.007546 0.004983 -0.007283 -0.001053 -0.016571 0.006039 0.004010 0.001966 0.017344
-0.004265 0.017315 0.013636 -0.023771 0.019318 -0.054891 0.004297 0.001062 -0.008214 0.037176
-0.001913 -0.004791 0.003775 -0.004467 0.001818 -0.020370 0.012809 0.001946 0.000286 0.006616
-0.004926 0.022576 0.037663 -0.014927 0.018503 -0.056296 0.002592 -0.007936 -0.027128 0.032216
-0.009652 0.016797 0.045216 -0.002182 0.015027 -0.057059 0.002673 -0.016213 -0.026201 0.031089
-0.002139 -0.004571 0.010250 0.001218 0.008319 -0.007270 0.003190 -0.001443 -0.006118 0.001603
-0.011111 -0.026100 0.023513 0.011976 0.001023 0.008717 0.019073 -0.013349 -0.007874 -0.008502
0.000105 -0.006904 0.000998 -0.001506 0.000203 -0.007927 0.009065 -0.001308 0.000840 0.002253
-0.009427 -0.003104 0.018438 0.004037 0.010681 -0.030469 0.006040 -0.008163 -0.005589 0.016899
-0.030349 -0.012729 0.074088 -0.010965 -0.011044 -0.102122 0.057551 0.000501 -0.000689 0.033679
-0.017866 -0.013182 0.016766 0.006937 -0.014897 -0.031001 0.035137 0.001894 0.009607 0.005677
-0.031589 -0.010960 0.095952 -0.004956 -0.002684 -0.097480 0.064860 -0.022545 -0.016508 0.024587
-0.036888 -0.019482 0.103551 0.007057 -0.003151 -0.097349 0.074601 -0.030350 -0.022510 0.023026
-0.010535 -0.010201 0.018514 0.008287 0.008771 -0.013740 0.012432 -0.012234 -0.005863 0.003311
-0.023738 -0.028945 0.040041 0.006978 0.005293 0.022923 0.023744 -0.020055 -0.023550 -0.004614
-0.003305 -0.008060 0.004159 0.004845 -0.001984 -0.014024 0.002224 0.001264 0.010828 0.001953
-0.022531 -0.022559 0.039210 0.013506 -0.003758 -0.045292 0.038601 -0.011991 -0.001375 0.015778
-0.045394 -0.050226 0.052135 0.041573 -0.073090 -0.081800 0.151564 -0.039498 0.030501 0.013770
-0.022035 -0.013367 0.007483 0.046469 -0.032742 -0.023383 0.030633 -0.002049 0.005906 0.002025
-0.027854 -0.027397 0.071121 0.008024 -0.067201 -0.071723 0.144155 -0.066746 0.030860 0.006633
-0.037949 -0.039903 0.073717 0.027996 -0.061517 -0.076193 0.156510 -0.081708 0.029063 0.009953
-0.000710 0.000271 0.030295 0.023737 -0.012871 -0.023716 0.014008 -0.016796 -0.001545 -0.008599
-0.009893 -0.007919 0.050974 0.017889 -0.008695 -0.005483 0.018536 -0.037230 -0.022024 0.002549
-0.006790 -0.008773 -0.009283 0.018957 -0.009052 -0.007438 0.014311 0.000291 0.008556 0.001094
-0.036746 -0.036451 0.040492 0.050865 -0.035204 -0.047027 0.090935 -0.033505 0.001504 0.006241
-0.009859 -0.005768 0.059859 0.012013 -0.110877 -0.036432 0.096585 -0.054647 0.038905 0.007239
-0.016387 -0.003834 0.009606 0.040714 -0.043210 -0.019511 0.018909 -0.000077 0.009595 0.005504
0.016010 -0.007656 0.091509 -0.020959 -0.102785 -0.005917 0.073257 -0.077775 0.071222 -0.039420
0.023248 -0.009617 0.097476 -0.008623 -0.108761 -0.009358 0.085266 -0.097448 0.072587 -0.047448
-0.003279 0.004673 0.030779 0.042108 -0.000643 -0.028090 0.003720 -0.015739 -0.004717 -0.029490
0.003195 0.024366 0.058673 0.057770 -0.000365 -0.050001 -0.006498 -0.036804 -0.009679 -0.039967
-0.015929 0.000464 -0.017645 0.030799 -0.012311 -0.011616 0.009117 0.002724 0.010609 0.005757
-0.014786 -0.005773 0.062340 0.063771 -0.069788 -0.033195 0.050634 -0.047739 0.000120 -0.005979
-0.025083 0.067071 -0.001038 -0.007861 -0.066105 -0.069776 0.123703 -0.040003 0.059882 -0.043587
-0.033133 0.009378 -0.016635 0.039377 -0.029948 -0.015522 0.032435 0.005689 0.005980 0.004172
0.011325 0.059667 0.020453 -0.047551 -0.052146 -0.068312 0.138200 -0.075072 0.090018 -0.077147
0.017688 0.065718 0.030779 -0.024674 -0.043008 -0.073520 0.133045 -0.092848 0.092264 -0.106750
-0.006664 0.011119 0.026526 0.037862 -0.013166 -0.020614 0.012172 -0.015847 0.000892 -0.028822
0.012449 0.005595 0.052669 0.069958 0.008602 -0.059856 0.014018 -0.041723 0.002990 -0.064604
-0.017579 0.010096 -0.017838 0.030650 -0.005223 -0.014336 0.008194 0.005073 0.003395 -0.001691
-0.023995 0.049313 0.025446 0.046178 -0.033687 -0.048616 0.055450 -0.045118 0.029846 -0.055310
-0.058680 -0.007464 -0.038934 -0.003186 0.005009 -0.013442 0.203292 -0.044619 0.018948 -0.062468
-0.043745 -0.027044 -0.013469 0.011448 -0.011464 0.005985 0.055961 0.004925 0.014915 0.004559
-0.028522 0.037413 -0.043492 -0.035896 0.004211 -0.032286 0.230682 -0.069969 0.019347 -0.081111
-0.024602 0.032569 -0.031661 -0.016866 0.002471 -0.028962 0.251266 -0.091347 0.025877 -0.116470
-0.017590 0.001291 0.009440 0.029833 -0.008406 -0.014090 0.025530 -0.012730 0.012736 -0.023128
0.008156 -0.007199 0.056380 0.050158 -0.010234 -0.052279 0.042285 -0.048780 0.004680 -0.046051
-0.024201 -0.008680 -0.021012 0.021023 0.009635 0.000669 0.001336 0.005836 0.018522 -0.005543
-0.048345 -0.002800 0.005439 0.054029 -0.010656 -0.021076 0.113171 -0.042357 0.026371 -0.074659
-0.100864 -0.008630 -0.031276 -0.043294 -0.016797 0.033804 0.253070 -0.041402 0.011035 -0.057798
-0.041648 -0.024291 -0.012733 -0.016786 0.005016 0.003599 0.062350 0.005986 0.012470 0.005206
-0.078034 0.009572 -0.014792 -0.065210 -0.002547 0.038928 0.220915 -0.045987 0.015382 -0.075414
-0.085156 0.005407 -0.014360 -0.052344 -0.008188 0.036427 0.255537 -0.067340 0.031501 -0.104759
-0.018763 -0.014944 -0.003065 -0.009768 0.008380 -0.005282 0.045338 -0.002164 0.015618 -0.010777
-0.005293 -0.014890 0.035493 0.027646 -0.023950 -0.062161 0.063647 -0.025180 0.022546 -0.018480
-0.024086 -0.008768 -0.011363 0.004197 0.001453 -0.001312 0.034475 0.000066 0.010959 -0.004599
-0.073000 -0.020926 -0.008497 -0.011912 -0.010699 0.018640 0.175267 -0.043595 0.035085 -0.059535
-0.057648 -0.027760 -0.007144 -0.096443 0.040153 -0.017559 0.154330 -0.007772 0.032885 -0.014812
-0.017211 -0.009834 -0.006631 -0.017420 0.004724 0.004859 0.027404 0.005658 0.003176 0.007219
-0.056606 -0.021438 -0.011142 -0.108198 0.066258 -0.005264 0.128999 -0.009453 0.034231 -0.020538
-0.059431 -0.025402 -0.007961 -0.117400 0.067163 -0.008111 0.156059 -0.016783 0.051868 -0.035557
-0.012596 -0.009489 -0.003614 -0.011927 0.015854 -0.012095 0.035931 -0.000614 0.001517 -0.002952
-0.007122 -0.030721 0.010697 -0.018470 0.007798 -0.029362 0.068807 -0.013759 0.021406 -0.011240
-0.017626 -0.006487 -0.002657 -0.008761 -0.001245 -0.001076 0.036811 0.001508 0.000416 0.001197
-0.046776 -0.026619 -0.001875 -0.058124 0.022704 -0.016234 0.132672 -0.014147 0.027059 -0.021498
-0.011111 0.010504 -0.050117 -0.069849 0.050286 -0.018090 0.047310 0.008856 0.018216 0.017936
-0.004431 -0.005441 -0.007098 -0.008361 0.002309 -0.003429 0.009963 0.003833 0.003561 0.007587
-0.005084 0.020780 -0.052432 -0.075902 0.050707 -0.020416 0.039344 0.011657 0.016157 0.017847
-0.006088 0.011740 -0.053294 -0.078468 0.060847 -0.021692 0.046750 0.006180 0.021550 0.011988
0.001089 -0.006370 -0.000790 -0.003190 0.003340 -0.006022 0.012163 0.002234 -0.001468 0.002981
-0.009096 -0.026063 -0.001569 -0.000405 0.013795 -0.001229 0.035436 -0.009623 0.004206 -0.007079
-0.006900 -0.005127 -0.008112 -0.010779 0.006606 0.004374 0.019234 0.001925 0.000125 -0.000468
-0.009375 -0.013370 -0.021717 -0.038344 0.032283 -0.009075 0.040120 -0.001099 0.013832 0.004128
0.007187 0.015782 -0.031145 -0.043089 0.022445 -0.031905 0.008285 0.014000 0.003610 0.032664
0.000713 -0.002192 -0.003162 -0.008061 0.002003 -0.008717 0.005642 0.004307 -0.001000 0.005656
0.005487 0.025313 -0.034590 -0.046377 0.021454 -0.029827 0.003535 0.017984 0.004187 0.034599
0.005661 0.013621 -0.030694 -0.041450 0.021482 -0.025594 0.002297 0.015073 0.004272 0.035217
-0.001693 -0.004784 -0.001067 -0.000275 0.001042 -0.004519 0.003389 0.002968 -0.002453 0.004115
-0.001187 -0.030125 0.013605 0.014156 -0.005231 0.003521 0.010221 -0.003424 0.003232 -0.002529
0.002793 -0.004582 -0.002619 -0.003562 0.003527 -0.004199 0.006284 0.001170 0.000379 0.001506
0.004004 -0.011352 -0.008383 -0.013680 0.010088 -0.012267 0.007470 0.003937 0.006150 0.013975
-0.001927 0.021341 -0.025781 -0.033496 0.013507 -0.038717 0.009307 0.018475 0.003800 0.039466
0.001031 -0.002838 -0.001103 -0.004663 0.004209 -0.012615 0.007897 0.003964 -0.000246 0.006749
-0.002602 0.030005 -0.034327 -0.030993 0.014244 -0.040405 0.002852 0.021846 0.001471 0.038888
-0.001894 0.023726 -0.029295 -0.026688 0.008497 -0.036916 0.002821 0.019729 0.005582 0.038919
-0.000508 -0.005035 0.001376 0.007536 0.002278 -0.009242 0.000974 0.001553 -0.001494 0.002982
0.001128 -0.029427 0.017123 0.026277 -0.008191 -0.005380 0.005264 -0.005125 0.000918 -0.002390
0.002522 -0.006002 -0.000105 -0.000381 0.000089 -0.005202 0.004553 0.001854 -0.001923 0.001672
-0.003205 -0.007790 -0.005530 -0.003523 -0.000129 -0.017534 0.004954 0.005633 0.005131 0.017973
-0.005648 0.019878 -0.000707 -0.008382 0.012839 -0.060190 0.009100 0.007703 -0.007610 0.033873
-0.002347 -0.004868 0.013956 -0.003911 0.007567 -0.019208 0.009284 -0.003190 -0.004919 0.005010
-0.006766 0.025889 0.008217 0.001675 0.013357 -0.063347 0.001906 0.003543 -0.011430 0.026929
-0.006370 0.017892 0.009129 0.013070 0.009052 -0.059876 0.000663 0.003156 -0.009099 0.029121
-0.001010 -0.006541 0.012194 0.013213 0.007182 -0.011996 0.001262 -0.002372 -0.006842 -0.003843
-0.002932 -0.033542 0.029197 0.042999 0.005463 -0.013472 0.002133 -0.007462 -0.007684 -0.014846
0.001467 -0.005561 0.004195 -0.001692 0.001535 -0.005844 0.007046 0.000137 -0.003761 0.001920
-0.005440 -0.007872 0.008835 0.010183 0.002613 -0.025946 0.003142 -0.000230 -0.002635 0.015873
-0.021629 0.021408 0.099332 0.034282 0.013330 -0.099017 0.012190 -0.034012 -0.029221 0.004684
-0.008749 0.001787 0.022642 0.026816 0.005286 -0.033076 0.006925 -0.012296 -0.006777 -0.005528
-0.026328 0.024314 0.093820 0.047590 0.006886 -0.088991 0.001170 -0.030678 -0.029852 -0.000139
-0.026134 0.013141 0.101718 0.065369 0.005699 -0.089090 0.003727 -0.038913 -0.030999 -0.004827
-0.004318 -0.007084 0.013456 0.018551 0.004385 -0.014651 0.001316 0.004796 -0.007448 -0.008344
-0.011063 -0.034094 0.027492 0.037245 0.004666 -0.018694 0.009695 0.016902 -0.010441 -0.022899
-0.000722 -0.001696 0.009234 0.002127 0.003044 -0.011178 0.003934 -0.001986 -0.002382 -0.002593
-0.013003 -0.008394 0.058077 0.037511 0.013658 -0.048288 0.002893 -0.023328 -0.013265 -0.005222
-0.036342 -0.002614 0.118956 0.169048 -0.010625 -0.164982 -0.006608 -0.065249 -0.009515 0.007352
-0.009633 -0.009880 0.040949 0.013197 0.013423 -0.034590 0.004641 -0.008839 -0.015498 0.000302
-0.039781 -0.011535 0.118246 0.183212 -0.021911 -0.137030 -0.016927 -0.062661 -0.005465 -0.005793
-0.039036 -0.023539 0.120335 0.193928 -0.025487 -0.138878 -0.019256 -0.059318 0.001747 -0.011062
-0.004877 -0.012599 0.008359 0.022966 0.015566 0.002835 -0.004832 -0.005147 -0.015446 -0.008262
-0.011742 -0.036131 -0.008035 -0.010697 0.029428 0.052202 0.003794 0.025316 -0.021643 -0.021153
-0.001970 -0.007057 0.016541 0.009306 0.007492 -0.020844 0.010046 -0.001015 -0.008841 -0.002076
-0.021249 -0.018862 0.064328 0.104774 -0.000646 -0.072401 0.005001 -0.033842 -0.012025 -0.013807
-0.081498 -0.102842 0.110510 0.120366 0.009758 -0.048532 0.033818 -0.035479 0.020059 -0.027685
-0.023475 -0.030665 0.048055 0.013924 0.018696 -0.037512 0.018243 -0.024552 0.003423 0.011039
-0.089592 -0.119096 0.109262 0.189753 0.000279 -0.045468 0.027786 -0.017872 0.016319 -0.068543
-0.091516 -0.130776 0.090095 0.182776 0.012751 -0.011242 0.037824 -0.020235 -0.004638 -0.066653
-0.008098 -0.016490 0.028618 0.014506 0.018810 0.002348 -0.004192 -0.005937 -0.009791 -0.018770
-0.011731 -0.023531 0.004890 -0.012287 0.040121 0.033778 0.012607 -0.005898 -0.022279 -0.015217
-0.011682 -0.014765 0.014039 0.006412 0.013598 -0.016078 -0.001178 -0.002015 0.003307 0.008425
-0.037279 -0.057151 0.051229 0.048740 0.024871 0.022051 0.009932 -0.029202 -0.027525 -0.009560
-0.066170 -0.150036 0.138515 0.095338 0.041563 -0.085561 -0.028076 -0.061907 0.031126 0.082870
0.013618 -0.012415 0.051136 0.012353 -0.004564 -0.041678 -0.005468 -0.028575 0.009986 0.004283
-0.057527 -0.144294 0.132406 0.119634 0.009692 -0.091816 -0.070036 -0.051526 0.063445 0.090358
-0.066440 -0.161682 0.120051 0.108952 0.038728 -0.066886 -0.051888 -0.048857 0.042730 0.082373
-0.005840 -0.015870 0.027953 0.022427 0.016142 -0.012586 -0.013700 -0.022460 -0.004627 0.007461
0.002932 0.002835 0.012186 0.009976 0.032769 -0.005843 -0.007426 -0.024204 0.004400 -0.027772
0.004943 -0.006773 0.013544 -0.016946 0.017487 -0.031685 0.008751 -0.023458 0.004092 0.029238
-0.039230 -0.082352 0.064539 0.033880 0.056978 -0.011092 0.014287 -0.063313 -0.012598 0.038562
-0.007248 -0.111089 0.107233 0.050262 -0.078196 0.004366 -0.003423 -0.053088 0.108456 -0.015496
0.000490 -0.000562 0.045436 0.008527 0.026362 -0.032034 -0.006256 -0.028507 0.031476 -0.041613
0.034639 -0.117682 0.067394 0.071167 -0.147049 -0.032175 -0.019252 -0.013759 0.101041 0.050688
0.022196 -0.109515 0.066129 0.068009 -0.113800 -0.029747 -0.018390 -0.017710 0.105032 0.030393
0.011547 -0.015219 0.050269 0.038119 -0.029752 -0.055902 -0.025785 -0.045370 0.024328 0.048691
0.015737 0.013403 0.008943 0.051949 0.029059 -0.108183 -0.014377 -0.065465 0.033016 0.039564
-0.014945 -0.011129 0.022891 -0.013474 0.039306 -0.030783 0.004982 -0.020106 0.030817 -0.007760
-0.004497 -0.047083 0.080922 0.040261 -0.015767 -0.011473 -0.022480 -0.069134 0.061801 -0.009994
0.013025 0.049970 0.121547 0.014574 -0.021095 -0.041548 0.039498 -0.109889 0.089066 -0.159093
-0.003573 -0.002188 0.068472 0.015817 0.012865 -0.009919 0.014982 -0.046958 0.034716 -0.081217
0.010930 0.014805 0.103501 0.008133 -0.039303 -0.040156 0.035285 -0.068471 0.062830 -0.087356
0.023291 0.020845 0.103270 0.010746 -0.016132 -0.073464 0.033713 -0.098294 0.068028 -0.074870
0.038063 -0.012139 0.037219 0.024954 -0.008489 -0.064523 -0.022617 -0.046022 0.045062 0.006059
0.059214 -0.030500 0.010283 0.000305 0.008240 -0.088454 -0.026481 -0.070963 0.060342 0.081309
-0.027405 0.011882 0.032210 -0.002058 0.052938 -0.021132 -0.006476 -0.024595 0.036750 -0.048334
0.037427 0.029532 0.076164 0.034964 0.015711 -0.091495 -0.006299 -0.125116 0.078297 -0.048999
-0.034929 -0.035598 0.088395 0.034285 0.019636 0.060291 0.156582 -0.173459 0.052481 -0.170402
-0.035306 -0.000129 0.033098 0.026348 0.009963 0.003035 0.067905 -0.043187 0.004573 -0.068304
-0.033878 -0.021711 0.053074 0.035459 0.006380 0.098360 0.103121 -0.145776 0.048613 -0.141917
-0.006662 -0.038674 0.064665 0.040553 0.008820 0.056075 0.111242 -0.175645 0.045623 -0.104133
0.021456 0.006985 0.054001 0.020856 -0.000234 -0.031122 -0.021578 -0.050227 0.029597 -0.027229
0.056114 0.004356 0.025801 0.001404 0.028915 -0.055874 -0.041784 -0.050154 0.020486 0.007798
-0.023679 -0.021541 0.017756 -0.001107 0.023408 -0.010391 0.021474 -0.023290 0.039769 -0.024399
0.038682 -0.039655 0.088278 0.054519 -0.005905 -0.044216 0.055587 -0.156015 0.063285 -0.051065
-0.045967 0.000745 -0.024306 -0.084365 0.071703 0.037872 0.310328 -0.191542 0.090814 -0.160328
-0.021950 -0.019205 0.022626 -0.045094 0.004946 -0.009907 0.104475 -0.025310 0.030389 -0.041890
-0.074057 -0.002065 -0.053489 -0.076726 0.085606 0.108851 0.264988 -0.182510 0.058089 -0.128922
-0.052913 0.022388 -0.052137 -0.054169 0.085891 0.084234 0.251095 -0.209480 0.057743 -0.129827
-0.000769 -0.007818 0.033823 0.027700 0.001223 -0.029252 0.033485 -0.043157 0.012899 -0.029504
0.017826 0.007214 0.044786 -0.005620 0.021192 -0.039560 0.008109 -0.065621 0.005359 0.005576
-0.009878 -0.010276 0.013386 -0.029570 0.019894 0.002627 0.044120 -0.013912 0.025113 -0.036840
-0.000765 0.011396 0.025207 0.020595 0.034525 -0.034638 0.136156 -0.153349 0.059563 -0.100089
-0.085407 0.034444 -0.087967 -0.199925 0.125264 0.106272 0.214419 -0.081511 0.072337 -0.093606
-0.017310 -0.010223 -0.026261 -0.073951 0.047313 0.009529 0.071347 -0.008711 0.022562 -0.016563
-0.088144 0.027261 -0.090300 -0.197817 0.128408 0.175215 0.180068 -0.088075 0.061568 -0.108100
-0.080748 0.037542 -0.078930 -0.180175 0.145844 0.156353 0.171483 -0.104477 0.057705 -0.121896
0.003433 -0.014325 0.008703 -0.031429 0.022386 -0.027135 0.047101 -0.016397 0.031509 -0.022357
0.018172 -0.024516 0.030778 0.017065 0.042488 -0.061482 0.036062 -0.042682 0.003644 -0.019587
-0.015375 0.000053 -0.003135 -0.019911 0.009237 0.007361 0.041964 -0.008355 -0.002011 -0.008246
-0.033063 0.014672 -0.020618 -0.068387 0.079032 -0.000925 0.122755 -0.068570 0.043328 -0.071298
-0.027370 0.010581 -0.073866 -0.152286 0.180680 0.048175 0.084913 -0.041470 0.030780 -0.060356
-0.006264 -0.009727 -0.019751 -0.036175 0.029466 0.009211 0.034501 -0.001145 0.004487 -0.004818
-0.024585 0.011647 -0.095604 -0.148702 0.177862 0.076531 0.061772 -0.035420 0.038283 -0.060180
-0.023467 0.000489 -0.086041 -0.137050 0.196446 0.062858 0.061717 -0.051271 0.052048 -0.074270
-0.007544 -0.005687 -0.013256 -0.025124 0.026996 0.010525 0.023149 -0.004682 0.003749 -0.009587
-0.000586 -0.037412 0.004870 -0.014436 0.054216 -0.007854 0.023779 -0.019391 0.023889 -0.028233
-0.004186 -0.005946 -0.000415 -0.019300 0.038479 -0.015031 0.021862 -0.005717 0.004217 -0.012880
-0.022201 -0.012877 -0.020505 -0.075220 0.125873 0.005334 0.054525 -0.036861 0.036847 -0.052199
-0.007870 0.005640 -0.055083 -0.067982 0.069724 0.029599 0.000425 0.001035 0.017595 0.010580
-0.004206 -0.002115 -0.005589 -0.010089 0.009809 -0.002543 0.007623 0.002245 0.001563 0.003150
-0.011788 0.015987 -0.059658 -0.070707 0.064138 0.035978 -0.005494 0.006337 0.016545 0.013000
-0.015440 0.000792 -0.056038 -0.066704 0.064323 0.058396 -0.012035 0.000504 0.020008 0.008133
-0.003008 -0.005466 -0.002283 -0.002688 0.008749 0.001533 0.004343 0.001297 -0.000371 0.000011
-0.009704 -0.034758 0.008291 0.006657 0.017575 0.013590 0.014764 -0.010476 0.008214 -0.012804
-0.000037 -0.008131 -0.006155 -0.010732 0.018700 0.001896 0.010404 -0.002755 0.000745 -0.003759
-0.005951 -0.022989 -0.023490 -0.033331 0.044056 0.033483 0.003906 -0.006294 0.012246 -0.003229
-0.002960 0.019546 -0.022568 0.004943 0.011900 -0.051848 -0.003748 0.019441 -0.004767 0.032994
0.001559 -0.004419 -0.000526 0.017789 0.001897 -0.020160 -0.002455 0.002315 -0.002154 0.004792
-0.002727 0.028192 -0.031401 -0.001470 0.014463 -0.049885 -0.007611 0.024648 -0.005555 0.033153
-0.002618 0.020701 -0.026760 -0.003774 0.006655 -0.042745 -0.007717 0.024031 -0.002091 0.035830
-0.001783 -0.003990 0.000626 0.015298 -0.000609 -0.011567 0.000648 0.004585 -0.002837 0.001978
0.000336 -0.029629 0.014902 0.044676 -0.011119 -0.012023 0.002929 -0.000934 -0.001928 -0.004780
0.003498 -0.006424 0.001722 0.009323 -0.000533 -0.007516 -0.000055 -0.000251 -0.004046 -0.000233
-0.002682 -0.008363 -0.003314 0.004192 -0.000521 -0.020828 0.000969 0.008069 0.002762 0.016389
-0.006607 0.002705 0.061512 0.075487 0.031228 -0.088967 -0.048527 0.002985 -0.025081 -0.007573
-0.003049 -0.014259 0.040241 0.043068 0.017779 -0.034609 -0.010499 -0.008126 -0.014146 -0.018793
-0.007492 0.013062 0.044828 0.069816 0.034886 -0.089252 -0.056874 0.018311 -0.014218 -0.014804
-0.003906 0.006827 0.046105 0.079394 0.027494 -0.089017 -0.059715 0.017648 -0.013212 -0.011928
-0.002216 -0.011847 0.015837 0.020853 0.004072 -0.014607 -0.006529 0.014089 -0.006904 -0.012887
-0.005038 -0.042039 0.034288 0.051164 -0.003371 -0.012139 -0.001411 0.017120 -0.007037 -0.028941
0.002006 -0.008389 0.015162 0.022148 0.005559 -0.013538 -0.001635 -0.004765 -0.005679 -0.005321
-0.003748 -0.013441 0.027788 0.056323 0.008635 -0.043416 -0.021266 0.002463 -0.006358 -0.003460
-0.040193 -0.022899 0.154795 0.225776 0.042621 -0.186186 -0.066529 0.057305 -0.065869 -0.099781
-0.010639 -0.024869 0.046889 0.061821 0.005687 -0.049622 -0.009257 0.029714 -0.019509 -0.033490
-0.036498 -0.015445 0.148047 0.219123 0.028206 -0.170252 -0.071045 0.054538 -0.062035 -0.097528
-0.038377 -0.025661 0.141436 0.234562 0.028025 -0.180423 -0.062235 0.058238 -0.057939 -0.098517
-0.007755 -0.016812 0.016695 0.028092 0.009640 -0.015730 -0.012571 0.019476 -0.003508 -0.016989
-0.012811 -0.050481 0.002825 0.012527 -0.001362 0.004342 0.000506 0.043097 0.012999 -0.010915
-0.004480 -0.015889 0.031596 0.030783 0.003815 -0.018011 -0.000614 0.011024 -0.015979 -0.018775
-0.020067 -0.037730 0.071264 0.116037 0.030748 -0.086318 -0.026864 0.038594 -0.025257 -0.060846
-0.052502 -0.096766 0.104131 0.203870 -0.033337 -0.113922 -0.019931 0.125765 -0.075714 -0.044418
-0.008692 -0.040137 0.029466 0.033676 0.020243 0.005706 -0.007604 0.031685 -0.040190 -0.029161
-0.054376 -0.091560 0.113289 0.181857 -0.053798 -0.120720 -0.022726 0.128411 -0.038006 -0.045701
-0.061903 -0.104918 0.104678 0.165224 -0.051103 -0.104337 -0.026022 0.136944 -0.018035 -0.039808
-0.013661 -0.020305 0.019455 0.014453 -0.000443 0.000401 -0.004601 0.040162 -0.002176 -0.037116
-0.004133 -0.035763 -0.024375 -0.038391 0.011831 0.040078 0.011731 0.033367 0.019538 -0.014864
0.001907 -0.022201 0.025022 0.027304 0.012068 -0.011672 -0.003522 0.002174 -0.013389 -0.016922
-0.034340 -0.068149 0.062368 0.082487 -0.013100 -0.039670 -0.015871 0.089237 -0.014722 -0.042729
-0.032905 -0.117653 0.051311 0.172024 0.036155 0.007649 -0.039200 0.022297 -0.117087 0.021814
-0.004353 -0.043494 0.038862 0.047329 0.017029 -0.012371 -0.001509 -0.003613 -0.013084 -0.023285
-0.028716 -0.129434 0.029964 0.138606 0.021143 -0.022138 -0.038168 0.046771 -0.067668 0.044008
-0.033784 -0.130757 0.007451 0.115529 0.031873 -0.010249 -0.015521 0.047305 -0.057619 0.040692
-0.006817 -0.025587 0.021072 -0.016252 0.013306 0.023698 -0.018005 0.037473 -0.006892 -0.022789
-0.017076 -0.025925 -0.006561 -0.053635 0.014759 0.036000 -0.004080 0.029631 0.085685 -0.058964
0.000972 -0.018478 0.006804 0.013258 0.009102 0.016447 -0.018794 -0.024916 0.013670 0.005540
-0.022185 -0.065743 0.016774 0.023727 0.021201 0.060184 -0.015642 0.048776 -0.050374 -0.017203
-0.058095 -0.229413 0.122052 0.117676 -0.105530 0.027617 -0.007078 0.003320 0.010269 0.120496
-0.004607 -0.037826 0.045084 0.063346 -0.017066 -0.018431 -0.023447 -0.026759 0.007259 0.012959
-0.018416 -0.211098 0.094660 0.068179 -0.146138 -0.006068 0.004460 0.002466 0.028595 0.183176
-0.030942 -0.228917 0.081322 0.022908 -0.114455 0.015593 0.015753 0.022579 0.059345 0.154378
0.009125 -0.013865 0.027204 -0.014544 -0.006764 -0.007747 -0.016824 0.006365 0.011059 0.008137
0.014519 -0.004119 0.001278 -0.042490 0.015484 -0.042542 -0.023640 -0.014672 0.071811 0.028779
-0.010573 -0.007172 0.018082 0.053911 -0.007296 -0.008153 -0.004017 -0.055032 0.012985 0.007846
-0.032711 -0.110117 0.051022 0.019928 -0.010507 0.021125 0.004367 0.033264 0.030109 -0.008921
-0.002787 -0.263028 0.053919 0.095315 -0.012046 0.039360 -0.026981 -0.077603 0.130242 0.063351
0.000075 -0.076059 0.063552 0.059209 -0.051913 -0.016747 -0.030330 -0.059410 0.043157 0.067765
-0.007745 -0.213322 0.049322 0.087254 -0.068399 0.029712 0.003382 -0.016725 0.086730 0.048485
0.008870 -0.203180 0.022776 0.037721 -0.014353 0.010873 0.016526 -0.015735 0.091642 0.044767
0.025995 0.000039 0.032576 0.021552 -0.048036 -0.033816 -0.027056 -0.013895 -0.002326 0.044331
0.025130 0.003633 0.038561 -0.004627 -0.035091 -0.101409 -0.026905 -0.021613 0.054828 0.067946
-0.017406 -0.052925 0.038155 0.019067 0.005556 0.008419 -0.039197 -0.054586 0.041279 0.051986
0.028970 -0.091320 0.025935 0.014500 0.022714 -0.032478 -0.033633 -0.039024 0.039086 0.065825
0.091090 -0.215704 0.039027 0.025460 -0.228132 0.040976 0.007477 -0.060047 0.140807 0.158213
0.050303 -0.088271 0.035931 0.000426 -0.058072 -0.006354 -0.016802 -0.067994 0.066005 0.086167
0.062266 -0.201305 0.049047 0.048385 -0.188022 0.095106 -0.032745 0.009165 0.066741 0.094468
0.076091 -0.170069 0.040480 0.031639 -0.165533 0.037374 -0.024448 0.005067 0.060565 0.106656
0.045352 -0.040616 0.032563 0.022593 -0.047622 -0.038775 -0.062475 -0.006498 0.019182 0.075973
0.030147 0.024774 0.017645 -0.007853 -0.009835 -0.105577 -0.049132 -0.014447 0.033302 0.080193
0.018251 -0.031562 0.022991 -0.011962 -0.012301 -0.031638 -0.015579 -0.082127 0.072594 0.067679
0.082017 -0.084640 0.052420 0.009309 -0.108851 -0.070209 -0.039380 -0.039670 0.056165 0.145910
0.043762 -0.132684 0.010980 0.056614 -0.071882 0.031841 0.016222 -0.104352 0.090008 0.060437
0.023559 -0.022487 0.019958 -0.013157 -0.020142 0.028589 -0.000523 -0.077209 0.057071 0.006551
0.003597 -0.156151 -0.003921 0.056016 -0.050158 0.090027 0.012670 -0.061111 0.059618 0.049490
0.038058 -0.146225 0.009929 0.068271 -0.026206 0.025887 -0.008385 -0.033658 0.028638 0.040940
0.083468 -0.043795 0.021971 -0.026277 -0.053195 -0.014791 -0.050487 -0.026245 0.032551 0.078498
0.053229 -0.030432 0.041229 -0.043886 -0.009658 -0.047773 -0.047404 -0.023743 0.014721 0.090491
0.010556 -0.032973 0.022110 -0.008866 -0.018110 -0.026832 0.016412 -0.064124 0.046127 0.053477
0.111990 -0.087918 0.044245 0.026152 -0.064271 -0.076649 -0.042271 -0.042679 0.023373 0.110401
0.035892 0.073469 -0.030510 -0.021878 0.004369 0.099682 0.017542 -0.114001 0.060255 -0.128656
-0.005792 0.014647 0.012824 -0.031659 0.014712 0.049619 0.019136 -0.070375 0.023393 -0.023252
0.010621 0.034266 -0.052047 0.004086 0.006036 0.148307 0.037110 -0.084804 0.045353 -0.145820
0.039098 0.050243 -0.028508 0.007553 0.022008 0.114353 -0.004819 -0.074822 0.031754 -0.155945
0.021215 -0.016207 0.016059 0.006040 -0.021389 -0.008340 -0.005594 -0.037339 0.027156 0.019391
0.044366 -0.045032 0.031766 -0.048370 0.036282 -0.006846 -0.031055 -0.029827 0.022762 0.027125
0.021481 0.008271 0.031816 -0.047693 -0.004429 -0.004224 -0.000043 -0.012016 0.025743 -0.018229
0.071541 0.025380 0.024013 -0.005887 -0.021740 0.005895 -0.049309 -0.052700 0.038947 -0.036918
0.018942 0.007562 -0.028614 -0.098249 0.121289 0.163155 0.031442 -0.095432 -0.002702 -0.119462
0.002152 -0.007239 0.003986 -0.039636 0.049779 0.025389 0.038448 -0.050150 0.004981 -0.032035
0.020748 -0.003788 -0.031479 -0.141056 0.103298 0.206025 0.029043 -0.069135 0.021435 -0.135300
0.021682 -0.021145 -0.005695 -0.118944 0.126737 0.181917 0.008397 -0.070766 0.011378 -0.135023
0.026096 -0.007175 0.000727 -0.002384 0.007103 0.002353 0.003240 -0.025241 0.012193 -0.018304
0.005402 -0.026760 -0.019470 -0.000429 0.036766 0.018562 -0.010014 -0.031722 0.024871 0.003063
-0.007286 0.004675 0.012039 -0.021329 0.016263 0.013047 0.007838 -0.019368 -0.014716 0.007461
0.027240 -0.011507 0.010421 -0.006878 0.070652 0.057219 -0.023550 -0.061739 -0.013344 -0.048120
-0.018505 -0.088861 -0.040919 -0.126997 0.273397 0.101554 0.065344 -0.086783 0.103072 -0.181966
-0.004609 -0.021564 -0.018706 -0.045497 0.057066 0.038328 0.030756 -0.025149 0.017212 -0.026594
-0.020253 -0.079299 -0.064734 -0.130642 0.237608 0.138670 0.065304 -0.076413 0.093744 -0.165979
0.000259 -0.101194 -0.067924 -0.121249 0.249279 0.137534 0.050758 -0.073623 0.116252 -0.188669
0.004045 -0.018061 -0.007799 -0.024037 0.035368 0.022484 0.011444 -0.019842 0.019908 -0.026916
0.010980 -0.040150 0.018562 0.007136 0.017799 0.039145 0.000684 -0.017638 0.004522 -0.035281
-0.002232 -0.013762 0.009508 -0.003023 0.043158 -0.014688 0.011776 -0.006716 -0.001783 -0.025745
0.020619 -0.077192 -0.006097 -0.045810 0.156407 0.032205 0.023405 -0.044777 0.068830 -0.125769
-0.022501 -0.050520 -0.094101 -0.119677 0.106328 0.212092 0.010144 -0.027405 0.050309 -0.061855
-0.008827 -0.011096 -0.011202 -0.021118 0.024725 0.017887 0.012698 -0.003869 0.005025 -0.008959
-0.029533 -0.037223 -0.095034 -0.117098 0.091067 0.218939 0.000072 -0.021702 0.044566 -0.057560
-0.030407 -0.053676 -0.093518 -0.112545 0.080479 0.268055 -0.011494 -0.025295 0.045989 -0.066306
-0.010212 -0.012344 -0.008702 -0.011931 0.020345 0.030415 0.005518 -0.003351 -0.000729 -0.009013
0.002985 -0.042883 0.005968 -0.006375 0.009268 0.056538 0.002492 -0.012227 0.005712 -0.020085
0.007216 -0.017267 -0.010158 -0.020869 0.015468 0.039074 0.001877 -0.005332 0.009246 -0.017512
-0.009780 -0.057353 -0.047889 -0.063292 0.053453 0.171541 -0.001958 -0.024190 0.028670 -0.051606
-0.002512 0.018825 -0.033464 0.023195 0.004112 -0.066424 0.000173 0.036307 -0.004980 0.024365
-0.001712 -0.003504 -0.005070 0.032019 -0.002217 -0.028948 -0.000332 0.012869 -0.005924 -0.001686
-0.003130 0.030436 -0.040562 0.014282 0.008693 -0.064174 -0.003580 0.040551 -0.004408 0.023491
-0.003786 0.023101 -0.035344 0.011331 0.001895 -0.056854 -0.003102 0.038906 -0.001814 0.027450
-0.000900 -0.003833 -0.001659 0.008174 -0.003312 -0.010850 0.001982 0.016797 -0.004777 -0.002683
0.000295 -0.030326 0.010699 0.045131 -0.016547 -0.012484 0.003712 0.014409 -0.003451 -0.010408
0.001828 -0.005143 -0.002157 0.015352 -0.000800 -0.011116 0.001919 0.005221 -0.002779 -0.001396
-0.003524 -0.006958 -0.008039 0.007687 -0.002865 -0.022942 0.003449 0.018126 0.001594 0.010942
-0.007689 -0.013607 0.033670 0.169918 0.008185 -0.131405 -0.041894 0.102283 -0.043502 -0.070260
-0.005350 -0.023932 0.035462 0.049737 -0.000592 -0.038335 -0.016152 0.041449 -0.005070 -0.039542
-0.009466 -0.004832 0.012302 0.151670 0.017996 -0.127227 -0.043563 0.103098 -0.033851 -0.065130
-0.010602 -0.009108 0.012440 0.166753 0.007948 -0.124353 -0.047114 0.106483 -0.036174 -0.067859
-0.001704 -0.008894 -0.003485 0.028792 -0.009418 -0.022183 -0.007617 0.024779 0.002564 -0.003658
0.002240 -0.044996 0.014242 0.030990 -0.026144 -0.010060 -0.009720 0.031967 0.017437 -0.007416
0.002215 -0.014450 0.020278 0.023048 -0.004431 -0.015545 -0.001047 0.013186 -0.009060 -0.017640
-0.005365 -0.020005 0.003252 0.093790 -0.011656 -0.059853 -0.016411 0.056118 -0.020012 -0.024810
-0.075398 -0.091754 0.215592 0.162489 -0.044934 -0.114457 -0.099805 0.205877 0.001831 -0.160531
-0.021258 -0.041528 0.066988 0.045859 -0.020027 -0.016755 -0.027325 0.050205 -0.001259 -0.034885
-0.061459 -0.080605 0.183039 0.107242 -0.048098 -0.101117 -0.093462 0.190482 0.015734 -0.110015
-0.051150 -0.088662 0.154074 0.110888 -0.061716 -0.109180 -0.090923 0.178442 0.036578 -0.080258
0.002699 -0.018941 -0.000618 0.014056 -0.002467 -0.011892 -0.004168 0.022440 0.007618 -0.010525
0.023959 -0.040807 -0.051399 0.000961 -0.016176 0.013269 0.003152 0.005659 0.018219 0.040181
-0.012531 -0.019124 0.048502 0.024551 -0.003491 -0.006857 -0.017104 0.028694 -0.005304 -0.037073
-0.029570 -0.057947 0.073331 0.078976 -0.026183 -0.055910 -0.042436 0.105094 0.015392 -0.059379
-0.077936 -0.075852 0.128279 0.118457 -0.102851 -0.061386 -0.098547 0.164485 0.013405 -0.005915
-0.022077 -0.027947 0.029361 0.038063 -0.027265 -0.004343 -0.025245 0.057357 0.020546 -0.038372
-0.087731 -0.066750 0.093476 0.086812 -0.087157 -0.057962 -0.068331 0.164629 -0.011113 0.036101
-0.070436 -0.068938 0.039509 0.062855 -0.087500 -0.047882 -0.052166 0.142625 0.001191 0.080746
-0.013047 -0.014048 -0.003398 -0.014506 -0.003355 0.002690 -0.002760 0.038313 0.028624 -0.010830
0.012065 -0.016222 -0.066907 -0.015022 -0.002615 0.012791 0.049064 -0.031400 0.039910 0.016841
-0.003856 -0.014456 0.024395 0.048849 -0.023690 -0.004218 -0.017019 0.001265 0.014015 -0.025607
-0.017767 -0.051947 0.004926 0.018891 -0.041677 -0.020878 -0.026015 0.060225 0.035528 0.037268
-0.101571 -0.033082 0.095778 0.143149 -0.094938 -0.040187 -0.123378 0.148532 0.037823 -0.030371
-0.015837 -0.024459 0.056304 0.022774 -0.043482 0.000096 -0.052270 0.030207 0.058392 -0.030834
-0.075909 -0.058630 0.042410 0.158288 -0.066475 -0.044958 -0.095993 0.078815 0.030803 0.033229
-0.073134 -0.049073 0.000110 0.137467 -0.043058 -0.052720 -0.056273 0.059688 0.034302 0.039694
0.000079 -0.021980 -0.008391 -0.065864 -0.004452 0.045224 -0.028502 0.017994 0.056477 0.007679
0.023013 -0.032958 -0.062448 -0.104233 0.018935 0.047292 -0.018516 -0.030483 0.105989 0.054523
-0.024340 0.003590 0.033289 0.033961 -0.029959 0.006318 -0.034589 0.008088 0.035118 -0.037903
-0.036268 -0.009204 -0.015048 0.000180 -0.024437 0.019418 -0.032551 0.045418 0.049891 0.001329
-0.069150 -0.131979 0.187924 0.110252 -0.107375 0.032422 -0.098407 0.062907 -0.062014 0.075134
-0.003372 -0.022018 0.087304 0.031389 -0.049039 -0.028898 -0.059942 -0.001718 0.008662 0.036782
-0.073991 -0.094923 0.120464 0.136872 -0.110168 0.031377 -0.060115 0.056072 -0.062740 0.059963
-0.070155 -0.130417 0.089522 0.036109 -0.058732 0.058594 -0.049433 0.030445 -0.039752 0.136745
0.002239 -0.009687 -0.010296 -0.041175 -0.034091 0.030474 -0.024053 0.022354 0.086958 -0.019513
0.006195 -0.013162 -0.093676 -0.062708 0.036165 -0.007868 0.006729 -0.066085 0.152977 0.036592
-0.023897 0.014299 0.054841 0.034218 -0.035314 -0.023234 -0.039007 -0.026013 0.021124 0.022414
-0.017324 -0.073489 0.031447 -0.059945 -0.025654 0.054124 -0.054055 0.022764 0.054269 0.069426
0.054838 -0.243796 0.093891 -0.027367 -0.199232 0.094853 -0.008935 0.053108 0.002018 0.179631
0.007605 -0.030642 0.087294 0.021581 -0.120531 -0.024341 -0.027060 0.000428 0.020409 0.065343
-0.008810 -0.160743 0.094171 0.048187 -0.201369 0.070529 -0.025740 0.047565 -0.040697 0.179192
0.006271 -0.176158 0.030493 -0.001236 -0.150911 0.073789 0.013451 0.032413 0.014185 0.159027
0.005738 0.045427 0.023902 0.017747 -0.062619 -0.031973 -0.064534 0.011734 0.031938 0.025097
-0.023886 0.037675 -0.018864 0.023094 -0.071454 -0.090018 -0.037037 -0.007611 0.108083 0.079463
-0.004192 -0.069351 0.045208 -0.017633 -0.008467 -0.005185 -0.025334 -0.027689 0.046519 0.067196
0.040379 -0.086782 -0.010494 -0.052370 -0.042484 0.016295 -0.020544 0.006322 0.065321 0.081358
0.093117 -0.024859 -0.012282 0.074324 -0.388549 0.045405 -0.022956 0.044144 0.073990 0.113029
0.060632 -0.045275 0.042957 0.001215 -0.098281 -0.023961 -0.036676 0.000399 0.018196 0.082178
0.037804 -0.051975 -0.040161 0.125715 -0.325798 0.024647 -0.020897 0.099124 0.086189 0.065977
0.040253 0.013791 -0.059628 0.181755 -0.318549 -0.073772 -0.015110 0.100989 0.080797 0.050844
0.023719 -0.009111 0.030421 -0.000101 -0.049349 -0.050567 -0.049138 0.036552 0.011199 0.054968
0.010563 0.014435 0.029242 0.016622 -0.009442 -0.128759 -0.076767 0.008247 0.039617 0.098369
0.044785 -0.024866 0.000311 -0.013554 -0.060415 -0.033127 0.002940 -0.036142 0.058109 0.061643
0.063076 0.054263 0.004591 0.077705 -0.209429 -0.134847 -0.019374 0.032146 0.047756 0.084818
0.073313 -0.053781 0.010018 0.068406 -0.152555 -0.005411 -0.114881 0.087873 0.055756 0.031509
0.078861 -0.027231 -0.006434 -0.046199 -0.068213 0.050221 -0.050244 -0.022462 0.037069 0.055677
0.038342 -0.082087 0.000847 0.116670 -0.132375 -0.060491 -0.078728 0.090547 0.074656 0.032868
0.043319 -0.076168 0.037028 0.158838 -0.080831 -0.166204 -0.131670 0.154961 0.056692 0.002640
0.067280 -0.036443 0.020018 -0.012521 -0.047570 -0.037294 -0.045174 0.024015 -0.002900 0.068618
0.031017 -0.046808 0.023524 -0.007869 0.002542 -0.113962 -0.049210 -0.020301 0.032795 0.145870
0.045481 -0.015647 0.023484 -0.009968 -0.028512 -0.029175 -0.023988 -0.030341 0.035977 0.029013
0.085558 -0.037506 0.068715 0.086907 -0.049072 -0.170569 -0.133355 0.123040 0.000465 0.025496
-0.005628 -0.005007 -0.056030 0.058755 -0.030846 0.146054 -0.162937 0.039815 0.054658 -0.035983
-0.001806 -0.022592 0.005855 -0.015359 -0.008032 0.103107 -0.018376 -0.040333 0.008160 -0.010805
-0.037331 -0.021985 -0.030427 0.057832 -0.051018 0.092568 -0.124880 0.043256 0.094838 -0.021194
-0.011651 -0.018104 0.011004 0.061452 -0.021447 0.005054 -0.177628 0.059434 0.091360 -0.000621
0.045470 -0.015427 -0.010910 -0.019355 -0.027373 -0.010020 -0.029811 -0.021831 0.035913 0.052426
0.046660 -0.018642 0.033491 -0.034740 -0.004034 -0.071797 -0.030031 -0.016193 0.013053 0.086377
0.023463 0.003568 -0.000904 -0.005664 -0.016322 0.030103 -0.030405 -0.007055 0.004189 0.000411
0.074659 -0.008693 -0.011611 0.023928 0.000593 -0.045983 -0.162419 0.041013 0.039795 0.048250
-0.051915 -0.139602 0.017053 -0.043616 0.070935 0.230703 -0.079521 -0.015464 0.115694 -0.101904
0.001553 -0.042338 -0.025392 -0.016385 0.010634 0.122804 -0.002608 -0.029562 0.024589 -0.043409
-0.050066 -0.119064 0.011519 -0.050089 0.060718 0.184010 -0.044659 -0.001961 0.118937 -0.108843
-0.039427 -0.136860 0.043263 -0.036624 0.079079 0.097692 -0.065214 0.005803 0.126676 -0.075124
0.009076 -0.022433 -0.015318 0.000685 -0.000322 0.013801 0.006386 -0.020547 0.025145 0.000148
0.040573 -0.037598 -0.038228 -0.002753 0.008424 -0.031330 0.015041 -0.024462 0.039671 0.031988
0.003296 -0.025723 0.001126 -0.004788 0.001687 0.044095 -0.020168 -0.013335 0.021165 -0.001434
0.002575 -0.099117 0.029347 0.010343 0.052356 0.017846 -0.065101 -0.004889 0.069891 -0.013028
0.077111 -0.152081 -0.083798 -0.086956 0.089520 0.394713 -0.091032 -0.024836 0.073189 -0.204333
-0.004273 -0.037967 -0.028043 -0.033349 0.013277 0.174115 -0.021440 -0.014689 -0.001126 -0.045337
0.074274 -0.131872 -0.092822 -0.095723 0.069682 0.384568 -0.075894 -0.014887 0.069088 -0.188187
0.107305 -0.147093 -0.094450 -0.094166 0.068603 0.345631 -0.089549 -0.011411 0.102037 -0.189236
0.008555 -0.024190 -0.010163 -0.008595 0.010484 0.048756 0.000677 -0.007140 0.012438 -0.032113
0.006226 -0.037684 0.000001 0.021404 0.002251 0.016104 0.011903 -0.018843 0.021697 -0.021720
0.003340 -0.027827 -0.010856 -0.001617 0.007669 0.052518 -0.019743 -0.001952 0.015859 -0.020971
0.073999 -0.102917 -0.033482 -0.022786 0.058238 0.132965 -0.055267 -0.009820 0.077550 -0.117803
0.019780 -0.055880 -0.086987 -0.150304 0.021479 0.433005 -0.056002 -0.046045 0.023274 -0.098287
0.001667 -0.014755 -0.011945 -0.025327 0.006738 0.070169 -0.007913 -0.003316 0.000098 -0.013382
0.005137 -0.036933 -0.083785 -0.141575 0.020346 0.405974 -0.060006 -0.035316 0.011375 -0.087549
0.003155 -0.044975 -0.080239 -0.136060 0.017143 0.425839 -0.060770 -0.039791 0.008211 -0.092561
-0.002523 -0.017169 -0.010863 -0.017855 0.003016 0.083766 -0.008648 -0.005376 -0.003725 -0.016524
0.001456 -0.040470 0.010447 -0.002408 -0.011425 0.065730 -0.000092 -0.016891 0.020739 -0.024254
0.011323 -0.017463 -0.008935 -0.019952 -0.004217 0.057633 -0.000818 -0.010825 0.010981 -0.019151
0.014935 -0.052105 -0.037677 -0.074601 0.002477 0.259126 -0.028890 -0.035278 0.018555 -0.065731
-0.002910 0.020815 -0.045959 0.014409 -0.002781 -0.049515 -0.001177 0.079844 -0.017376 0.007213
0.001067 -0.003684 -0.011131 0.017981 -0.005620 -0.019069 -0.000702 0.036953 -0.007783 -0.010774
-0.003488 0.029655 -0.051001 0.008144 -0.002027 -0.049371 -0.003490 0.078654 -0.020296 0.012748
-0.004198 0.021755 -0.045406 0.008365 -0.007367 -0.043664 -0.002427 0.071189 -0.016965 0.016936
-0.002032 -0.005176 -0.000614 0.002800 -0.002974 -0.008069 0.002983 0.013908 -0.005159 0.000952
-0.003819 -0.030857 0.016436 0.028161 -0.019051 -0.006617 0.002619 0.020484 -0.002507 -0.006986
0.000497 -0.005696 -0.003120 0.009758 -0.003153 -0.008418 0.001286 0.015526 -0.004142 -0.004318
-0.004106 -0.005320 -0.008949 0.006177 -0.007462 -0.017574 0.005620 0.027685 -0.002745 0.009750
-0.001527 -0.004895 -0.009174 0.085404 -0.037043 -0.091692 -0.074552 0.168748 -0.005238 -0.030751
-0.000373 -0.014965 -0.001639 0.020013 -0.026825 -0.027310 -0.023243 0.053887 0.018372 0.000742
0.004783 0.005635 -0.029523 0.077224 -0.005925 -0.093715 -0.074164 0.163866 -0.015623 -0.037546
-0.003473 -0.002149 -0.021556 0.092475 -0.005811 -0.092693 -0.076830 0.169619 -0.015284 -0.044735
0.005369 -0.006907 -0.018624 0.014427 -0.008211 -0.014957 -0.001933 0.020688 0.005460 0.002723
0.016123 -0.037117 -0.033746 0.013587 -0.025633 -0.014682 0.008174 0.003983 0.034421 0.033896
0.006105 -0.008907 0.003462 0.002529 -0.021165 -0.010858 -0.004365 0.018646 0.009601 0.002573
-0.001479 -0.016928 -0.011588 0.053514 -0.025888 -0.038834 -0.026584 0.084798 -0.003819 -0.013541
-0.008282 -0.034288 0.085774 0.102727 -0.154296 -0.050786 -0.108367 0.117787 0.057992 -0.007226
0.020171 -0.013761 -0.022192 0.006799 -0.049505 0.000080 -0.011867 0.019483 0.029870 0.025074
-0.004672 -0.030878 0.085167 0.092984 -0.129025 -0.046297 -0.109416 0.079907 0.038956 0.022615
0.019787 -0.034805 0.052848 0.105032 -0.150663 -0.052824 -0.099798 0.051258 0.050776 0.059877
0.011276 -0.009414 -0.035426 -0.000584 -0.008302 -0.006897 -0.004430 0.006650 0.014948 0.031115
0.043916 -0.025040 -0.098665 -0.016072 0.003061 -0.000430 0.048399 -0.021606 0.003893 0.061332
-0.009883 -0.009811 -0.005466 0.013085 -0.027496 0.006165 -0.000082 0.012795 0.020064 -0.001155
0.016606 -0.031942 -0.019659 0.047194 -0.081207 -0.031636 -0.036904 0.044645 0.047265 0.043901
0.019532 0.022659 -0.064917 0.014207 -0.144530 0.021787 -0.089932 0.079446 0.105638 0.036426
-0.010104 0.003389 -0.042075 -0.006533 -0.034281 -0.010040 -0.000525 0.036378 0.049493 0.015515
0.021987 0.008963 -0.052935 0.014462 -0.107721 0.018011 -0.067482 0.063492 0.058013 0.039191
0.032705 0.014617 -0.108236 0.012183 -0.089635 0.012054 -0.032159 0.034563 0.039968 0.079730
0.004744 -0.015581 -0.051728 -0.025951 0.010626 0.015312 0.004945 0.011201 0.034889 0.013354
0.034534 -0.004632 -0.127513 -0.003573 0.032505 -0.040022 0.057303 -0.036594 0.019209 0.070009
0.005806 0.007791 -0.027611 0.016005 -0.037414 -0.006502 0.000423 0.012228 0.032860 -0.005199
0.047468 -0.003204 -0.130729 -0.017560 -0.032118 0.013202 -0.007333 0.010171 0.058150 0.064645
-0.068778 -0.047094 -0.053556 -0.075500 -0.114278 0.022980 -0.108880 0.142217 0.175106 0.124760
-0.016444 -0.034250 -0.008096 -0.068712 -0.028271 0.024376 -0.052813 0.013732 0.099883 0.070033
-0.049398 -0.080905 -0.037903 -0.045122 -0.088359 0.059371 -0.090794 0.081752 0.124004 0.127844
-0.036358 -0.073557 -0.090798 -0.052976 -0.049263 0.038804 -0.054807 0.071264 0.083305 0.168264
-0.005386 -0.035012 -0.056824 -0.059424 0.026527 0.039419 0.000603 -0.013509 0.090711 0.014269
0.047840 -0.057922 -0.141396 -0.046998 0.092371 0.032997 0.015180 -0.050829 0.046930 0.056318
-0.027098 0.014830 -0.009180 -0.009695 -0.037956 -0.016878 -0.033376 0.010688 0.072780 0.034473
-0.017514 -0.018215 -0.123983 -0.061759 0.002568 0.007788 0.004816 0.036924 0.069144 0.097319
0.006899 -0.144657 -0.071842 -0.098627 0.120088 0.074716 -0.094670 0.169024 -0.019819 0.058766
-0.015097 -0.025645 -0.049319 -0.045747 -0.007477 0.013677 -0.027323 0.039605 0.116591 0.001490
-0.038329 -0.071804 -0.022430 -0.030364 0.087594 0.100662 -0.120268 0.093738 -0.042092 0.045088
-0.010423 -0.153637 -0.082202 -0.078904 0.198326 0.123183 -0.077472 0.059164 -0.059974 0.081477
-0.011091 -0.007115 -0.039536 -0.081018 0.000215 0.023666 -0.040348 -0.024768 0.163040 0.017199
-0.000907 0.027197 -0.140119 -0.008520 0.029642 0.002470 0.000599 -0.065005 0.150102 0.004613
0.000537 0.012986 -0.031030 -0.032291 -0.010050 -0.010080 -0.023358 0.032942 0.027118 0.028729
0.017515 -0.124656 -0.137037 -0.134901 0.154644 0.076435 -0.023835 0.016901 0.065184 0.092278
0.015638 -0.039469 -0.091398 0.026846 -0.183379 0.157070 -0.010928 0.140597 -0.064476 0.048282
0.001128 0.062735 -0.006399 0.042063 -0.114113 -0.026280 -0.068090 0.081659 0.001599 0.025148
-0.041970 -0.004157 -0.089170 0.089370 -0.204068 0.126596 0.023999 0.107001 -0.095279 0.087121
-0.008209 -0.002467 -0.157939 0.073957 -0.191539 0.103656 0.070619 0.059301 -0.022819 0.073881
-0.023422 0.034415 -0.038643 -0.018974 -0.036659 -0.019787 -0.042182 0.006042 0.114526 0.021261
-0.023967 -0.004597 -0.040088 0.010306 0.007591 -0.069155 -0.051458 -0.031486 0.134218 0.072513
0.014971 -0.060981 -0.023457 -0.020888 0.006245 0.018059 -0.014451 0.039504 0.016032 0.024978
0.010638 -0.005786 -0.169234 -0.030698 -0.031525 0.037918 0.026085 0.010844 0.134693 0.014876
0.011291 0.227565 -0.059712 0.156695 -0.375028 -0.015180 -0.094213 0.198512 -0.007763 -0.045690
0.002486 -0.006950 -0.000319 0.037996 -0.056591 -0.027668 -0.082068 0.121624 -0.015460 0.024462
-0.048763 0.135506 -0.056875 0.181283 -0.288069 0.007647 -0.084967 0.190402 -0.009573 -0.028247
-0.070762 0.178512 -0.057838 0.216997 -0.270342 -0.101593 -0.089886 0.179267 0.044303 -0.027258
-0.021485 0.047627 -0.017556 0.021849 -0.042394 -0.025831 -0.043478 0.036785 -0.008911 0.053728
-0.023116 -0.048694 -0.028393 0.015442 0.000403 -0.129367 -0.032948 0.049262 0.102971 0.090072
0.035745 0.002084 -0.012751 0.015498 -0.048659 -0.023278 -0.018219 0.020810 0.013921 0.015090
-0.023452 0.182525 -0.062065 0.129600 -0.192689 -0.124731 -0.062807 0.072199 0.031181 0.049984
-0.018645 -0.001375 -0.019049 0.092548 -0.030534 -0.232856 -0.221624 0.353414 -0.024025 0.102590
0.047638 -0.001649 -0.016421 0.015619 -0.037508 -0.041532 -0.057363 0.079085 -0.034623 0.046637
-0.037153 -0.075509 -0.034672 0.093194 -0.034801 -0.180146 -0.186580 0.310455 0.036169 0.109118
-0.061674 -0.058109 -0.022213 0.089612 0.019469 -0.264584 -0.204289 0.347038 0.026270 0.123803
0.013598 -0.016364 -0.001750 0.009356 -0.016249 -0.009584 -0.047061 0.058742 -0.040530 0.055489
-0.022033 -0.002275 0.025159 0.006875 0.021316 -0.068917 -0.066907 0.008234 -0.004453 0.103572
0.022144 0.016401 -0.002661 0.005583 0.000915 -0.073651 -0.028301 0.039149 0.025349 -0.006208
-0.040414 0.015531 -0.004313 0.046035 0.044907 -0.215507 -0.143033 0.234047 -0.022817 0.084955
0.060062 -0.083637 -0.054415 0.105043 -0.137570 -0.167162 -0.141689 0.240655 0.090505 0.088583
0.057193 -0.029834 -0.019370 0.003588 -0.036063 -0.038982 -0.015103 0.023133 0.030851 0.026368
0.036901 -0.098339 -0.075237 0.098968 -0.149940 -0.165088 -0.071069 0.224222 0.148844 0.049705
0.027034 -0.109050 -0.031697 0.099797 -0.123839 -0.200854 -0.107919 0.219690 0.127667 0.096895
0.048403 -0.011856 -0.029073 -0.002706 -0.034121 -0.017856 -0.007857 0.020381 -0.005647 0.041675
0.023976 -0.012339 -0.034978 0.008448 -0.010136 -0.036164 -0.020001 -0.000773 -0.003418 0.081875
0.028970 0.010218 -0.025441 0.017301 -0.023080 -0.041922 -0.025718 0.021185 0.015629 0.022382
0.040934 -0.038871 -0.020626 0.058653 -0.044751 -0.147230 -0.117594 0.146035 0.004585 0.118663
0.049855 -0.172339 0.005612 0.009486 -0.027796 -0.053185 -0.012209 -0.013990 0.149051 0.065107
0.042955 -0.034452 -0.039219 -0.004889 -0.001827 0.005443 0.003066 -0.026222 0.061384 -0.007010
0.031577 -0.152719 0.005250 0.014070 -0.031126 -0.061756 -0.003957 0.001291 0.158526 0.034166
0.038243 -0.165770 0.021104 0.007084 -0.029484 -0.106994 -0.002194 0.007294 0.154218 0.074562
0.036455 -0.026001 -0.023639 -0.005801 -0.013049 -0.033464 0.033539 -0.010935 0.028872 0.013314
0.057601 -0.040529 -0.022951 -0.026670 -0.010291 -0.061633 0.035172 -0.014199 0.034669 0.047735
0.025938 -0.022934 0.008951 -0.010916 -0.003751 -0.020093 -0.014631 -0.016172 0.023593 0.025898
0.076522 -0.109749 0.011407 -0.013002 -0.012638 -0.112010 -0.000928 0.002189 0.076045 0.083296
0.073534 -0.085500 -0.105191 -0.071022 0.004110 0.193124 -0.074646 0.001396 0.139704 -0.078179
-0.001691 -0.019875 -0.020397 -0.015659 -0.002836 0.073673 -0.002223 -0.018500 0.028984 -0.019875
0.056629 -0.065386 -0.097298 -0.069657 -0.001531 0.213725 -0.072644 0.006584 0.113329 -0.082291
0.087550 -0.076563 -0.109938 -0.072058 -0.018966 0.175645 -0.047018 0.005548 0.131868 -0.077855
0.018114 -0.020213 -0.029331 -0.001326 -0.007341 0.008913 0.019999 -0.009724 0.030491 -0.008707
0.029631 -0.035311 -0.010784 -0.000084 -0.015080 -0.043360 0.065180 -0.030094 0.045330 -0.007712
0.018945 -0.013791 -0.016520 -0.012324 0.004284 -0.003609 -0.001068 0.000886 0.022302 -0.001753
0.093265 -0.066272 -0.072051 -0.033260 -0.006453 0.012830 0.000585 -0.001675 0.111846 -0.038775
0.031691 -0.016865 -0.055385 -0.090011 -0.037207 0.231939 0.027178 -0.080802 0.043718 -0.057949
-0.000838 -0.009145 -0.005278 -0.016058 -0.005082 0.042733 -0.001343 -0.008453 0.012260 -0.010402
0.018737 -0.002822 -0.055182 -0.087214 -0.024557 0.216902 0.020348 -0.068920 0.032190 -0.048128
0.022755 -0.013845 -0.048668 -0.080399 -0.034632 0.217123 0.022481 -0.078085 0.039984 -0.048286
-0.004298 -0.010672 0.001858 -0.007346 -0.007437 0.044580 -0.003054 -0.009198 0.004375 -0.011884
0.013458 -0.030356 0.012903 0.004295 -0.023543 0.004224 0.026392 -0.022545 0.028360 -0.017154
0.021045 -0.008403 -0.005670 -0.011548 -0.011034 0.005872 0.024259 -0.017233 0.017188 -0.012046
0.032228 -0.028826 -0.016652 -0.041234 -0.033222 0.112504 0.030218 -0.058389 0.043947 -0.040178
-0.009514 0.020082 -0.027886 -0.031335 -0.007334 -0.045123 0.001253 0.071397 -0.001433 0.028606
-0.003288 -0.003180 -0.002763 -0.004473 -0.006745 -0.015619 0.004054 0.031466 -0.002498 0.002662
-0.009599 0.030241 -0.034718 -0.034735 -0.002957 -0.042373 0.000549 0.068734 -0.003370 0.030735
-0.007810 0.020572 -0.028231 -0.028335 -0.008243 -0.038480 0.000493 0.065123 -0.001964 0.029471
-0.001544 -0.003288 0.001635 -0.000148 -0.000724 -0.005822 0.003051 0.007216 -0.000791 0.004684
-0.006067 -0.027944 0.020538 0.016880 -0.014496 0.000505 0.003544 0.005094 0.002332 0.003561
0.000466 -0.005725 0.000033 -0.000275 -0.004605 -0.006087 0.003547 0.014200 -0.002555 0.001039
-0.005632 -0.008204 -0.003842 -0.005650 -0.007533 -0.018743 0.005514 0.025880 0.002599 0.015291
-0.011889 0.014698 -0.088075 -0.031011 -0.021363 -0.056544 -0.019736 0.113138 0.076699 0.025900
0.009562 -0.004900 -0.044675 -0.014490 -0.005948 -0.013735 0.005364 0.017062 0.031367 0.026509
-0.000983 0.019623 -0.092649 -0.031234 -0.018342 -0.064364 -0.027321 0.110289 0.073037 0.031504
-0.018173 0.012361 -0.080674 -0.019679 -0.019109 -0.057743 -0.033292 0.117251 0.074499 0.023661
0.004861 -0.004115 -0.011896 -0.001697 -0.000468 -0.016849 0.002847 0.024438 0.000541 0.001049
0.048851 -0.030328 -0.034144 0.003136 -0.020896 -0.021147 0.021829 -0.005975 0.015027 0.027077
0.011897 -0.005670 -0.022511 -0.008556 -0.009876 -0.006884 0.008000 0.003284 0.013718 0.012593
-0.014366 -0.010410 -0.028435 0.001838 -0.018551 -0.024273 -0.009957 0.065003 0.028472 0.009879
0.024301 0.041204 -0.201117 -0.091923 -0.080440 0.098080 -0.042530 0.022695 0.141010 0.089583
0.015360 0.006091 -0.101510 -0.037640 0.016574 0.027964 0.018285 -0.016618 0.029527 0.044893
0.050221 0.047498 -0.160093 -0.112413 -0.052606 0.082133 -0.060498 0.017588 0.102160 0.087047
0.087311 0.044136 -0.170383 -0.104423 -0.076186 0.060328 -0.053173 0.020363 0.100702 0.092284
0.019688 -0.006781 -0.050318 -0.022252 0.010179 -0.018748 0.014085 -0.002863 0.019602 0.041135
0.038939 -0.025072 -0.051758 -0.032627 0.043337 -0.059159 0.061281 -0.005217 -0.009056 0.040428
-0.013416 0.002451 -0.045907 -0.008300 0.001665 0.025563 0.020167 -0.004413 0.011714 0.008913
0.055087 0.001824 -0.122167 -0.042778 -0.050503 0.008211 0.003664 0.007147 0.073381 0.067452
0.052052 0.048816 -0.294444 -0.189363 0.099261 0.051016 -0.036297 0.055135 0.124674 0.090145
-0.005742 -0.007078 -0.127710 -0.044376 0.040881 0.019594 0.012741 0.020302 0.053298 0.039023
0.041188 0.045526 -0.195945 -0.186938 0.123643 0.062132 -0.027564 0.052483 0.048850 0.034883
0.069104 0.054986 -0.214156 -0.201048 0.145090 0.000811 0.004178 0.057622 0.024734 0.058229
0.015308 -0.008179 -0.074587 -0.025510 0.017774 0.023868 0.021561 -0.036555 -0.000515 0.066098
0.065606 -0.014407 -0.088223 0.003348 0.039176 -0.091727 0.081683 -0.012409 -0.020239 0.036911
-0.005575 0.000480 -0.063637 -0.008727 -0.028822 0.016613 0.008718 0.021385 0.034605 0.026868
0.067087 0.015368 -0.191852 -0.113725 0.066377 -0.017526 0.034498 -0.002812 0.035600 0.103751
0.000324 -0.167812 -0.230897 -0.095561 0.129049 0.002571 -0.037939 0.158059 0.106363 0.135138
-0.001161 -0.097135 -0.136678 0.002676 0.071648 0.054597 -0.011688 0.001555 0.086367 0.029977
-0.048296 -0.169163 -0.117779 -0.058507 0.096497 0.052496 -0.057807 0.144694 0.038714 0.124462
-0.017125 -0.165633 -0.146165 -0.054942 0.135680 0.020452 -0.003380 0.153229 -0.057852 0.138920
0.002548 -0.036490 -0.069605 -0.025815 0.046444 0.027048 0.004943 -0.044792 0.062044 0.036064
0.043456 -0.048239 -0.092838 0.010992 0.032970 -0.000429 0.046274 -0.083873 0.036522 0.056881
-0.008683 -0.022862 -0.070074 0.015895 -0.004116 0.006618 -0.018333 0.013046 0.047534 0.042326
0.033005 -0.067624 -0.167639 -0.045970 0.120319 -0.026078 0.051273 0.051925 -0.014554 0.065491
0.054897 -0.294279 -0.181587 0.000669 0.122388 0.191165 -0.009655 -0.000874 0.055343 0.059938
0.004207 -0.015475 -0.099294 0.007781 0.009967 0.050029 -0.025153 -0.074254 0.121021 0.023634
-0.028667 -0.218103 -0.101123 0.098872 0.115724 0.171828 -0.056442 -0.012128 0.018162 0.010894
0.020603 -0.298020 -0.132700 0.065230 0.175515 0.190476 0.019319 -0.035437 -0.012063 0.009039
-0.003940 -0.042245 -0.077183 -0.013602 0.055237 0.045367 -0.033566 -0.073497 0.133886 0.009872
0.028190 0.054547 -0.084354 -0.004315 0.000520 0.000396 -0.003710 -0.111545 0.108985 0.009842
0.021360 -0.005265 -0.078362 -0.012249 0.009508 0.016269 0.017730 0.006385 0.019327 0.005408
0.068070 -0.211636 -0.182855 -0.041228 0.163995 0.129900 0.063700 -0.057794 0.054515 0.017594
0.028850 0.026468 -0.128945 0.094379 -0.157393 0.113152 -0.052074 -0.179556 0.092761 0.156830
-0.026429 0.024098 -0.049136 0.036605 -0.066790 0.020856 -0.045674 -0.050195 0.051997 0.107308
-0.027483 0.039183 -0.077480 0.107463 -0.109741 0.076415 -0.039681 -0.150487 0.021224 0.159109
0.001451 0.052734 -0.090720 0.126223 -0.103892 0.085385 -0.028235 -0.211703 0.042755 0.130839
-0.027961 0.006073 -0.065889 0.022737 -0.003443 0.004113 -0.006768 -0.075441 0.136391 0.011224
-0.028202 -0.042188 -0.028327 -0.037783 0.032468 -0.008309 0.028846 -0.076557 0.138296 0.016057
0.037253 -0.079903 -0.039831 -0.015734 0.011145 0.025978 0.002290 -0.053514 0.023932 0.090169
0.033760 0.013648 -0.130128 0.064556 -0.007930 0.072448 -0.021060 -0.224004 0.124600 0.075232
-0.270681 0.250275 -0.077825 0.153793 -0.148979 0.018101 -0.008441 0.040085 0.021218 0.025136
-0.067420 0.027144 -0.059439 0.041659 0.004349 -0.030625 -0.006774 0.058060 0.000040 0.032418
-0.271352 0.137367 -0.067837 0.112768 -0.116953 -0.005002 0.028882 0.051732 0.031864 0.095678
-0.310476 0.199887 -0.047427 0.129860 -0.117767 -0.056377 0.037916 0.041864 0.062938 0.057868
-0.057175 0.023887 -0.027635 0.027609 -0.022379 0.007358 -0.026867 -0.014531 0.009737 0.081110
-0.057184 0.012210 -0.027560 -0.005951 0.032000 -0.039937 0.001755 -0.019389 0.082110 0.021267
-0.005605 0.030682 -0.022576 0.006359 -0.024529 0.000047 0.007762 -0.023685 0.045719 -0.015944
-0.185029 0.182945 -0.022769 0.086133 -0.093650 -0.023755 0.001387 -0.045707 0.048603 0.050988
-0.154853 0.064318 -0.051907 0.123019 0.059616 -0.187896 -0.126594 0.228340 -0.018767 0.063330
-0.012789 0.010467 -0.011747 0.049745 -0.009313 -0.021202 -0.060464 0.043403 -0.023232 0.036411
-0.128773 0.008437 -0.031450 0.131562 0.073086 -0.168412 -0.081404 0.211570 -0.015155 0.003047
-0.158705 0.018180 -0.015851 0.102893 0.110132 -0.224057 -0.092432 0.230557 -0.034714 0.059206
-0.041322 -0.005574 -0.033246 0.040607 0.017967 0.024944 -0.019791 0.036383 -0.040001 0.019790
-0.059505 0.014811 0.016207 0.016490 0.011387 -0.059918 -0.056670 0.028190 0.011336 0.077389
-0.009037 0.049206 -0.014513 -0.005561 -0.005845 -0.059318 -0.016335 -0.004546 0.048118 0.014680
-0.143467 0.062069 -0.042458 0.041472 0.102803 -0.151028 -0.055499 0.136705 -0.029001 0.081180
0.011254 -0.120015 -0.016432 0.047635 0.048125 -0.265264 -0.081029 0.112937 0.125658 0.137763
0.021923 -0.012075 -0.019696 -0.004257 -0.004152 -0.051679 -0.007986 0.008328 0.038022 0.032911
0.033840 -0.120074 0.002686 0.042713 0.060514 -0.247547 -0.055311 0.093018 0.118974 0.068693
0.033366 -0.146646 0.034760 0.034697 0.076567 -0.261080 -0.090165 0.108534 0.076544 0.134351
0.004528 -0.017251 -0.049848 0.034481 0.004378 0.014713 -0.007464 0.014667 -0.019526 0.022692
0.006964 -0.029314 -0.071881 0.060188 0.013717 -0.001916 -0.036327 0.023876 -0.033281 0.066980
-0.010562 -0.002511 -0.009267 0.000032 0.010194 -0.041354 -0.018773 0.000843 0.014374 0.055989
-0.021540 -0.089260 -0.008064 0.058738 0.043730 -0.105683 -0.078233 0.076846 -0.022504 0.149816
0.104668 -0.089389 0.072775 -0.180305 0.049324 -0.287227 0.045903 0.011553 0.200534 0.070645
0.057326 -0.017440 -0.011895 -0.043381 -0.016718 -0.088769 0.040034 -0.004848 0.078425 0.008033
0.082731 -0.067483 0.069398 -0.168722 0.061582 -0.274445 0.063393 0.012273 0.199183 0.023811
0.081142 -0.080932 0.064941 -0.166840 0.088019 -0.275275 0.062477 0.009210 0.175411 0.043223
0.024978 -0.020019 -0.023803 -0.024872 -0.000348 -0.032138 0.033928 -0.004236 0.031099 0.018009
0.052357 -0.039743 -0.045402 0.016149 -0.003391 -0.018203 0.030620 -0.006395 -0.003445 0.023318
0.019869 -0.015030 0.006288 -0.024804 -0.004271 -0.020698 -0.004129 -0.001388 0.008380 0.037376
0.055406 -0.073960 0.020159 -0.091064 0.043202 -0.129362 0.027569 0.016439 0.059808 0.072008
0.216694 -0.018746 -0.020641 -0.169926 -0.056046 -0.302522 0.189345 -0.025352 0.212110 -0.023491
0.048001 -0.009310 0.010666 -0.033979 -0.024208 -0.065350 0.044976 -0.023656 0.064517 -0.012259
0.175430 -0.006856 0.000708 -0.160481 -0.056578 -0.269954 0.160789 -0.033748 0.204115 -0.016842
0.201097 -0.016752 -0.018482 -0.158743 -0.069662 -0.284369 0.198947 -0.046613 0.211936 -0.016765
0.041056 -0.008498 -0.018096 -0.016688 -0.017468 -0.046786 0.042012 -0.006874 0.038987 -0.008436
0.043344 -0.034831 -0.025725 -0.007020 -0.015492 -0.036376 0.046523 0.001946 0.033540 -0.007739
0.029769 -0.009553 -0.013095 -0.027912 -0.003172 -0.041075 0.030653 0.000661 0.024952 0.002010
0.154057 -0.033264 -0.057834 -0.086524 -0.034931 -0.185644 0.155553 -0.019944 0.122727 -0.014293
0.114995 0.008385 -0.004140 -0.064094 -0.083439 -0.103817 0.112900 -0.087109 0.132438 -0.030095
0.012711 -0.003862 0.001916 -0.010975 -0.012834 -0.021768 0.024355 -0.011980 0.025532 -0.004140
0.088018 0.020570 0.012497 -0.065360 -0.073133 -0.088354 0.080622 -0.073565 0.122083 -0.021088
0.088753 0.011216 0.011749 -0.058587 -0.080941 -0.082898 0.076767 -0.072028 0.126069 -0.022135
0.011544 -0.005699 0.008172 -0.003853 -0.011902 -0.015424 0.017868 -0.011102 0.016296 -0.005829
0.026615 -0.030776 0.021075 0.009553 -0.029024 -0.017080 0.040559 -0.018596 0.015470 -0.014179
0.031879 -0.006525 -0.009641 -0.007202 -0.014646 -0.020628 0.034983 -0.014504 0.019871 -0.010740
0.079125 -0.014254 -0.009517 -0.023440 -0.054312 -0.058083 0.077409 -0.053997 0.081967 -0.025037
-0.010172 0.020178 -0.017871 -0.043351 0.011979 -0.032429 0.002984 0.016088 0.003852 0.046068
-0.003527 -0.003765 0.000227 -0.007857 0.004892 -0.007603 0.003166 0.002558 -0.000027 0.011785
-0.011398 0.029155 -0.021837 -0.044799 0.009784 -0.028971 0.000026 0.019656 -0.000080 0.046234
-0.011647 0.021021 -0.017049 -0.038107 0.005657 -0.028174 -0.000406 0.020108 0.002253 0.044463
-0.001859 -0.004693 0.004003 0.003614 -0.000914 -0.005683 0.001919 0.002495 -0.002470 0.003234
-0.005968 -0.030659 0.015714 0.024531 -0.012398 0.003675 0.004026 -0.007152 0.000663 0.001783
-0.000767 -0.005322 0.001652 -0.002346 -0.000209 -0.002952 0.002824 0.001144 -0.001377 0.003489
-0.004244 -0.009510 0.000482 -0.008536 -0.002314 -0.013916 0.003485 0.006407 0.004613 0.020803
0.014434 0.017802 -0.075367 -0.062202 0.040041 -0.032845 0.021855 0.036786 0.015528 0.022920
0.035629 -0.002811 -0.025317 -0.020130 0.000518 -0.023407 0.018499 0.016308 -0.000024 0.005277
0.018352 0.025188 -0.069872 -0.051033 0.042746 -0.036185 0.001672 0.047877 0.009504 0.012493
-0.009369 0.018275 -0.060627 -0.037521 0.036700 -0.023212 -0.006840 0.052301 0.012963 0.017913
0.002568 -0.006719 0.009776 0.003795 -0.000591 -0.008640 -0.003584 0.002377 -0.005789 0.006000
0.046566 -0.028978 0.011967 0.028057 -0.026096 -0.036282 0.013970 -0.004829 -0.007137 0.004763
0.026874 -0.004817 -0.023104 -0.007586 0.005547 -0.011748 0.016322 -0.001427 -0.000611 0.000352
-0.009014 -0.009850 -0.015403 -0.009869 0.006268 -0.007044 0.002766 0.013054 0.007768 0.020871
0.046599 -0.007078 -0.084170 -0.108627 0.057705 -0.015561 -0.026712 0.100151 0.007133 0.031714
0.037346 -0.013292 -0.035021 -0.059553 0.052053 -0.051823 0.032996 0.011154 -0.011630 0.034066
0.051191 -0.014377 -0.049547 -0.109051 0.061757 0.011896 -0.057305 0.090091 0.002181 0.011543
0.066002 -0.015977 -0.028210 -0.099794 0.031288 0.001811 -0.073455 0.097154 0.011095 0.008019
0.041054 -0.011593 -0.040613 -0.016409 0.030217 -0.026308 0.019220 0.004691 -0.014487 0.014738
0.046769 -0.030516 0.012258 -0.032122 0.047463 -0.073604 0.043052 -0.015022 -0.015037 0.016569
-0.012548 -0.006049 -0.021396 -0.011030 0.009413 0.000376 0.025382 0.004671 -0.012721 0.019222
0.065047 -0.014818 -0.043259 -0.035594 0.002269 -0.046174 -0.007297 0.049406 -0.000444 0.027715
0.056408 -0.012224 -0.079601 -0.091889 0.040863 0.043898 0.021229 0.039296 -0.087534 0.066399
0.014497 -0.014725 -0.070079 -0.019376 0.024806 0.034579 0.036289 -0.016540 -0.060282 0.069097
0.046638 -0.026105 -0.030631 -0.078953 0.049835 0.012173 0.028893 0.070725 -0.075447 -0.000636
0.089227 -0.022250 -0.031884 -0.089521 0.082021 -0.056779 0.036991 0.092239 -0.081201 -0.017192
0.025635 -0.012460 -0.045739 -0.038320 0.037715 -0.041244 0.048189 -0.024541 -0.022394 0.070659
0.076938 -0.011874 -0.046459 -0.033298 0.037018 -0.116854 0.103310 -0.007515 -0.040807 0.037211
-0.002121 -0.000636 -0.020593 -0.005700 -0.032308 0.032244 0.006807 0.010663 -0.019300 0.030800
0.097329 -0.011090 -0.054824 -0.096271 0.089267 -0.104038 0.055381 0.024013 -0.034891 0.036678
0.020593 -0.216324 -0.064978 0.041745 0.130237 0.105116 -0.056633 -0.033972 -0.050618 0.121972
0.012746 -0.087564 -0.052413 0.018860 0.020117 0.110601 -0.006461 -0.065368 -0.020342 0.066369
-0.022396 -0.199424 -0.003107 -0.012524 0.161349 0.062228 -0.045217 0.010152 0.034350 0.014914
0.031948 -0.198055 -0.010665 -0.054140 0.198901 -0.022585 0.022382 0.046124 0.000633 -0.012968
0.005187 -0.022890 -0.036553 -0.006088 0.007034 0.021383 0.028397 -0.051693 -0.019250 0.070831
0.077152 -0.017174 -0.059985 -0.050954 -0.003380 -0.089843 0.101914 -0.063001 0.029827 0.075615
0.019100 -0.026317 -0.037262 0.010413 0.010130 0.032508 -0.000010 -0.001937 -0.030427 0.020615
0.072117 -0.083150 -0.064408 -0.040432 0.108451 -0.051153 0.071884 0.000227 -0.073722 0.064853
0.141745 -0.258861 -0.025247 0.026608 0.090679 0.225634 -0.050485 -0.239270 0.029085 0.059850
0.001264 -0.020163 -0.006434 0.075190 -0.012427 0.138658 -0.061571 -0.152590 -0.004151 0.039114
0.089602 -0.183293 -0.013311 -0.043635 0.146021 0.157681 -0.074052 -0.198350 0.043670 0.077845
0.152303 -0.240300 -0.000080 -0.113911 0.160227 0.103876 0.010318 -0.197438 0.073298 0.053487
-0.012728 -0.041922 -0.026466 0.008512 0.039458 0.055582 -0.000808 -0.071325 0.050602 -0.003833
-0.000918 0.018602 -0.005281 -0.025551 -0.024125 -0.022347 0.083512 -0.113579 0.085810 0.003903
0.033217 -0.021350 -0.020963 0.029222 -0.029078 0.050425 0.009563 -0.054384 -0.016197 0.019970
0.116617 -0.178791 -0.033809 -0.075912 0.092034 0.058470 0.091482 -0.124015 0.043938 0.008093
-0.094051 0.002339 -0.004358 0.210311 -0.050254 0.182607 0.030693 -0.407253 0.103140 0.031200
-0.078635 0.027411 -0.032283 0.122413 -0.024238 0.041793 0.036367 -0.140535 0.047838 0.000954
-0.131689 0.002780 0.010956 0.139606 -0.026109 0.150519 0.040020 -0.306131 0.029665 0.090268
-0.134630 0.037071 0.042307 0.086765 -0.026824 0.112486 0.100281 -0.324663 0.068751 0.040396
-0.046452 0.002710 -0.017367 0.045066 0.017498 0.034791 -0.031138 -0.078883 0.089418 -0.015588
-0.074228 -0.041902 -0.016688 -0.006363 0.023400 -0.011802 0.075679 -0.053326 0.076051 0.027107
0.021846 -0.068618 -0.019782 0.061689 -0.019711 0.021997 0.027709 -0.109567 0.052613 0.030443
-0.049157 0.016993 0.039760 0.054366 0.007478 0.070255 0.037156 -0.282492 0.113704 -0.010593
-0.427533 0.329245 -0.050740 0.094388 -0.062363 -0.035379 0.162613 -0.081456 0.162294 -0.091083
-0.094127 0.027388 -0.073154 0.068182 0.015886 -0.027328 0.031673 -0.039096 0.041756 0.048805
-0.387178 0.244446 -0.017871 0.090733 -0.048169 -0.002663 0.140194 -0.089998 0.100836 -0.031385
-0.427016 0.326251 -0.002863 0.031032 -0.028783 -0.062766 0.156492 -0.082515 0.116105 -0.028185
-0.076144 0.005937 -0.032570 0.068426 0.000941 -0.031413 0.018248 -0.056869 0.093808 0.008211
-0.087415 0.021338 -0.051807 0.035860 0.040510 -0.029039 -0.018116 -0.027467 0.098642 0.013559
-0.048750 0.064118 -0.040501 0.026240 -0.008773 -0.011008 0.032996 -0.039691 0.045488 -0.020297
-0.285183 0.239869 -0.004040 0.042938 -0.006928 -0.091482 0.098783 -0.079739 0.108233 -0.028413
-0.284405 0.031454 -0.040184 0.042778 0.235008 -0.128688 -0.065743 0.186310 -0.103628 0.126927
-0.050410 -0.003449 -0.022659 0.037760 0.016280 -0.038361 -0.027724 0.073183 -0.015367 0.025122
-0.219300 -0.009113 -0.011140 0.095893 0.196379 -0.102080 -0.065559 0.148828 -0.121258 0.091242
-0.245388 -0.032480 -0.000206 0.062202 0.249038 -0.128012 -0.103108 0.161719 -0.123682 0.161661
-0.049467 -0.009379 -0.047908 0.055169 0.019928 -0.028409 0.001348 0.018442 0.018525 0.022433
-0.033329 -0.007277 -0.096897 0.064984 -0.022114 -0.042475 -0.035934 0.024011 0.068742 0.082285
-0.043135 0.039507 -0.024804 -0.011750 0.020961 -0.046170 -0.011632 0.008622 0.022911 0.041951
-0.197801 0.004305 -0.057163 0.018491 0.169086 -0.121095 -0.047798 0.088769 -0.011542 0.154291
-0.015590 -0.198671 -0.068902 0.087027 0.104861 -0.085174 -0.079169 0.316919 -0.121786 0.059998
-0.008217 -0.029757 -0.042383 0.020605 0.034670 -0.019121 -0.012463 0.067291 -0.028221 0.018685
0.005325 -0.176405 -0.047082 0.050658 0.093109 -0.082385 -0.047600 0.296730 -0.085578 -0.007667
0.016401 -0.199756 -0.052479 0.080041 0.098661 -0.095136 -0.071696 0.327169 -0.124913 0.019712
-0.007399 -0.034442 -0.021708 0.041230 -0.004670 0.027340 -0.018962 0.043769 -0.017433 -0.009544
0.001266 -0.039947 -0.060813 0.053214 -0.002548 -0.041617 0.007159 0.053958 -0.007315 0.035796
-0.018233 -0.018191 -0.028104 0.015684 0.018097 -0.033765 -0.017266 0.058134 -0.008241 0.031852
-0.011279 -0.144977 -0.044921 0.103706 0.041933 -0.038082 -0.067715 0.199958 -0.097537 0.060950
0.074382 -0.068589 -0.069200 -0.164085 0.123893 -0.071849 0.090758 0.096627 -0.079044 0.063947
0.038198 -0.015376 -0.031213 -0.028909 0.020924 -0.044578 0.034458 0.018494 0.006153 -0.000172
0.047404 -0.053124 -0.009758 -0.164446 0.114598 -0.079974 0.085316 0.077980 -0.043775 0.028791
0.056609 -0.065714 -0.024475 -0.143387 0.094965 -0.071108 0.104654 0.079152 -0.065469 0.034158
0.005313 -0.016532 -0.030508 0.009769 0.025020 0.006358 0.010283 0.010755 -0.014030 -0.007319
0.049223 -0.041313 -0.043924 0.027258 0.015205 -0.004458 0.015287 0.008374 -0.007225 -0.018931
0.015739 -0.011663 -0.025778 -0.010087 0.018770 -0.013191 0.002942 0.025158 -0.020877 0.022390
0.041760 -0.062327 -0.065202 -0.055550 0.063220 -0.013866 0.062990 0.059616 -0.078384 0.047468
0.217733 -0.019981 -0.032203 -0.101986 -0.026056 -0.199457 0.182979 -0.017749 0.087746 -0.089302
0.054847 -0.007726 -0.013667 -0.020424 -0.019754 -0.044828 0.037680 0.004869 0.027197 -0.019020
0.189555 -0.005268 0.010276 -0.106446 -0.022664 -0.192421 0.157338 -0.023645 0.079544 -0.087086
0.215017 -0.018380 -0.006613 -0.093476 -0.028073 -0.191336 0.183429 -0.036080 0.083085 -0.105976
0.035737 -0.011474 -0.016431 -0.012738 0.000180 -0.029470 0.035585 -0.000514 0.016793 -0.014893
0.030723 -0.037040 -0.010255 0.003054 0.001548 0.001864 0.039383 -0.001827 0.004187 -0.030989
0.030167 -0.007015 -0.027683 -0.004212 0.000570 -0.013584 0.029123 0.002789 0.001860 -0.012136
0.148134 -0.032827 -0.053592 -0.036695 -0.004132 -0.101754 0.128188 -0.021733 0.041051 -0.067780
0.113609 0.011440 -0.008697 -0.043753 -0.040494 -0.081457 0.054538 -0.014165 0.052825 -0.045891
0.018144 -0.002706 0.010510 -0.010095 -0.013186 -0.019557 0.012949 0.000126 0.010819 -0.007146
0.090140 0.025003 0.002851 -0.045851 -0.030058 -0.074099 0.038139 -0.008118 0.044241 -0.035320
0.087988 0.013756 0.021628 -0.040606 -0.033353 -0.067684 0.029178 -0.011023 0.039576 -0.036935
0.013662 -0.004956 0.007247 -0.001106 -0.011468 -0.013870 0.012469 0.001218 0.006216 -0.008752
0.022937 -0.034428 0.013728 0.009003 -0.015967 -0.004508 0.026805 -0.013250 0.013189 -0.022831
0.029524 -0.007364 -0.008741 -0.003261 -0.005105 -0.007635 0.019082 -0.008249 0.009807 -0.016550
0.071057 -0.015627 0.008015 -0.014064 -0.028714 -0.039148 0.037590 -0.016464 0.032975 -0.038727
-0.011574 0.019294 -0.022093 -0.017985 0.003944 -0.028046 0.001305 0.012301 0.003004 0.039069
-0.004270 -0.004109 -0.000196 0.006078 -0.002027 -0.004114 0.003362 0.001622 -0.001028 0.003708
-0.014222 0.028439 -0.025062 -0.023882 0.003214 -0.021921 -0.002434 0.017023 -0.000967 0.041226
-0.012783 0.020549 -0.027028 -0.020554 0.001743 -0.019869 -0.001934 0.015962 0.002380 0.041990
-0.005647 -0.005642 0.000413 0.010705 -0.002709 -0.004119 0.002027 0.002613 -0.003553 0.002141
-0.006917 -0.030164 0.014129 0.037710 -0.017198 0.008493 0.004144 -0.004800 -0.000258 -0.005107
-0.000270 -0.004851 0.001891 0.005779 -0.000942 -0.001245 0.002267 -0.000057 -0.000694 0.002540
-0.005932 -0.009330 -0.003711 0.000268 -0.003009 -0.012128 0.004842 0.005282 0.004544 0.020211
-0.006169 0.014910 -0.022198 0.000253 -0.027624 0.000753 -0.027026 0.051645 -0.033275 0.048703
0.025422 -0.008002 0.018762 0.012447 -0.015168 -0.016801 -0.006647 0.007974 -0.020495 0.001004
-0.006729 0.017583 -0.004186 0.035240 -0.049453 -0.021812 -0.032999 0.053097 -0.033648 0.042784
-0.034047 0.013841 -0.003804 0.051217 -0.064043 -0.013395 -0.034065 0.063424 -0.028202 0.049473
-0.003949 -0.013640 0.014176 0.036606 -0.011558 -0.001757 -0.014466 0.003757 -0.008433 -0.002677
0.026872 -0.042189 0.033539 0.072777 -0.030028 -0.031326 -0.000336 -0.008530 -0.006588 -0.016224
0.017555 -0.005816 -0.003733 -0.000451 -0.000404 -0.004039 0.004774 0.001666 -0.006668 -0.001971
-0.020435 -0.012121 -0.005056 0.038072 -0.025667 0.002880 -0.015215 0.026555 -0.009937 0.024392
0.065230 -0.008903 0.054591 -0.011476 0.007069 -0.066758 -0.022441 0.125058 -0.144958 -0.001044
0.052333 -0.021189 -0.001682 -0.056622 0.062301 -0.033425 0.019989 0.027476 -0.042722 -0.008077
0.074541 -0.020036 0.085765 -0.002458 -0.025270 -0.029623 -0.054173 0.116199 -0.135911 -0.005485
0.076423 -0.027772 0.120729 0.024526 -0.063222 -0.041772 -0.075592 0.110575 -0.117043 -0.006294
0.033874 -0.022142 0.017602 0.002315 -0.019650 0.022824 -0.000563 -0.016103 -0.015535 -0.000691
0.036419 -0.051805 0.032629 0.042507 0.024236 -0.033003 -0.007777 -0.023218 0.004684 -0.019813
-0.002623 -0.005149 -0.022042 -0.001994 0.031364 -0.019878 0.018038 0.029313 -0.026443 0.000256
0.048614 -0.022069 0.060926 0.040610 -0.047050 -0.043046 -0.020649 0.044202 -0.055110 -0.005588
0.101986 -0.066465 -0.087710 -0.188415 0.212655 -0.130647 0.080729 0.051601 -0.061639 0.089708
0.044733 -0.022292 -0.066833 -0.066768 0.084505 -0.089132 0.095455 0.001954 -0.035253 0.051240
0.075819 -0.060385 -0.062972 -0.194968 0.150889 -0.053862 0.072560 0.060415 -0.016003 0.030965
0.099339 -0.069976 -0.022066 -0.191724 0.146331 -0.076746 0.044852 0.061959 -0.002490 0.012772
0.040609 -0.011314 -0.031254 -0.033478 0.032587 -0.050289 0.060394 -0.009870 -0.013087 0.013984
0.055081 -0.025160 0.041217 -0.011483 -0.026473 -0.089766 0.071297 -0.049105 0.012201 0.019672
0.001374 -0.001170 -0.012592 -0.021412 0.037890 -0.037099 0.021116 0.014879 -0.026119 0.022387
0.096051 -0.043854 -0.009005 -0.100818 0.099730 -0.110186 0.040515 0.022097 -0.006911 0.012272
0.147066 -0.161400 -0.061713 -0.088310 0.190577 -0.096401 0.080379 -0.129404 -0.046799 0.164507
0.021180 -0.059899 -0.035776 -0.058760 0.073074 -0.051555 0.075274 -0.043587 0.015822 0.062616
0.126716 -0.123816 -0.029038 -0.100274 0.144170 -0.028843 0.054243 -0.102993 0.008687 0.055814
0.191279 -0.126345 -0.014110 -0.150087 0.113269 -0.090203 0.101860 -0.114813 0.052951 0.035154
0.035728 -0.016409 -0.040721 -0.035040 0.022975 -0.054893 0.097706 -0.035062 -0.022939 0.050804
0.078266 -0.049015 0.002513 -0.080206 0.007399 -0.117886 0.112547 -0.029668 0.073431 0.004511
0.033412 -0.044167 -0.007119 -0.012141 0.048317 -0.044812 0.017843 0.000957 -0.015165 0.023285
0.164676 -0.074230 -0.045009 -0.111286 0.084673 -0.152246 0.148649 -0.078280 -0.001065 0.062934
0.014876 -0.143071 0.057489 -0.085766 0.116461 0.056598 0.065653 -0.269498 0.092020 0.094555
-0.073689 -0.026121 0.030455 -0.001325 0.046299 0.041073 0.009293 -0.096669 0.030630 0.039490
0.012175 -0.119404 0.091478 -0.048535 0.076025 0.079697 0.046209 -0.253843 0.040779 0.074302
0.072943 -0.190722 0.137936 -0.122718 0.047885 0.027436 0.127212 -0.270938 0.121079 0.050321
0.002169 -0.021624 0.016693 -0.035600 0.017523 -0.010786 0.046269 -0.042138 0.017549 0.007169
0.010780 -0.016847 0.041898 -0.077384 0.011056 -0.108313 0.081908 -0.052484 0.116113 -0.001787
0.010410 -0.031698 -0.009786 -0.013787 0.015055 -0.025125 0.012150 -0.040214 0.054049 0.028893
0.092600 -0.145313 0.076226 -0.162860 0.039140 -0.073426 0.149424 -0.139629 0.160419 0.008291
-0.316061 -0.007425 0.185101 0.026953 0.162344 0.055782 0.044133 -0.287833 0.148048 -0.009930
-0.143794 0.035882 -0.005376 0.025097 0.042590 0.026103 -0.008100 -0.075971 0.052068 0.051375
-0.296631 0.008897 0.166444 0.061720 0.173280 0.018794 0.005959 -0.252115 0.082737 0.035246
-0.303026 0.068525 0.215719 -0.024674 0.152301 -0.030878 0.061661 -0.245121 0.087853 0.018993
-0.079546 0.018175 0.019672 0.013517 0.037103 0.025021 0.010785 -0.058030 0.035291 -0.018571
-0.042396 -0.043778 0.029838 -0.009653 0.017331 -0.056997 0.043032 -0.062465 0.070179 0.057658
-0.023909 -0.050241 0.018249 -0.012219 0.007210 -0.010341 0.005837 -0.051058 0.086857 0.029172
-0.167876 0.031677 0.164433 -0.090894 0.066434 -0.031722 0.097962 -0.163136 0.119238 -0.030805
-0.382229 0.197508 -0.023920 -0.033854 0.167124 -0.048563 -0.057610 -0.053994 0.125635 0.112172
-0.100315 -0.036150 -0.044783 0.036003 0.064497 -0.038794 -0.000868 -0.004381 0.082353 0.041239
-0.313716 0.159260 -0.005622 -0.029153 0.142547 -0.038382 -0.044884 -0.078677 0.067517 0.147228
-0.341327 0.190908 0.006209 -0.095298 0.172547 -0.051562 -0.033880 -0.080119 0.075949 0.157455
-0.089772 0.026904 -0.012686 0.038495 0.022473 -0.003470 0.002738 -0.035694 0.057643 -0.004469
-0.063099 0.030900 -0.018065 0.015068 -0.014315 -0.010653 0.034551 -0.061457 0.066250 0.026718
-0.059436 0.031151 -0.015285 -0.035310 0.022849 -0.028760 0.009823 -0.020039 0.074141 0.020199
-0.258673 0.162109 0.013746 -0.076185 0.088173 -0.033583 -0.004515 -0.042409 0.078423 0.073632
-0.147359 -0.228349 -0.102233 0.101323 0.220428 -0.162045 0.022332 0.208125 0.018978 0.066470
-0.009900 -0.047734 -0.050474 0.073431 0.039605 -0.060689 0.000906 0.053058 0.005098 -0.001660
-0.121195 -0.240655 -0.062429 0.115048 0.167104 -0.105647 0.048035 0.199325 -0.005921 0.010366
-0.122711 -0.258520 -0.069374 0.091279 0.164568 -0.104121 0.054643 0.198192 0.004060 0.040681
-0.040383 -0.038398 -0.039718 0.042955 0.004539 -0.035504 -0.003681 0.004689 0.069265 0.034335
-0.043781 0.005333 -0.069126 0.051914 -0.026292 -0.028549 -0.007507 0.001584 0.032163 0.084813
-0.033263 -0.007469 -0.034433 -0.001326 0.051655 -0.053523 -0.011036 0.021098 0.047440 0.021668
-0.106452 -0.123215 -0.068776 0.032737 0.096361 -0.090819 0.000167 0.083844 0.075573 0.103149
0.085265 -0.191177 0.030995 0.060980 0.148038 -0.072536 0.010577 0.212393 -0.213481 -0.074748
0.022245 -0.038784 -0.023543 0.006287 0.033534 -0.014122 -0.007895 0.054144 -0.026249 -0.003456
0.060919 -0.155373 0.074832 0.020615 0.125521 -0.060437 0.038869 0.178817 -0.194499 -0.086279
0.072691 -0.160835 0.052646 0.040112 0.102795 -0.056726 0.033288 0.188691 -0.228967 -0.046727
0.000517 -0.033139 -0.014332 0.053186 0.003241 -0.018806 -0.005257 0.033626 -0.000747 -0.021551
0.002015 -0.016812 -0.055852 0.049996 0.002880 -0.029562 -0.019602 0.025912 0.003031 0.037442
0.008588 -0.026368 -0.023178 0.024636 0.023560 -0.022515 -0.012145 0.029215 -0.018901 0.020151
0.051926 -0.123386 -0.025607 0.103249 0.035356 -0.048143 0.006614 0.111374 -0.117456 0.006919
0.138501 -0.052461 -0.014418 -0.030807 0.119783 0.007541 0.048070 0.054733 -0.127550 -0.141275
0.053903 -0.019729 -0.011630 -0.001527 0.038494 -0.010758 0.012931 0.016328 -0.015309 -0.064982
0.103696 -0.037502 0.033646 -0.042723 0.104432 0.009843 0.039674 0.031864 -0.112373 -0.128444
0.117847 -0.047396 0.004304 -0.009361 0.081979 0.029893 0.058974 0.012050 -0.121725 -0.128709
0.017440 -0.015980 0.000492 0.012130 0.007279 0.022438 0.000135 0.007525 -0.008620 -0.041059
0.030251 -0.025619 -0.026845 0.013940 0.002476 -0.003776 0.022460 0.016063 0.001147 -0.031710
0.024804 -0.005162 -0.027738 0.002046 0.019654 -0.013006 0.008530 0.022599 -0.024734 -0.010637
0.088789 -0.044686 -0.039734 0.015968 0.030479 0.029112 0.048616 0.014006 -0.076731 -0.068158
0.195547 -0.048175 0.036088 -0.039084 0.025151 -0.043954 0.116073 -0.042601 0.010419 -0.206773
0.042338 -0.015719 0.019273 -0.018751 0.009355 -0.011323 0.022582 -0.007890 0.001913 -0.047447
0.183489 -0.037361 0.050535 -0.048498 0.019266 -0.054838 0.093865 -0.034785 0.009338 -0.180023
0.192875 -0.049902 0.045453 -0.045358 0.003305 -0.039047 0.105952 -0.042732 0.025557 -0.195523
0.029188 -0.012046 -0.002359 -0.005706 0.009577 -0.005632 0.025651 -0.000398 -0.001533 -0.033257
0.015169 -0.030876 0.011827 0.017114 -0.016827 0.014898 0.025409 -0.007028 0.010898 -0.044968
0.022652 -0.012638 0.000216 0.008778 0.006927 0.007067 0.015678 -0.013034 -0.002180 -0.032720
0.116120 -0.049127 0.001579 -0.002476 0.007639 -0.003615 0.078945 -0.039792 0.016728 -0.128572
0.074343 -0.009288 0.116239 -0.078546 -0.035675 -0.033010 0.018732 -0.007216 0.012833 -0.055732
0.014043 -0.008555 0.019230 -0.018028 -0.005163 -0.007789 0.011429 0.001414 0.004840 -0.010512
0.057049 0.002165 0.120837 -0.081538 -0.034149 -0.035434 0.010872 -0.001630 0.004945 -0.044505
0.052440 -0.009186 0.140473 -0.075884 -0.042324 -0.031266 0.007321 -0.002664 0.005201 -0.042859
0.009693 -0.006988 0.015756 -0.006105 -0.002805 -0.005749 0.008348 -0.000727 0.001038 -0.009051
0.019243 -0.031232 0.025398 0.003846 -0.007101 0.001505 0.011176 -0.007334 0.007253 -0.021465
0.019471 -0.007248 0.011535 -0.009997 -0.001267 -0.001626 0.006350 -0.003632 0.002803 -0.015824
0.043129 -0.024721 0.079559 -0.034487 -0.025062 -0.011553 0.013161 -0.010078 0.008823 -0.038253
-0.018220 0.017407 -0.044672 0.013384 -0.009378 -0.004997 0.003771 0.021852 -0.008225 0.030056
-0.007383 -0.003868 -0.003829 0.024195 -0.010096 -0.000584 0.002880 0.005152 -0.007202 0.001943
-0.021087 0.026140 -0.044276 0.007530 -0.010155 -0.005985 -0.000391 0.023616 -0.010495 0.031742
-0.016708 0.019279 -0.046688 0.005287 -0.013081 -0.000480 -0.000350 0.024742 -0.006008 0.033023
-0.006585 -0.003740 -0.003320 0.006771 -0.001669 0.000519 0.002723 0.003736 -0.003074 0.001479
-0.011520 -0.028108 0.017922 0.042317 -0.017892 0.004720 0.007295 -0.003506 -0.004975 -0.004356
-0.002151 -0.005972 0.000025 0.012501 -0.005753 0.000821 0.003115 0.002857 -0.003578 -0.000602
-0.008948 -0.006568 -0.013629 0.007058 -0.007089 0.000063 0.005557 0.009668 0.000729 0.015302
-0.049991 -0.025797 0.062467 0.176837 -0.071040 0.021934 -0.075597 0.030012 -0.045913 -0.024909
0.007706 -0.030749 0.037056 0.089683 -0.022275 -0.005832 -0.027045 -0.006109 -0.018712 -0.023224
-0.050840 -0.016518 0.081599 0.181664 -0.076929 0.010059 -0.084002 0.040720 -0.058040 -0.028214
-0.070472 -0.015190 0.085656 0.181069 -0.083741 0.013652 -0.077262 0.047544 -0.057928 -0.018977
-0.009545 -0.013242 0.013240 0.060578 -0.019720 -0.002296 -0.008509 -0.008860 -0.008224 -0.008149
0.009032 -0.039437 0.020695 0.078267 -0.021540 -0.000353 -0.007130 -0.016984 0.000498 -0.019120
0.012035 -0.017064 0.009061 0.024013 -0.007842 -0.000463 -0.007699 0.002282 -0.004631 -0.010179
-0.041111 -0.020043 0.027832 0.111083 -0.043468 0.004460 -0.023550 0.006419 -0.018103 -0.002622
0.069494 -0.154861 0.213441 0.220474 -0.083554 0.208892 -0.175589 -0.078373 -0.169820 -0.052493
0.052114 -0.070530 0.069195 0.045702 -0.013212 0.049443 -0.039191 -0.055190 -0.018504 -0.020315
0.060431 -0.130324 0.217828 0.203540 -0.094881 0.218522 -0.183335 -0.087293 -0.145284 -0.058291
0.043936 -0.133372 0.246495 0.228580 -0.101290 0.196012 -0.199615 -0.091703 -0.137930 -0.055529
0.007646 -0.028517 0.042244 0.051047 -0.025532 0.034001 -0.037996 -0.027997 -0.007206 -0.007156
0.005751 -0.021739 0.028387 0.057324 -0.035143 0.016267 -0.021284 -0.052605 0.041265 -0.016383
0.003360 -0.024296 0.017846 0.017504 -0.000567 0.025020 -0.001132 -0.019277 -0.015770 -0.005668
0.011008 -0.088088 0.128550 0.180062 -0.053655 0.048897 -0.094030 -0.050295 -0.058318 -0.023945
0.167781 -0.170159 0.114543 0.021090 0.042241 0.083999 -0.030270 -0.224507 -0.008231 0.003481
0.063014 -0.044576 0.029832 -0.029719 0.004702 -0.032333 0.069123 -0.066911 0.007607 -0.001535
0.151589 -0.137188 0.108572 0.001480 0.046694 0.094190 -0.032921 -0.208171 -0.001888 -0.020203
0.154509 -0.149437 0.129471 0.028072 0.031199 0.080898 -0.069426 -0.220743 0.037876 -0.024303
0.038588 -0.033086 0.038275 0.014739 -0.027740 0.036127 -0.001375 -0.038913 -0.019028 -0.007968
0.003565 0.000062 0.049021 0.008588 -0.021489 -0.043126 0.022485 -0.035587 0.025635 -0.009683
0.009527 -0.024170 0.034320 0.005374 0.006287 -0.040907 0.027032 -0.024429 -0.000531 0.004492
0.103803 -0.101438 0.113796 0.073843 -0.026636 0.046195 -0.074046 -0.130936 0.012838 -0.016921
0.103416 -0.161879 -0.020081 -0.138496 0.047255 -0.072331 0.230645 -0.165036 0.105440 0.073584
0.025055 -0.079987 0.023664 -0.074692 0.011349 -0.082471 0.133044 -0.054847 0.079948 0.017349
0.107358 -0.158114 -0.007476 -0.131778 0.007706 -0.040529 0.213011 -0.149063 0.106953 0.051771
0.142662 -0.158170 0.004583 -0.142284 -0.015401 -0.077987 0.214620 -0.153386 0.149755 0.037414
0.065246 -0.023174 0.004310 -0.036835 -0.006210 -0.044788 0.099451 -0.024400 -0.016985 -0.014874
0.052332 -0.049636 0.065474 -0.049749 -0.000154 -0.068680 0.047154 -0.008686 0.016991 -0.006181
0.017853 -0.058227 0.017724 -0.021790 0.006251 -0.050358 0.041741 -0.019211 0.059626 0.007234
0.122233 -0.078951 0.030232 -0.082975 -0.018657 -0.069023 0.142369 -0.088259 0.046272 -0.004555
0.087731 -0.133924 0.104897 -0.232940 0.038650 -0.062846 0.169787 -0.150364 0.156319 0.026342
-0.008216 0.009001 0.050900 -0.086285 0.032131 -0.064621 0.038889 -0.035313 0.055883 0.013262
0.058744 -0.147000 0.117816 -0.202709 0.020131 -0.014604 0.157810 -0.148866 0.103869 0.056294
0.098992 -0.195032 0.163973 -0.253256 0.011518 -0.051098 0.206402 -0.147537 0.138574 0.024761
0.021702 -0.042708 0.020751 -0.054654 -0.013904 -0.042913 0.114150 -0.037378 0.030505 0.004284
0.011557 -0.007239 0.038051 -0.089079 -0.021362 -0.051910 0.041527 -0.038537 0.072948 0.049458
0.005592 0.008101 0.036913 -0.065157 0.004474 -0.041501 0.004982 -0.032695 0.082608 -0.003124
0.117970 -0.117486 0.111398 -0.194293 -0.011044 -0.094993 0.201539 -0.098654 0.125933 -0.034403
-0.187433 0.099187 0.196899 -0.130975 0.099977 -0.074713 0.059747 -0.044794 0.022594 -0.039268
-0.081811 0.032957 0.056839 -0.028484 0.058038 -0.035135 -0.008646 -0.049314 0.044402 0.007201
-0.161462 0.064059 0.143947 -0.116793 0.066970 0.013161 0.060504 -0.042798 -0.033572 0.010573
-0.168982 0.074893 0.167564 -0.172177 0.046988 -0.017995 0.101263 -0.046527 -0.017355 0.030840
-0.031020 0.036603 0.034833 -0.031335 0.011396 -0.038764 0.050430 -0.026152 0.008847 -0.015082
-0.003860 -0.052850 0.036519 -0.032578 -0.009953 -0.041893 0.042743 -0.045989 0.030957 0.077744
-0.013985 -0.007200 0.071221 -0.055127 0.016349 -0.021640 -0.001078 -0.034253 0.068126 -0.020338
-0.083496 0.069791 0.135228 -0.149827 0.013573 -0.083072 0.112104 -0.038403 0.055845 -0.031264
-0.147845 0.041729 0.051724 0.000115 0.158951 -0.038693 0.020601 -0.099670 -0.000357 0.013107
-0.045992 -0.005810 0.023960 0.042601 0.031443 -0.031305 0.010753 -0.032339 -0.004344 0.006597
-0.129944 -0.000933 0.055299 0.047530 0.137454 -0.008975 0.045425 -0.124716 -0.019243 -0.002287
-0.140834 0.010072 0.049834 0.032069 0.137502 -0.015114 0.066739 -0.116148 -0.044064 0.021993
-0.053772 0.030399 0.019532 0.000755 0.043226 -0.026513 0.007492 -0.027146 0.024230 -0.017719
-0.042171 0.020628 -0.000081 0.018346 -0.019083 -0.023154 0.016799 -0.032933 0.015526 0.044555
-0.033993 0.015365 0.033319 -0.024229 0.030062 -0.036037 0.004889 -0.017251 0.034035 -0.004903
-0.117799 0.062007 0.043177 -0.047804 0.102012 -0.051900 0.039054 -0.051132 -0.002041 0.023049
-0.015752 -0.110580 0.027057 0.109818 0.051232 -0.023092 0.017097 -0.002287 -0.107945 0.058165
-0.015940 0.002978 0.000178 0.042817 0.011073 -0.038837 -0.004944 0.018446 -0.031178 0.014593
0.009752 -0.133446 0.057408 0.099262 0.019894 -0.014592 0.043338 -0.023417 -0.114156 0.051920
0.003234 -0.139346 0.034339 0.116137 0.019379 -0.029780 0.058137 -0.037105 -0.106350 0.080134
-0.029247 -0.013809 0.018761 0.029648 0.012287 -0.014149 -0.000234 -0.020957 0.020210 -0.003153
-0.056424 0.007523 -0.018742 0.047856 0.024583 -0.059991 0.020704 -0.023492 0.031781 0.027845
-0.021873 0.015288 -0.017812 0.000420 0.028757 -0.031339 -0.007820 -0.002322 0.011624 0.021574
-0.043846 -0.058107 -0.000784 0.078789 0.036114 -0.035555 0.022336 -0.034712 -0.018177 0.059955
-0.022504 0.020887 -0.013665 0.089737 -0.028386 0.013678 0.039969 0.057367 -0.158597 0.005818
0.000768 0.018059 0.022969 0.021102 -0.017383 -0.008529 -0.004843 0.013295 -0.041382 -0.003098
-0.024629 0.036972 -0.020644 0.061439 -0.018555 0.027812 0.018414 0.074217 -0.153963 -0.001405
-0.032249 0.032020 -0.057275 0.096802 -0.018955 0.024510 0.042346 0.055404 -0.160527 0.020565
-0.002379 -0.000856 0.008564 0.031193 -0.015291 -0.020380 -0.011264 0.005894 -0.012065 0.016102
0.007849 -0.005996 -0.000353 0.018477 -0.008160 0.007801 0.012690 -0.022352 0.007516 -0.015781
-0.006045 0.004210 -0.019475 0.008912 0.001461 -0.002025 0.004338 0.002195 -0.002038 0.005210
-0.015977 -0.006335 -0.051053 0.091364 -0.025275 -0.010524 0.034447 0.008364 -0.056559 0.031503
0.106406 0.029354 0.059595 0.043523 -0.083343 0.049381 0.050203 -0.026403 -0.087939 -0.139031
0.032209 -0.000429 0.036319 0.006979 -0.021967 0.011646 0.018454 -0.016558 -0.015395 -0.054529
0.077325 0.030713 0.065455 0.027993 -0.069714 0.039533 0.045312 -0.020396 -0.076809 -0.122505
0.095211 0.021847 0.034432 0.062511 -0.076086 0.056199 0.045949 -0.037912 -0.066452 -0.132598
0.012860 0.002083 0.015372 0.010448 -0.012066 0.013232 0.005530 -0.005509 -0.011421 -0.029472
0.014192 -0.009201 0.014286 0.014066 -0.016192 0.000704 0.020762 -0.004787 -0.018327 -0.019817
0.012710 0.006826 -0.005937 0.006243 -0.009149 -0.009947 0.021604 -0.003474 -0.009374 -0.010001
0.074991 0.007273 0.005980 0.053225 -0.057596 0.036755 0.034436 -0.037232 -0.045131 -0.074240
0.095135 -0.039016 0.143243 -0.046959 -0.072891 0.050894 0.086361 -0.080661 0.041346 -0.182290
0.023677 -0.012574 0.054779 -0.017191 -0.019753 0.000797 0.017637 -0.005703 -0.003026 -0.038924
0.085563 -0.026753 0.142991 -0.063909 -0.070753 0.043530 0.094403 -0.074877 0.032396 -0.160661
0.084365 -0.039138 0.150132 -0.065563 -0.078467 0.063419 0.099740 -0.083906 0.042921 -0.175621
0.009974 -0.011445 0.024815 -0.003244 -0.013131 0.013181 0.016782 -0.007474 0.002978 -0.031476
0.006541 -0.030022 0.028646 0.021568 -0.011981 0.020700 0.012291 -0.016895 0.000421 -0.029022
0.013318 -0.011344 0.013747 0.007229 -0.005332 0.016560 0.010197 -0.016633 0.000830 -0.030750
0.049572 -0.040541 0.080791 -0.005545 -0.044523 0.055763 0.053581 -0.059058 0.030491 -0.115926
0.028925 0.009512 0.112170 -0.088955 -0.036398 -0.036610 0.011542 0.012406 -0.009518 -0.002721
0.009879 0.000646 0.015443 -0.016901 -0.003346 -0.012783 0.010552 0.004600 -0.000405 -0.002356
0.024516 0.018471 0.089485 -0.084924 -0.030810 -0.035770 0.006518 0.019122 -0.011527 0.004305
0.020973 0.010437 0.099295 -0.078486 -0.035838 -0.031609 0.003983 0.016619 -0.010218 0.006254
0.004605 -0.005343 0.023794 -0.009047 -0.006155 -0.005837 0.006115 0.003422 -0.002807 -0.005867
0.008930 -0.026118 0.033577 0.009463 -0.013697 -0.004322 0.007175 -0.006407 0.002861 -0.008979
0.007103 -0.005901 0.018070 -0.009224 -0.005945 -0.003082 0.004240 0.000733 -0.004516 -0.004075
0.015117 -0.015014 0.078587 -0.034860 -0.027537 -0.012552 0.006569 0.000283 -0.004384 -0.002828
-0.027120 0.024208 -0.036089 0.001256 0.001733 -0.009159 0.004960 0.014381 -0.011323 0.034798
-0.014002 -0.000309 -0.001042 0.017587 -0.003087 -0.002157 0.003791 0.001897 -0.009380 0.003943
-0.025079 0.033675 -0.046022 -0.004702 0.004118 -0.003968 0.003117 0.017414 -0.012259 0.034411
-0.023467 0.023513 -0.044873 -0.006247 0.002772 -0.000847 0.002026 0.016125 -0.007232 0.037991
-0.004156 -0.003618 0.003267 0.007663 -0.001228 -0.008049 0.003803 0.002513 -0.003954 0.002284
-0.009279 -0.027476 0.022038 0.032023 -0.014433 0.000658 0.006877 -0.004992 -0.003306 -0.002979
-0.006784 -0.004807 0.002428 0.008693 -0.002013 0.001329 0.001748 -0.000824 -0.004565 0.002725
-0.008957 -0.006576 -0.005669 0.001399 -0.002808 -0.007331 0.005327 0.004607 0.000427 0.016678
-0.044484 0.009611 -0.004255 0.205534 -0.063725 0.007868 -0.034441 -0.044152 -0.029567 -0.000462
0.001682 -0.011110 0.017319 0.096198 -0.029379 -0.006248 -0.017199 -0.031075 -0.006550 -0.014264
-0.037370 0.014167 -0.010569 0.230119 -0.059768 -0.010703 -0.037394 -0.039858 -0.040361 -0.002033
